1 1 1 100 1
0 2 1 100 5.34646e-06
1 2 1 100 0.999995
0 3 1 100 2.9821e-07
1 3 1 100 1
1 4 1 100 1
1 5 1 100 1
1 1 2 100 1
0 2 2 100 1.96131e-05
1 2 2 100 0.267912
2 2 2 100 0.732069
0 3 2 100 0.0360853
1 3 2 100 0.477457
2 3 2 100 0.486458
0 4 2 100 0.00112912
1 4 2 100 0.232876
2 4 2 100 0.765995
0 5 2 100 0.00223053
1 5 2 100 0.157895
2 5 2 100 0.839875
0 6 2 100 0.00727389
1 6 2 100 0.333333
2 6 2 100 0.659393
0 7 2 100 0.00173954
2 7 2 100 0.99826
1 1 3 100 1
2 1 3 100 1.18098e-07
0 2 3 100 0.00077208
1 2 3 100 0.00496173
2 2 3 100 0.990909
3 2 3 100 0.00335695
0 3 3 100 0.000118232
1 3 3 100 0.00375764
2 3 3 100 0.0380555
3 3 3 100 0.958069
0 4 3 100 0.103451
2 4 3 100 0.149254
3 4 3 100 0.747296
0 5 3 100 0.166239
2 5 3 100 0.334967
3 5 3 100 0.498794
0 6 3 100 0.206594
3 6 3 100 0.793406
1 1 4 100 0.998121
2 1 4 100 0.00146883
3 1 4 100 0.000409774
0 2 4 100 0.000273159
1 2 4 100 0.00365255
2 2 4 100 0.987051
3 2 4 100 0.0078564
4 2 4 100 0.00116658
0 3 4 100 0.000287763
1 3 4 100 0.000551648
2 3 4 100 0.00674555
3 3 4 100 0.98938
4 3 4 100 0.00303544
0 4 4 100 0.000412221
1 4 4 100 0.000213577
2 4 4 100 0.00136746
3 4 4 100 0.0284611
4 4 4 100 0.969546
0 5 4 100 0.0761784
1 5 4 100 0.00493641
3 5 4 100 0.232005
4 5 4 100 0.68688
0 6 4 100 0.0395978
1 6 4 100 0.0263158
2 6 4 100 2.78417e-07
3 6 4 100 0.131579
4 6 4 100 0.802507
0 7 4 100 0.127855
2 7 4 100 0.00148198
3 7 4 100 0.125
4 7 4 100 0.745663
0 8 4 100 0.002529
4 8 4 100 0.997471
1 1 5 100 0.997044
2 1 5 100 0.00160969
3 1 5 100 0.00102603
4 1 5 100 0.000320688
0 2 5 100 7.304e-05
1 2 5 100 0.00217203
2 2 5 100 0.984575
3 2 5 100 0.00917934
4 2 5 100 0.00310864
5 2 5 100 0.000892467
0 3 5 100 0.000341257
1 3 5 100 0.000324887
2 3 5 100 0.00445435
3 3 5 100 0.977743
4 3 5 100 0.0150219
5 3 5 100 0.00211432
0 4 5 100 0.000171838
1 4 5 100 8.22278e-05
2 4 5 100 0.000493448
3 4 5 100 0.00843968
4 4 5 100 0.978942
5 4 5 100 0.0118705
0 5 5 100 0.000350342
1 5 5 100 9.85116e-05
2 5 5 100 0.000103404
3 5 5 100 0.00206576
4 5 5 100 0.0146079
5 5 5 100 0.982774
0 6 5 100 0.0580748
3 6 5 100 0.025641
4 6 5 100 0.211524
5 6 5 100 0.70476
0 7 5 100 0.00252394
4 7 5 100 0.125
5 7 5 100 0.872476
0 8 5 100 0.173871
4 8 5 100 0.166667
5 8 5 100 0.659463
0 9 5 100 0.020183
5 9 5 100 0.979817
1 1 6 100 0.996076
2 1 6 100 0.00191444
3 1 6 100 0.000679486
4 1 6 100 0.000613841
5 1 6 100 0.000716345
0 2 6 100 7.1419e-07
1 2 6 100 0.00129077
2 2 6 100 0.981204
3 2 6 100 0.0112025
4 2 6 100 0.00309744
5 2 6 100 0.00122749
6 2 6 100 0.00197747
0 3 6 100 0.0003196
1 3 6 100 0.000135501
2 3 6 100 0.00300934
3 3 6 100 0.973293
4 3 6 100 0.0168813
5 3 6 100 0.00500632
6 3 6 100 0.00135513
0 4 6 100 0.000417606
2 4 6 100 0.000681736
3 4 6 100 0.00625955
4 4 6 100 0.966179
5 4 6 100 0.0211766
6 4 6 100 0.00528558
0 5 6 100 0.000418563
1 5 6 100 8.22634e-05
2 5 6 100 0.000138922
3 5 6 100 0.00124532
4 5 6 100 0.00731686
5 5 6 100 0.970474
6 5 6 100 0.0203237
0 6 6 100 0.000286258
2 6 6 100 0.000241805
3 6 6 100 0.000323197
4 6 6 100 0.00193542
5 6 6 100 0.012194
6 6 6 100 0.985019
0 7 6 100 0.0247049
3 7 6 100 0.00613497
4 7 6 100 0.0306748
5 7 6 100 0.249589
6 7 6 100 0.688896
0 8 6 100 0.0426314
4 8 6 100 0.0408163
5 8 6 100 0.204068
6 8 6 100 0.712485
0 9 6 100 0.0827264
5 9 6 100 0.230769
6 9 6 100 0.686504
0 10 6 100 0.0115668
6 10 6 100 0.988433
1 1 7 100 0.99413
2 1 7 100 0.00166709
3 1 7 100 0.00162574
4 1 7 100 0.000300211
5 1 7 100 0.000897468
6 1 7 100 0.0012019
7 1 7 100 0.000177574
0 2 7 100 9.38237e-05
1 2 7 100 0.000710185
2 2 7 100 0.980703
3 2 7 100 0.0095035
4 2 7 100 0.00346688
5 2 7 100 0.00136893
6 2 7 100 0.00137862
7 2 7 100 0.00277524
0 3 7 100 0.000264592
2 3 7 100 0.00213994
3 3 7 100 0.968942
4 3 7 100 0.0174063
5 3 7 100 0.00604396
6 3 7 100 0.00198427
7 3 7 100 0.00321862
0 4 7 100 0.000362023
2 4 7 100 0.000268392
3 4 7 100 0.00334942
4 4 7 100 0.963928
5 4 7 100 0.0205684
6 4 7 100 0.00785603
7 4 7 100 0.00366801
0 5 7 100 0.000273172
2 5 7 100 0.000180692
3 5 7 100 0.000180746
4 5 7 100 0.00505824
5 5 7 100 0.963716
6 5 7 100 0.0222761
7 5 7 100 0.00831483
0 6 7 100 0.000280778
2 6 7 100 9.20681e-05
3 6 7 100 9.20652e-05
4 6 7 100 0.000814291
5 6 7 100 0.00589196
6 6 7 100 0.975359
7 6 7 100 0.01747
0 7 7 100 0.000568509
3 7 7 100 4.84968e-05
4 7 7 100 0.00010422
5 7 7 100 0.00141032
6 7 7 100 0.00765027
7 7 7 100 0.990218
0 8 7 100 0.0506268
5 8 7 100 0.0364617
6 8 7 100 0.209877
7 8 7 100 0.703035
0 9 7 100 0.050598
5 9 7 100 0.0454545
6 9 7 100 0.318182
7 9 7 100 0.585766
0 10 7 100 0.0115664
6 10 7 100 0.111111
7 10 7 100 0.877322
0 11 7 100 0.0355633
7 11 7 100 0.964437
1 1 8 100 0.991576
2 1 8 100 0.00212803
3 1 8 100 0.0022837
4 1 8 100 0.000869144
5 1 8 100 0.000742495
6 1 8 100 0.00152714
7 1 8 100 0.000846599
8 1 8 100 2.74503e-05
0 2 8 100 0.000339644
1 2 8 100 0.000298849
2 2 8 100 0.973168
3 2 8 100 0.0104671
4 2 8 100 0.00452232
5 2 8 100 0.0020346
6 2 8 100 0.00215999
7 2 8 100 0.00381626
8 2 8 100 0.00319311
0 3 8 100 0.00021426
2 3 8 100 0.0019267
3 3 8 100 0.963987
4 3 8 100 0.016263
5 3 8 100 0.00717413
6 3 8 100 0.00364252
7 3 8 100 0.00268303
8 3 8 100 0.00410961
0 4 8 100 0.000218482
3 4 8 100 0.0032336
4 4 8 100 0.956328
5 4 8 100 0.0218969
6 4 8 100 0.010566
7 4 8 100 0.00538175
8 4 8 100 0.00237553
0 5 8 100 0.00023681
3 5 8 100 1.08922e-05
4 5 8 100 0.00435447
5 5 8 100 0.951775
6 5 8 100 0.0271754
7 5 8 100 0.011682
8 5 8 100 0.00476574
0 6 8 100 0.000219892
5 6 8 100 0.0066305
6 6 8 100 0.955621
7 6 8 100 0.0293669
8 6 8 100 0.00816167
0 7 8 100 3.68118e-06
5 7 8 100 0.00107849
6 7 8 100 0.00568441
7 7 8 100 0.971972
8 7 8 100 0.0212616
0 8 8 100 0.000657868
6 8 8 100 0.0018453
7 8 8 100 0.00653626
8 8 8 100 0.990961
0 9 8 100 0.000186399
6 9 8 100 0.0714286
7 9 8 100 0.214287
8 9 8 100 0.714098
0 10 8 100 0.111344
7 10 8 100 0.333333
8 10 8 100 0.555322
0 11 8 100 0.000363861
8 11 8 100 0.999636
1 1 9 100 0.985429
2 1 9 100 0.00414547
3 1 9 100 0.00361556
4 1 9 100 0.0014942
6 1 9 100 0.00152928
7 1 9 100 0.000749759
8 1 9 100 0.00303674
2 2 9 100 0.95143
3 2 9 100 0.019135
4 2 9 100 0.0105028
5 2 9 100 0.00298932
6 2 9 100 0.00309078
7 2 9 100 0.00604686
8 2 9 100 0.000759774
9 2 9 100 0.00604582
2 3 9 100 0.00227964
3 3 9 100 0.928085
4 3 9 100 0.0308274
5 3 9 100 0.0186982
6 3 9 100 0.00531909
7 3 9 100 0.00300203
8 3 9 100 0.00632429
9 3 9 100 0.00546412
3 4 9 100 0.0045977
4 4 9 100 0.924179
5 4 9 100 0.0365957
6 4 9 100 0.0235169
7 4 9 100 0.00383142
8 4 9 100 0.00268203
9 4 9 100 0.0045977
0 5 9 100 4.58829e-07
4 5 9 100 0.00310078
5 5 9 100 0.913389
6 5 9 100 0.0450895
7 5 9 100 0.0267915
8 5 9 100 0.00620247
9 5 9 100 0.00542602
0 6 9 100 4.55474e-05
4 6 9 100 0.000788022
5 6 9 100 0.0047143
6 6 9 100 0.913858
7 6 9 100 0.0495326
8 6 9 100 0.0286977
9 6 9 100 0.00236345
0 7 9 100 4.27497e-06
4 7 9 100 2.1512e-07
5 7 9 100 0.0008
6 7 9 100 0.0072
7 7 9 100 0.912451
8 7 9 100 0.053949
9 7 9 100 0.025596
0 8 9 100 9.14534e-06
6 8 9 100 0.00167923
7 8 9 100 0.00587741
8 8 9 100 0.954688
9 8 9 100 0.0377459
0 9 9 100 0.00157599
7 9 9 100 0.00296339
8 9 9 100 0.0104402
9 9 9 100 0.98502
0 10 9 100 0.0716242
8 10 9 100 0.285714
9 10 9 100 0.642662
0 11 9 100 0.00140287
9 11 9 100 0.998597
1 1 10 100 0.968094
2 1 10 100 0.00253404
3 1 10 100 0.00264724
5 1 10 100 0.00442183
6 1 10 100 0.0103925
7 1 10 100 0.00122889
9 1 10 100 0.0106812
0 2 10 100 3.57981e-07
1 2 10 100 0.00267354
2 2 10 100 0.919388
3 2 10 100 0.0333153
4 2 10 100 0.0146373
5 2 10 100 0.0026738
6 2 10 100 0.0053476
7 2 10 100 0.0026738
8 2 10 100 0.00592102
10 2 10 100 0.0133696
2 3 10 100 0.00537634
3 3 10 100 0.887549
4 3 10 100 0.0398911
5 3 10 100 0.0242789
6 3 10 100 0.00537626
7 3 10 100 0.0160437
8 3 10 100 0.00537631
9 3 10 100 0.00803523
10 3 10 100 0.00807277
2 4 10 100 0.0027248
3 4 10 100 0.00544978
4 4 10 100 0.852644
5 4 10 100 0.0468565
6 4 10 100 0.0485611
7 4 10 100 0.0138384
8 4 10 100 0.0132706
9 4 10 100 0.00338415
10 4 10 100 0.0132707
0 5 10 100 2.04654e-07
2 5 10 100 0.00214624
3 5 10 100 0.000639419
4 5 10 100 0.00835636
5 5 10 100 0.832829
6 5 10 100 0.0529255
7 5 10 100 0.0585431
8 5 10 100 0.0222767
9 5 10 100 0.0139276
10 5 10 100 0.00835586
0 6 10 100 1.64612e-06
4 6 10 100 0.00285714
5 6 10 100 0.00857147
6 6 10 100 0.82001
7 6 10 100 0.0635981
8 6 10 100 0.0813426
9 6 10 100 0.00930845
10 6 10 100 0.0143104
0 7 10 100 3.66098e-07
3 7 10 100 0.00296733
6 7 10 100 0.00890208
7 7 10 100 0.816196
8 7 10 100 0.0474788
9 7 10 100 0.118524
10 7 10 100 0.00593176
0 8 10 100 2.25061e-05
3 8 10 100 4.26076e-07
5 8 10 100 1.34271e-06
7 8 10 100 0.0125
8 8 10 100 0.850546
9 8 10 100 0.0496263
10 8 10 100 0.087303
0 9 10 100 0.000263807
1 9 10 100 0.000879384
3 9 10 100 7.38272e-07
5 9 10 100 0.00276251
7 9 10 100 0.00350877
8 9 10 100 0.0206667
9 9 10 100 0.933333
10 9 10 100 0.0385847
0 10 10 100 0.00526219
8 10 10 100 0.00398406
9 10 10 100 0.0278884
10 10 10 100 0.962865
0 11 10 100 0.114255
9 11 10 100 0.111111
10 11 10 100 0.774634
0 12 10 100 7.90093e-05
9 12 10 100 0.999921
0 13 10 100 9.3898e-05
10 13 10 100 0.999906
1 1 11 100 0.977099
2 1 11 100 0.00763392
3 1 11 100 0.00763349
4 1 11 100 0.00763284
11 1 11 100 7.45802e-07
2 2 11 100 0.908406
3 2 11 100 0.0457929
4 2 11 100 0.0152672
5 2 11 100 0.00763359
8 2 11 100 0.00763357
10 2 11 100 0.0152672
3 3 11 100 0.882704
4 3 11 100 0.0538462
5 3 11 100 0.0249883
6 3 11 100 0.0153846
7 3 11 100 0.00769266
8 3 11 100 0.00769231
9 3 11 100 0.00769231
3 4 11 100 0.00769231
4 4 11 100 0.822965
5 4 11 100 0.0615385
6 4 11 100 0.0462655
7 4 11 100 0.00769231
8 4 11 100 0.0153846
9 4 11 100 0.0153846
10 4 11 100 0.00769231
11 4 11 100 0.0153846
4 5 11 100 0.00787399
5 5 11 100 0.834532
6 5 11 100 0.0393701
7 5 11 100 0.0631821
8 5 11 100 0.0156723
9 5 11 100 0.0314955
11 5 11 100 0.00787439
0 6 11 100 2.27143e-07
5 6 11 100 0.008
6 6 11 100 0.785932
7 6 11 100 0.0660688
8 6 11 100 0.078862
9 6 11 100 0.0291373
10 6 11 100 0.032
0 7 11 100 2.80738e-06
7 7 11 100 0.802012
8 7 11 100 0.060493
9 7 11 100 0.0686787
10 7 11 100 0.0438165
11 7 11 100 0.0249972
0 8 11 100 7.1298e-06
2 8 11 100 2.35287e-06
7 8 11 100 0.00854701
8 8 11 100 0.811966
9 8 11 100 0.0512821
10 8 11 100 0.0769324
11 8 11 100 0.0512632
0 9 11 100 1.31504e-05
7 9 11 100 7.09457e-06
8 9 11 100 0.00908367
9 9 11 100 0.872727
10 9 11 100 0.0545455
11 9 11 100 0.0636233
0 10 11 100 1.06488e-05
7 10 11 100 2.1232e-07
10 10 11 100 0.95047
11 10 11 100 0.049519
0 11 11 100 0.000402386
8 11 11 100 0.0114942
11 11 11 100 0.988103
9 12 11 100 1
0 13 11 100 0.00048844
11 13 11 100 0.999512
1 1 12 100 0.96875
2 1 12 100 0.03125
2 2 12 100 0.968746
3 2 12 100 0.03125
12 2 12 100 4.382e-06
3 3 12 100 0.953071
4 3 12 100 0.0312941
5 3 12 100 0.0156154
6 3 12 100 3.7871e-06
8 3 12 100 3.7871e-06
9 3 12 100 3.7871e-06
10 3 12 100 3.7871e-06
11 3 12 100 3.7871e-06
3 4 12 100 4.41119e-05
4 4 12 100 0.906169
5 4 12 100 0.0625177
6 4 12 100 0.0312538
8 4 12 100 3.79024e-06
9 4 12 100 3.79024e-06
10 4 12 100 3.79024e-06
11 4 12 100 3.79024e-06
4 5 12 100 5.10131e-05
5 5 12 100 0.848641
6 5 12 100 0.0679021
7 5 12 100 0.00045343
8 5 12 100 0.0361898
9 5 12 100 0.0364206
10 5 12 100 0.0051709
11 5 12 100 0.0051709
6 6 12 100 0.806452
7 6 12 100 0.129013
8 6 12 100 0.0322581
10 6 12 100 0.0322773
7 7 12 100 0.833333
8 7 12 100 0.1
9 7 12 100 0.0333333
11 7 12 100 0.0333333
0 8 12 100 4.51571e-07
8 8 12 100 0.835911
9 8 12 100 0.112385
10 8 12 100 0.0428082
11 8 12 100 0.00889492
0 9 12 100 4.14984e-06
9 9 12 100 0.857143
10 9 12 100 0.0714286
11 9 12 100 0.0357533
12 9 12 100 0.0356708
0 10 12 100 1.92216e-05
10 10 12 100 0.923077
11 10 12 100 0.0384615
12 10 12 100 0.0384423
0 11 12 100 2.34633e-05
11 11 12 100 0.916667
12 11 12 100 0.0833098
0 12 12 100 0.000414521
12 12 12 100 0.999586
1 1 13 100 0.995051
2 1 13 100 0.00494873
2 2 13 100 0.935413
3 2 13 100 0.0625
7 2 13 100 0.00208732
3 3 13 100 0.9375
4 3 13 100 0.0625
4 4 13 100 0.875
5 4 13 100 0.0625
8 4 13 100 0.0625
5 5 13 100 0.875
6 5 13 100 0.0625
9 5 13 100 0.0625
6 6 13 100 0.874093
7 6 13 100 0.0625
8 6 13 100 0.000907284
10 6 13 100 0.0625
5 7 13 100 0.000386862
6 7 13 100 0.0621131
7 7 13 100 0.75
8 7 13 100 0.0625
9 7 13 100 0.0625
11 7 13 100 0.0625
7 8 13 100 0.0625
8 8 13 100 0.689115
9 8 13 100 0.0625
10 8 13 100 0.123385
12 8 13 100 0.0625
8 9 13 100 0.0666666
9 9 13 100 0.733333
10 9 13 100 0.0666667
11 9 13 100 0.133333
10 10 13 100 0.799983
11 10 13 100 0.0666667
12 10 13 100 0.13335
0 11 13 100 7.92681e-05
11 11 13 100 0.666667
12 11 13 100 0.133333
13 11 13 100 0.199921
0 12 13 100 5.63894e-05
12 12 13 100 0.909091
13 12 13 100 0.0908527
0 13 13 100 0.000602657
13 13 13 100 0.999397
0 14 13 100 1
1 1 14 100 0.999538
2 1 14 100 0.000338405
3 1 14 100 3.41832e-06
8 1 14 100 3.11522e-05
9 1 14 100 2.96415e-05
10 1 14 100 2.96415e-05
11 1 14 100 2.96415e-05
1 2 14 100 0.000338405
2 2 14 100 0.815774
3 2 14 100 0.0463796
4 2 14 100 1.1786e-05
6 2 14 100 0.136985
8 2 14 100 0.000127978
9 2 14 100 0.000127978
10 2 14 100 0.000127978
11 2 14 100 0.000127978
3 3 14 100 0.571083
4 3 14 100 0.143202
6 3 14 100 0.142857
7 3 14 100 0.142857
2 4 14 100 1.1786e-05
3 4 14 100 0.0405071
4 4 14 100 0.653758
5 4 14 100 0.142857
8 4 14 100 0.00500202
9 4 14 100 0.00500202
10 4 14 100 0.00500202
11 4 14 100 0.00500202
12 4 14 100 0.142857
5 5 14 100 0.571429
6 5 14 100 0.142857
11 5 14 100 0.142857
13 5 14 100 0.142857
0 6 14 100 4.48744e-05
6 6 14 100 0.5
7 6 14 100 0.166667
12 6 14 100 0.166667
14 6 14 100 0.166622
7 7 14 100 0.6
8 7 14 100 0.2
13 7 14 100 0.2
0 8 14 100 7.84813e-05
8 8 14 100 0.4
9 8 14 100 0.4
14 8 14 100 0.199922
9 9 14 100 0.5
10 9 14 100 0.5
10 10 14 100 0.5
11 10 14 100 0.5
11 11 14 100 0.5
12 11 14 100 0.5
12 12 14 100 0.5
13 12 14 100 0.5
0 13 14 100 0.000171798
13 13 14 100 0.5
14 13 14 100 0.499828
14 14 14 100 1
1 1 15 100 0.75
5 1 15 100 0.25
2 2 15 100 0.730205
3 2 15 100 0.0197949
10 2 15 100 0.249987
11 2 15 100 1.28467e-05
3 3 15 100 0.5
4 3 15 100 0.25
12 3 15 100 0.25
4 4 15 100 0.5
5 4 15 100 0.25
13 4 15 100 0.25
5 5 15 100 0.25
6 5 15 100 0.25
11 5 15 100 0.25
14 5 15 100 0.25
6 6 15 100 0.25
7 6 15 100 0.25
12 6 15 100 0.25
15 6 15 100 0.25
7 7 15 100 0.333333
8 7 15 100 0.333333
13 7 15 100 0.333333
8 8 15 100 0.333333
9 8 15 100 0.333333
14 8 15 100 0.333333
0 9 15 100 0.000150325
9 9 15 100 0.333333
10 9 15 100 0.333333
15 9 15 100 0.333183
10 10 15 100 0.5
11 10 15 100 0.5
11 11 15 100 0.5
12 11 15 100 0.5
12 12 15 100 0.5
13 12 15 100 0.5
13 13 15 100 0.5
14 13 15 100 0.5
14 14 15 100 1
0 15 15 100 0.000791735
15 15 15 100 0.999208
