2 0 100 2 1
1 1 100 2 0.968405
2 1 100 2 0.0315952
1 2 100 2 0.0137261
2 2 100 2 0.986274
1 3 100 2 0.293963
2 3 100 2 0.706037
1 4 100 2 0.25197
2 4 100 2 0.74803
1 5 100 2 0.371941
2 5 100 2 0.628059
1 6 100 2 0.1653
2 6 100 2 0.8347
1 7 100 2 0.0991799
2 7 100 2 0.90082
1 8 100 2 0.17391
2 8 100 2 0.82609
1 9 100 2 0.198292
2 9 100 2 0.801708
2 10 100 2 1
1 11 100 2 0.513554
2 11 100 2 0.486446
2 0 100 3 3.79589e-05
3 0 100 3 0.999962
1 1 100 3 0.837908
2 1 100 3 0.0843507
3 1 100 3 0.0777413
1 2 100 3 0.00610126
2 2 100 3 0.982906
3 2 100 3 0.0109927
1 3 100 3 0.00447918
2 3 100 3 0.0221567
3 3 100 3 0.973364
1 4 100 3 0.0384701
2 4 100 3 0.284387
3 4 100 3 0.677143
1 5 100 3 0.0445021
2 5 100 3 0.185117
3 5 100 3 0.770381
1 6 100 3 0.242428
2 6 100 3 0.23399
3 6 100 3 0.523581
1 7 100 3 0.0830237
2 7 100 3 0.322985
3 7 100 3 0.593992
1 8 100 3 0.0195612
2 8 100 3 0.194493
3 8 100 3 0.785945
1 9 100 3 0.184419
2 9 100 3 0.117658
3 9 100 3 0.697923
2 10 100 3 0.535452
3 10 100 3 0.464548
1 0 100 4 1.45521e-06
2 0 100 4 0.0967533
3 0 100 4 0.00220055
4 0 100 4 0.901045
1 1 100 4 0.658196
2 1 100 4 0.115307
3 1 100 4 0.114491
4 1 100 4 0.112005
1 2 100 4 0.00352684
2 2 100 4 0.980163
3 2 100 4 0.00905347
4 2 100 4 0.00725705
1 3 100 4 0.00113916
2 3 100 4 0.0189866
3 3 100 4 0.970751
4 3 100 4 0.0091233
1 4 100 4 0.000263587
2 4 100 4 0.00422587
3 4 100 4 0.0290552
4 4 100 4 0.966455
1 5 100 4 0.00554577
2 5 100 4 0.0252433
3 5 100 4 0.203437
4 5 100 4 0.765774
1 6 100 4 0.0428018
2 6 100 4 0.0580412
3 6 100 4 0.178283
4 6 100 4 0.720874
1 7 100 4 0.0157271
2 7 100 4 0.179109
3 7 100 4 0.210648
4 7 100 4 0.594516
1 8 100 4 0.10667
2 8 100 4 0.201187
3 8 100 4 0.371059
4 8 100 4 0.321084
1 9 100 4 0.0548906
2 9 100 4 0.18718
3 9 100 4 0.33065
4 9 100 4 0.42728
1 10 100 4 4.38063e-07
2 10 100 4 0.200431
3 10 100 4 0.186957
4 10 100 4 0.612612
2 11 100 4 0.000372018
3 11 100 4 7.7294e-05
4 11 100 4 0.999551
1 0 100 5 4.65225e-06
2 0 100 5 0.0968829
3 0 100 5 0.100442
4 0 100 5 0.0485427
5 0 100 5 0.754128
1 1 100 5 0.99444
2 1 100 5 0.00274571
3 1 100 5 0.00148951
4 1 100 5 0.00124196
5 1 100 5 8.27993e-05
1 2 100 5 0.0014772
2 2 100 5 0.992476
3 2 100 5 0.00403655
4 2 100 5 0.000670828
5 2 100 5 0.00133974
1 3 100 5 0.000411282
2 3 100 5 0.0110704
3 3 100 5 0.978259
4 3 100 5 0.00960005
5 3 100 5 0.000659104
2 4 100 5 0.00174414
3 4 100 5 0.0192548
4 4 100 5 0.969022
5 4 100 5 0.00997928
2 5 100 5 8.57007e-05
3 5 100 5 0.00423889
4 5 100 5 0.0265595
5 5 100 5 0.969116
1 6 100 5 0.00204752
2 6 100 5 0.00409778
3 6 100 5 0.0102478
4 6 100 5 0.160508
5 6 100 5 0.823099
1 7 100 5 0.00125179
2 7 100 5 0.047839
3 7 100 5 0.06094
4 7 100 5 0.107918
5 7 100 5 0.782051
1 8 100 5 5.4143e-06
2 8 100 5 0.020101
3 8 100 5 0.0857107
4 8 100 5 0.182631
5 8 100 5 0.711552
1 9 100 5 0.0719003
2 9 100 5 0.0583743
3 9 100 5 0.0105302
4 9 100 5 0.218757
5 9 100 5 0.640438
1 10 100 5 8.73866e-06
2 10 100 5 0.313557
3 10 100 5 0.280216
4 10 100 5 0.131372
5 10 100 5 0.274846
1 11 100 5 0.000100567
2 11 100 5 0.00100699
3 11 100 5 0.0731041
4 11 100 5 0.263331
5 11 100 5 0.662458
2 0 100 6 0.0891137
3 0 100 6 0.151378
4 0 100 6 0.0491238
5 0 100 6 0.0470027
6 0 100 6 0.663382
1 1 100 6 0.997296
2 1 100 6 0.00200724
3 1 100 6 0.000347545
4 1 100 6 0.000151374
5 1 100 6 0.000197529
1 2 100 6 0.000481209
2 2 100 6 0.994787
3 2 100 6 0.00356783
4 2 100 6 0.000728173
5 2 100 6 0.000291271
6 2 100 6 0.000144058
1 3 100 6 6.91507e-05
2 3 100 6 0.00464931
3 3 100 6 0.985516
4 3 100 6 0.0074952
5 3 100 6 0.00198203
6 3 100 6 0.000288298
2 4 100 6 0.000873767
3 4 100 6 0.00897741
4 4 100 6 0.978983
5 4 100 6 0.00887513
6 4 100 6 0.00229111
1 5 100 6 7.31636e-05
3 5 100 6 0.00146387
4 5 100 6 0.0111699
5 5 100 6 0.977719
6 5 100 6 0.0095741
2 6 100 6 0.000154257
3 6 100 6 0.000222095
4 6 100 6 0.00241816
5 6 100 6 0.0143831
6 6 100 6 0.982822
2 7 100 6 1.68902e-06
3 7 100 6 0.0101961
4 7 100 6 0.0172604
5 7 100 6 0.13335
6 7 100 6 0.839191
1 8 100 6 0.00837556
2 8 100 6 0.00901719
3 8 100 6 0.00569234
4 8 100 6 0.0828205
5 8 100 6 0.132194
6 8 100 6 0.761901
1 9 100 6 2.64226e-05
2 9 100 6 0.0055339
3 9 100 6 0.121941
4 9 100 6 0.0103686
5 9 100 6 0.41779
6 9 100 6 0.44434
2 10 100 6 0.121939
3 10 100 6 5.66669e-07
4 10 100 6 0.00791224
5 10 100 6 0.00430143
6 10 100 6 0.865847
2 11 100 6 1
3 12 100 6 0.500067
4 12 100 6 0.499933
4 13 100 6 0.5
5 13 100 6 0.5
2 14 100 6 4.33382e-06
5 14 100 6 0.500201
6 14 100 6 0.499794
6 15 100 6 1
2 0 100 7 0.000348355
3 0 100 7 0.166858
4 0 100 7 0.241117
5 0 100 7 0.204501
6 0 100 7 0.0335864
7 0 100 7 0.353589
1 1 100 7 0.997074
2 1 100 7 0.00195903
3 1 100 7 0.000388839
4 1 100 7 0.000194403
5 1 100 7 0.000189823
6 1 100 7 0.000194403
1 2 100 7 0.000115895
2 2 100 7 0.995121
3 2 100 7 0.004079
4 2 100 7 0.000585755
7 2 100 7 9.84739e-05
2 3 100 7 0.00253103
3 3 100 7 0.986276
4 3 100 7 0.00866707
5 3 100 7 0.00204015
6 3 100 7 0.000486159
2 4 100 7 0.000599284
3 4 100 7 0.00515062
4 4 100 7 0.980902
5 4 100 7 0.00974551
6 4 100 7 0.00302072
7 4 100 7 0.000581353
3 5 100 7 0.00105227
4 5 100 7 0.00695719
5 5 100 7 0.976593
6 5 100 7 0.0119915
7 5 100 7 0.00340565
1 6 100 7 9.82354e-05
4 6 100 7 0.00168865
5 6 100 7 0.00926432
6 6 100 7 0.977116
7 6 100 7 0.0118323
3 7 100 7 0.000198914
5 7 100 7 0.00274095
6 7 100 7 0.0108483
7 7 100 7 0.986212
2 8 100 7 2.23349e-06
3 8 100 7 1.73341e-06
4 8 100 7 0.00623244
5 8 100 7 0.00618634
6 8 100 7 0.243947
7 8 100 7 0.74363
1 9 100 7 2.40255e-06
2 9 100 7 0.00411797
3 9 100 7 1.36503e-07
4 9 100 7 0.00223548
5 9 100 7 0.0231587
6 9 100 7 0.00472319
7 9 100 7 0.965762
6 10 100 7 0.501809
7 10 100 7 0.498191
6 11 100 7 3.98349e-05
7 11 100 7 0.99996
1 0 100 8 1.27791e-06
2 0 100 8 0.122922
3 0 100 8 0.125462
4 0 100 8 0.186009
5 0 100 8 0.0978037
6 0 100 8 0.0488883
7 0 100 8 9.21289e-05
8 0 100 8 0.418821
1 1 100 8 0.997073
2 1 100 8 0.00221789
3 1 100 8 0.000472759
4 1 100 8 0.000236381
1 2 100 8 0.000456464
2 2 100 8 0.990226
3 2 100 8 0.00719078
4 2 100 8 0.00094611
5 2 100 8 0.000473043
6 2 100 8 0.000707866
1 3 100 8 0.000468946
2 3 100 8 0.00410852
3 3 100 8 0.978381
4 3 100 8 0.0116216
5 3 100 8 0.00424155
6 3 100 8 0.000942579
7 3 100 8 0.000235645
2 4 100 8 0.00139113
3 4 100 8 0.00660017
4 4 100 8 0.971015
5 4 100 8 0.0141603
6 4 100 8 0.00565388
7 4 100 8 0.000944161
8 4 100 8 0.000235443
3 5 100 8 0.00141753
4 5 100 8 0.00921349
5 5 100 8 0.963661
6 5 100 8 0.0163433
7 5 100 8 0.00843022
8 5 100 8 0.000934916
3 6 100 8 0.000237928
4 6 100 8 0.0021177
5 6 100 8 0.00975445
6 6 100 8 0.964995
7 6 100 8 0.0143508
8 6 100 8 0.00854441
2 7 100 8 8.03824e-06
5 7 100 8 0.00361605
6 7 100 8 0.0101711
7 7 100 8 0.972099
8 7 100 8 0.0141059
4 8 100 8 0.000244337
5 8 100 8 0.000241882
6 8 100 8 0.00441857
7 8 100 8 0.0116483
8 8 100 8 0.983447
5 9 100 8 0.0241952
6 9 100 8 0.0319638
7 9 100 8 0.340948
8 9 100 8 0.602893
2 10 100 8 0.000828211
4 10 100 8 0.0135805
5 10 100 8 0.00999898
6 10 100 8 0.0340226
7 10 100 8 0.12014
8 10 100 8 0.82143
3 11 100 8 6.08422e-07
4 11 100 8 0.11207
5 11 100 8 0.223945
6 11 100 8 0.000744003
7 11 100 8 0.111271
8 11 100 8 0.55197
6 12 100 8 0.500149
8 12 100 8 0.499851
7 13 100 8 1
8 14 100 8 1
1 0 100 9 5.48671e-05
2 0 100 9 0.000124013
3 0 100 9 0.181654
4 0 100 9 0.0921628
5 0 100 9 0.183989
6 0 100 9 0.190319
7 0 100 9 4.03678e-05
9 0 100 9 0.351656
1 1 100 9 0.994338
2 1 100 9 0.00365904
3 1 100 9 0.00182951
5 1 100 9 0.00017343
1 2 100 9 0.000919591
2 2 100 9 0.989855
3 2 100 9 0.00554091
4 2 100 9 0.00367634
5 2 100 9 8.34991e-06
2 3 100 9 0.00637655
3 3 100 9 0.974483
4 3 100 9 0.0118441
5 3 100 9 0.00456318
6 3 100 9 0.00273303
9 3 100 9 1.91699e-07
2 4 100 9 1.11851e-07
3 4 100 9 0.00746375
4 4 100 9 0.964531
5 4 100 9 0.0162668
6 4 100 9 0.00625517
7 4 100 9 0.00456925
8 4 100 9 0.000913853
3 5 100 9 0.000226335
4 5 100 9 0.00868109
5 5 100 9 0.950011
6 5 100 9 0.0210617
7 5 100 9 0.0109298
8 5 100 9 0.00819774
9 5 100 9 0.000892476
3 6 100 9 1.91801e-07
4 6 100 9 0.0036664
5 6 100 9 0.012786
6 6 100 9 0.941605
7 6 100 9 0.0228323
8 6 100 9 0.0109594
9 6 100 9 0.00815068
4 7 100 9 0.000927753
5 7 100 9 0.00465228
6 7 100 9 0.0138799
7 7 100 9 0.950027
8 7 100 9 0.019483
9 7 100 9 0.01103
6 8 100 9 0.00564539
7 8 100 9 0.014116
8 8 100 9 0.961825
9 8 100 9 0.018414
7 9 100 9 0.00575765
8 9 100 9 0.0136832
9 9 100 9 0.980559
2 10 100 9 1.09919e-05
7 10 100 9 1.03996e-05
8 10 100 9 0.357805
9 10 100 9 0.642174
3 11 100 9 0.000869588
5 11 100 9 0.140005
8 11 100 9 0.0158554
9 11 100 9 0.84327
6 12 100 9 0.516077
9 12 100 9 0.483923
7 13 100 9 1
8 14 100 9 1
9 15 100 9 1
1 0 100 10 0.000228637
2 0 100 10 7.95957e-06
3 0 100 10 4.54641e-06
5 0 100 10 1.59654e-05
6 0 100 10 0.221286
7 0 100 10 0.0150038
8 0 100 10 0.0102792
10 0 100 10 0.753174
1 1 100 10 0.989547
2 1 100 10 0.00348433
3 1 100 10 0.00348433
5 1 100 10 0.00348433
1 2 100 10 0.00339262
2 2 100 10 0.9465
3 2 100 10 0.0203549
4 2 100 10 0.0135699
5 2 100 10 0.0127912
6 2 100 10 0.00339147
2 3 100 10 0.010428
3 3 100 10 0.94893
4 3 100 10 0.0243223
5 3 100 10 0.000797794
6 3 100 10 0.00695203
7 3 100 10 0.00856929
3 4 100 10 0.00694445
4 4 100 10 0.9375
5 4 100 10 0.0243056
6 4 100 10 0.0173611
7 4 100 10 0.00694445
8 4 100 10 0.00694445
2 5 100 10 0.00337317
4 5 100 10 0.0101286
5 5 100 10 0.903959
6 5 100 10 0.0302975
7 5 100 10 0.0254156
8 5 100 10 0.0133332
9 5 100 10 0.0134927
2 6 100 10 0.00337957
3 6 100 10 0.0101387
5 6 100 10 0.0135183
6 6 100 10 0.875307
7 6 100 10 0.0403216
8 6 100 10 0.0270364
9 6 100 10 0.0202774
10 6 100 10 0.0100214
4 7 100 10 0.0034976
5 7 100 10 0.00354835
6 7 100 10 0.0244838
7 7 100 10 0.88839
8 7 100 10 0.0314784
9 7 100 10 0.0209856
10 7 100 10 0.0276167
6 8 100 10 0.00361014
7 8 100 10 0.0216608
8 8 100 10 0.920585
9 8 100 10 0.0361014
10 8 100 10 0.0180431
7 9 100 10 0.00373138
8 9 100 10 0.0223883
9 9 100 10 0.940308
10 9 100 10 0.0335722
8 10 100 10 0.00388083
9 10 100 10 0.023285
10 10 100 10 0.972834
9 11 100 10 0.166627
10 11 100 10 0.833373
10 12 100 10 1
4 0 100 11 0.00179427
8 0 100 11 0.389742
9 0 100 11 0.0371606
11 0 100 11 0.571303
1 1 100 11 0.988851
2 1 100 11 0.00891493
9 1 100 11 0.0022343
1 2 100 11 0.000706462
2 2 100 11 0.972527
3 2 100 11 0.0267668
2 3 100 11 0.00900901
3 3 100 11 0.954954
4 3 100 11 0.027027
5 3 100 11 0.00900947
3 4 100 11 0.0175449
4 4 100 11 0.938595
5 4 100 11 0.0438604
4 5 100 11 0.00844237
5 5 100 11 0.878006
6 5 100 11 0.0665153
7 5 100 11 0.0403895
9 5 100 11 0.0066468
5 6 100 11 0.00857874
6 6 100 11 0.875948
7 6 100 11 0.0361667
8 6 100 11 0.044992
9 6 100 11 0.0257362
10 6 100 11 0.00857875
6 7 100 11 0.00877461
7 7 100 11 0.877461
8 7 100 11 0.043873
9 7 100 11 0.0351053
10 7 100 11 0.0263238
11 7 100 11 0.00846255
6 8 100 11 0.000128546
7 8 100 11 0.00885516
8 8 100 11 0.859179
9 8 100 11 0.0698603
10 8 100 11 0.0354206
11 8 100 11 0.0265558
7 9 100 11 0.00952432
8 9 100 11 0.00952432
9 9 100 11 0.876237
10 9 100 11 0.0666702
11 9 100 11 0.0380438
8 10 100 11 0.0191767
9 10 100 11 0.00971387
10 10 100 11 0.903387
11 10 100 11 0.0677223
9 11 100 11 0.0217474
10 11 100 11 0.0108737
11 11 100 11 0.967379
2 12 100 11 2.80457e-05
10 12 100 11 0.400065
11 12 100 11 0.599907
11 13 100 11 1
8 0 100 12 0.00153897
12 0 100 12 0.998461
1 1 100 12 1
2 2 100 12 1
3 3 100 12 1
4 4 100 12 1
5 5 100 12 1
6 6 100 12 1
7 7 100 12 1
8 8 100 12 1
9 9 100 12 1
10 10 100 12 1
11 11 100 12 1
11 12 100 12 0.0476369
12 12 100 12 0.952363
12 13 100 12 1
2 0 100 13 0.0141572
12 0 100 13 0.0115011
13 0 100 13 0.974342
1 1 100 13 0.933339
2 1 100 13 0.0666606
2 2 100 13 0.928165
3 2 100 13 0.0718349
2 3 100 13 0.00605499
3 3 100 13 0.841002
4 3 100 13 0.152943
3 4 100 13 0.143005
4 4 100 13 0.714163
5 4 100 13 0.142832
4 5 100 13 0.142794
5 5 100 13 0.71397
6 5 100 13 0.142794
7 5 100 13 0.000441932
5 6 100 13 0.14292
6 6 100 13 0.714602
7 6 100 13 0.142478
6 7 100 13 0.142857
7 7 100 13 0.642857
8 7 100 13 0.142857
9 7 100 13 0.0714286
7 8 100 13 0.153846
8 8 100 13 0.615385
9 8 100 13 0.076923
10 8 100 13 0.076923
11 8 100 13 0.076923
8 9 100 13 0.214287
9 9 100 13 0.571432
11 9 100 13 0.071429
12 9 100 13 0.142852
9 10 100 13 0.230771
10 10 100 13 0.692313
13 10 100 13 0.0769164
7 11 100 13 0.0588252
8 11 100 13 0.0588252
9 11 100 13 0.0588252
10 11 100 13 0.235301
11 11 100 13 0.529427
13 11 100 13 0.0587965
11 12 100 13 0.25
12 12 100 13 0.75
12 13 100 13 0.250113
13 13 100 13 0.749887
13 14 100 13 1
14 0 100 14 1
1 1 100 14 1
2 2 100 14 1
3 3 100 14 1
4 4 100 14 1
5 5 100 14 1
6 6 100 14 1
7 7 100 14 1
8 8 100 14 1
9 9 100 14 1
10 10 100 14 1
11 11 100 14 1
12 12 100 14 1
13 13 100 14 1
14 14 100 14 1
15 0 100 15 1
1 1 100 15 1
2 2 100 15 1
3 3 100 15 1
4 4 100 15 1
5 5 100 15 1
6 6 100 15 1
7 7 100 15 1
8 8 100 15 1
9 9 100 15 1
10 10 100 15 1
11 11 100 15 1
12 12 100 15 1
13 13 100 15 1
14 14 100 15 1
15 15 100 15 1
