1 1 2 100 1
0 2 2 100 0.000750921
1 2 2 100 0.00706235
2 2 2 100 0.992187
0 3 2 100 0.546821
1 3 2 100 0.00605536
2 3 2 100 0.447123
0 4 2 100 0.16917
1 4 2 100 0.0121982
2 4 2 100 0.818632
0 5 2 100 0.0895443
1 5 2 100 0.0260416
2 5 2 100 0.884414
0 6 2 100 0.0669793
1 6 2 100 0.0145964
2 6 2 100 0.918424
0 7 2 100 0.0675894
1 7 2 100 0.0135135
2 7 2 100 0.918897
0 8 2 100 0.157895
1 8 2 100 3.46097e-07
2 8 2 100 0.842105
0 9 2 100 0.1
2 9 2 100 0.9
0 10 2 100 5.50277e-06
2 10 2 100 0.999995
2 11 2 100 1
1 1 3 100 0.994714
2 1 3 100 0.00363251
3 1 3 100 0.00165302
0 2 3 100 0.00128673
1 2 3 100 0.0101012
2 2 3 100 0.978332
3 2 3 100 0.0102802
0 3 3 100 0.000873396
1 3 3 100 0.00289384
2 3 3 100 0.015788
3 3 3 100 0.980445
0 4 3 100 0.762251
1 4 3 100 0.000403225
2 4 3 100 0.0100848
3 4 3 100 0.227261
0 5 3 100 0.297332
1 5 3 100 0.00302105
2 5 3 100 0.00906565
3 5 3 100 0.690581
0 6 3 100 0.226527
1 6 3 100 2.77917e-06
2 6 3 100 0.0055357
3 6 3 100 0.767934
0 7 3 100 0.0678569
1 7 3 100 0.0107998
3 7 3 100 0.921343
0 8 3 100 0.0784282
2 8 3 100 0.019611
3 8 3 100 0.901961
0 9 3 100 0.00025603
3 9 3 100 0.999744
0 10 3 100 0.2
3 10 3 100 0.8
1 1 4 100 0.997713
2 1 4 100 0.000561902
3 1 4 100 0.00172512
0 2 4 100 0.000782315
1 2 4 100 0.0111317
2 2 4 100 0.976806
3 2 4 100 0.00413478
4 2 4 100 0.00714514
0 3 4 100 0.000615196
1 3 4 100 0.00209034
2 3 4 100 0.0234887
3 3 4 100 0.965582
4 3 4 100 0.00822376
0 4 4 100 0.00119251
1 4 4 100 0.000509977
2 4 4 100 0.00368987
3 4 4 100 0.0306385
4 4 4 100 0.963969
0 5 4 100 0.738313
2 5 4 100 0.00277369
3 5 4 100 0.0194233
4 5 4 100 0.23949
0 6 4 100 0.253427
2 6 4 100 0.0050254
3 6 4 100 0.0450523
4 6 4 100 0.696495
0 7 4 100 0.196661
2 7 4 100 0.011235
3 7 4 100 0.00561904
4 7 4 100 0.786485
0 8 4 100 0.120916
1 8 4 100 0.0155097
2 8 4 100 0.0144967
3 8 4 100 0.0290052
4 8 4 100 0.820073
0 9 4 100 0.0786122
3 9 4 100 0.0384616
4 9 4 100 0.882926
0 10 4 100 0.0909091
3 10 4 100 0.0909091
4 10 4 100 0.818182
0 11 4 100 0.333361
4 11 4 100 0.666639
1 1 5 100 0.998697
2 1 5 100 0.000585364
3 1 5 100 0.000299399
4 1 5 100 0.000405113
5 1 5 100 1.3182e-05
0 2 5 100 0.000499994
1 2 5 100 0.00618289
2 2 5 100 0.988253
3 2 5 100 0.00348442
4 2 5 100 0.000414896
5 2 5 100 0.00116482
0 3 5 100 8.54445e-05
1 3 5 100 0.000946142
2 3 5 100 0.0153556
3 3 5 100 0.974868
4 3 5 100 0.00783603
5 3 5 100 0.000908656
0 4 5 100 0.000456591
2 4 5 100 0.00259842
3 4 5 100 0.0237681
4 4 5 100 0.963446
5 4 5 100 0.00973067
0 5 5 100 0.00144256
1 5 5 100 8.40201e-05
2 5 5 100 0.000415776
3 5 5 100 0.00452334
4 5 5 100 0.0278205
5 5 5 100 0.965714
0 6 5 100 0.682734
2 6 5 100 0.000419937
3 6 5 100 0.00384466
4 6 5 100 0.0310735
5 6 5 100 0.281928
0 7 5 100 0.228552
2 7 5 100 9.32305e-05
3 7 5 100 0.0137317
4 7 5 100 0.039867
5 7 5 100 0.717756
0 8 5 100 0.294587
3 8 5 100 0.0106383
4 8 5 100 0.0638356
5 8 5 100 0.630939
0 9 5 100 0.14962
2 9 5 100 9.63985e-06
4 9 5 100 0.0882434
5 9 5 100 0.762127
0 10 5 100 0.172328
3 10 5 100 0.000120764
4 10 5 100 0.0769445
5 10 5 100 0.750607
0 11 5 100 0.25
4 11 5 100 0.000251766
5 11 5 100 0.749748
0 12 5 100 0.5
5 12 5 100 0.5
5 13 5 100 1
0 14 5 100 1
1 1 6 100 0.999574
2 1 6 100 0.000276376
3 1 6 100 0.000127129
4 1 6 100 2.24086e-05
0 2 6 100 0.000218616
1 2 6 100 0.0027746
2 2 6 100 0.993311
3 2 6 100 0.00275769
4 2 6 100 0.000357629
5 2 6 100 0.000435572
6 2 6 100 0.00014525
0 3 6 100 7.36377e-05
1 3 6 100 0.000508514
2 3 6 100 0.00712757
3 3 6 100 0.98451
4 3 6 100 0.00603382
5 3 6 100 0.00145548
6 3 6 100 0.000290506
0 4 6 100 2.53227e-06
1 4 6 100 7.46986e-05
2 4 6 100 0.00152315
3 4 6 100 0.0111337
4 4 6 100 0.97744
5 4 6 100 0.00779457
6 4 6 100 0.00203171
0 5 6 100 0.000291745
1 5 6 100 0.000216855
2 5 6 100 0.000146985
3 5 6 100 0.00211172
4 5 6 100 0.0133735
5 5 6 100 0.974904
6 5 6 100 0.00895522
0 6 6 100 0.00138062
1 6 6 100 7.33004e-05
2 6 6 100 0.000220441
3 6 6 100 0.000220312
4 6 6 100 0.00293698
5 6 6 100 0.015366
6 6 6 100 0.979802
0 7 6 100 0.717266
1 7 6 100 0.000711925
2 7 6 100 5.81416e-07
3 7 6 100 0.00213701
4 7 6 100 0.00427377
5 7 6 100 0.0317004
6 7 6 100 0.24391
0 8 6 100 0.338991
1 8 6 100 0.00732246
2 8 6 100 2.46811e-06
4 8 6 100 0.036469
5 8 6 100 0.0513042
6 8 6 100 0.565911
0 9 6 100 0.225368
1 9 6 100 0.0249971
2 9 6 100 2.94679e-06
4 9 6 100 0.0249611
5 9 6 100 0.125082
6 9 6 100 0.599588
0 10 6 100 0.247605
1 10 6 100 0.047619
4 10 6 100 0.0476132
5 10 6 100 5.85412e-06
6 10 6 100 0.657157
0 11 6 100 0.476116
2 11 6 100 0.125
4 11 6 100 0.00606311
5 11 6 100 0.118935
6 11 6 100 0.273886
0 12 6 100 0.0446692
3 12 6 100 0.333333
5 12 6 100 0.333333
6 12 6 100 0.288664
4 13 6 100 0.5
5 13 6 100 0.5
0 14 6 100 0.0352392
5 14 6 100 0.5
6 14 6 100 0.464761
6 15 6 100 1
1 1 7 100 0.999014
2 1 7 100 0.000872423
3 1 7 100 0.000105368
4 1 7 100 7.85596e-06
0 2 7 100 0.000150866
1 2 7 100 0.00197269
2 2 7 100 0.993968
3 2 7 100 0.00291234
4 2 7 100 0.000654537
5 2 7 100 4.94096e-05
7 2 7 100 0.000292246
0 3 7 100 9.81904e-05
1 3 7 100 0.000466678
2 3 7 100 0.00460214
3 3 7 100 0.987035
4 3 7 100 0.00628512
5 3 7 100 0.00111471
6 3 7 100 0.000398609
0 4 7 100 9.94625e-05
2 4 7 100 0.00105562
3 4 7 100 0.0077668
4 4 7 100 0.97993
5 4 7 100 0.00791045
6 4 7 100 0.00275067
7 4 7 100 0.00048746
0 5 7 100 0.000222991
2 5 7 100 9.75338e-05
3 5 7 100 0.00185334
4 5 7 100 0.00880245
5 5 7 100 0.974998
6 5 7 100 0.010802
7 5 7 100 0.0032237
0 6 7 100 8.64441e-05
2 6 7 100 0.000195735
4 6 7 100 0.00234881
5 6 7 100 0.0112712
6 6 7 100 0.974554
7 6 7 100 0.0115434
0 7 7 100 0.001161
3 7 7 100 0.000197937
5 7 7 100 0.00316696
6 7 7 100 0.0124711
7 7 7 100 0.983003
0 8 7 100 0.657523
2 8 7 100 4.62993e-07
4 8 7 100 0.00338983
6 8 7 100 0.0677977
7 8 7 100 0.271289
0 9 7 100 0.281835
5 9 7 100 0.025
6 9 7 100 0.024991
7 9 7 100 0.668174
0 10 7 100 0.572543
6 10 7 100 0.0952381
7 10 7 100 0.332219
0 11 7 100 0.250183
7 11 7 100 0.749817
0 12 7 100 1
1 1 8 100 0.999709
2 1 8 100 0.000290512
0 2 8 100 0.000680145
1 2 8 100 0.00239632
2 2 8 100 0.990012
3 2 8 100 0.00587324
4 2 8 100 0.00103554
8 2 8 100 2.76638e-06
0 3 8 100 0.00046972
1 3 8 100 0.000473709
2 3 8 100 0.00575279
3 3 8 100 0.979629
4 3 8 100 0.00976606
5 3 8 100 0.00319819
6 3 8 100 0.000473709
7 3 8 100 0.000236858
0 4 8 100 0.000338144
2 4 8 100 0.00118427
3 4 8 100 0.00665905
4 4 8 100 0.973675
5 4 8 100 0.0117573
6 4 8 100 0.00506528
7 4 8 100 0.00108397
8 4 8 100 0.000236853
0 5 8 100 0.00023719
3 5 8 100 0.00142146
4 5 8 100 0.0104536
5 5 8 100 0.96559
6 5 8 100 0.0134177
7 5 8 100 0.00793243
8 5 8 100 0.000947369
0 6 8 100 1.39239e-05
2 6 8 100 0.000471359
3 6 8 100 0.000237192
4 6 8 100 0.00308349
5 6 8 100 0.0116175
6 6 8 100 0.96252
7 6 8 100 0.0139968
8 6 8 100 0.00805949
0 7 8 100 2.2638e-05
3 7 8 100 0.000239234
4 7 8 100 0.000239234
5 7 8 100 0.00382775
6 7 8 100 0.0138794
7 7 8 100 0.968401
8 7 8 100 0.0133909
0 8 8 100 0.000831363
4 8 8 100 0.000485309
5 8 8 100 0.000242654
6 8 8 100 0.00582366
7 8 8 100 0.014074
8 8 8 100 0.978543
0 9 8 100 0.568049
5 9 8 100 0.00896834
6 9 8 100 0.0134529
7 9 8 100 0.134534
8 9 8 100 0.274995
0 10 8 100 0.138502
4 10 8 100 0.0222222
6 10 8 100 0.0222222
7 10 8 100 0.111111
8 10 8 100 0.705942
0 11 8 100 0.174828
5 11 8 100 0.1
7 11 8 100 0.1
8 11 8 100 0.625172
0 12 8 100 0.333333
6 12 8 100 0.333333
8 12 8 100 0.333333
0 13 8 100 0.5
7 13 8 100 0.5
0 14 8 100 0.000954658
8 14 8 100 0.999045
1 1 9 100 0.997242
2 1 9 100 0.00275735
3 1 9 100 5.58901e-07
0 2 9 100 0.000919284
1 2 9 100 0.00275752
2 2 9 100 0.987319
3 2 9 100 0.00562448
4 2 9 100 0.00337959
0 3 9 100 1.53721e-07
2 3 9 100 0.00554199
3 3 9 100 0.979851
4 3 9 100 0.00990741
5 3 9 100 0.00378053
6 3 9 100 0.000919118
0 4 9 100 1.28557e-06
3 4 9 100 0.0118289
4 4 9 100 0.966147
5 4 9 100 0.0137552
6 4 9 100 0.00459016
7 4 9 100 0.00275778
8 4 9 100 0.000919118
0 5 9 100 0.00248053
3 5 9 100 0.00275735
4 5 9 100 0.0122257
5 5 9 100 0.95223
6 5 9 100 0.0179421
7 5 9 100 0.00730935
8 5 9 100 0.00413652
9 5 9 100 0.000918853
0 6 9 100 1.97772e-06
4 6 9 100 0.00551978
5 6 9 100 0.0138005
6 6 9 100 0.945721
7 6 9 100 0.0193191
8 6 9 100 0.00736005
9 6 9 100 0.00827772
0 7 9 100 4.15364e-05
5 7 9 100 0.00649953
6 7 9 100 0.0141344
7 7 9 100 0.949635
8 7 9 100 0.0185701
9 7 9 100 0.0111192
0 8 9 100 6.38041e-06
4 8 9 100 0.000939849
6 8 9 100 0.0056391
7 8 9 100 0.0150376
8 8 9 100 0.960526
9 8 9 100 0.0178508
0 9 9 100 0.00156154
5 9 9 100 0.000956887
7 9 9 100 0.00574168
8 9 9 100 0.0162681
9 9 9 100 0.975472
0 10 9 100 0.521682
2 10 9 100 3.67105e-06
4 10 9 100 0.0217391
7 10 9 100 3.68715e-06
8 10 9 100 0.152174
9 10 9 100 0.304398
0 11 9 100 0.0834875
5 11 9 100 0.0833334
8 11 9 100 0.0833334
9 11 9 100 0.749846
0 12 9 100 0.344332
6 12 9 100 0.333333
9 12 9 100 0.322334
7 13 9 100 1
8 14 9 100 1
0 15 9 100 0.00102867
9 15 9 100 0.998971
1 1 10 100 0.99683
2 1 10 100 0.0031698
1 2 10 100 0.00350877
2 2 10 100 0.973712
3 2 10 100 0.0140383
4 2 10 100 0.00698623
5 2 10 100 0.00175469
2 3 10 100 0.0105262
3 3 10 100 0.953006
4 3 10 100 0.0244897
5 3 10 100 0.00358046
6 3 10 100 0.00498735
7 3 10 100 0.00341012
0 4 10 100 6.87996e-07
3 4 10 100 0.0105257
4 4 10 100 0.948091
5 4 10 100 0.0140351
6 4 10 100 0.0175439
7 4 10 100 0.00629491
8 4 10 100 0.00350877
4 5 10 100 0.0105263
5 5 10 100 0.94386
6 5 10 100 0.017002
7 5 10 100 0.0175439
8 5 10 100 0.00405061
9 5 10 100 0.00701755
0 6 10 100 5.37254e-06
5 6 10 100 0.0245614
6 6 10 100 0.906113
7 6 10 100 0.0301165
8 6 10 100 0.0139031
9 6 10 100 0.014777
10 6 10 100 0.0105232
0 7 10 100 7.11883e-06
5 7 10 100 0.0035461
6 7 10 100 0.0212766
7 7 10 100 0.904255
8 7 10 100 0.0283688
9 7 10 100 0.0212766
10 7 10 100 0.0212696
0 8 10 100 7.32024e-06
6 8 10 100 0.00364964
7 8 10 100 0.0218978
8 8 10 100 0.923358
9 8 10 100 0.0328467
10 8 10 100 0.0182409
0 9 10 100 1.13681e-05
7 9 10 100 0.00373134
8 9 10 100 0.0223881
9 9 10 100 0.940298
10 9 10 100 0.0335707
0 10 10 100 0.00166369
8 10 10 100 0.00387596
9 10 10 100 0.0271317
10 10 10 100 0.967329
0 11 10 100 0.564969
9 11 10 100 0.0625
10 11 10 100 0.372531
0 12 10 100 0.500405
10 12 10 100 0.499595
1 1 11 100 1
0 2 11 100 1.17619e-06
1 2 11 100 0.00900901
2 2 11 100 0.972972
3 2 11 100 0.018018
2 3 11 100 0.00900901
3 3 11 100 0.962273
4 3 11 100 0.027027
5 3 11 100 0.00169144
1 4 11 100 0.00900901
3 4 11 100 0.00900901
4 4 11 100 0.927933
5 4 11 100 0.0450426
6 4 11 100 0.0090068
1 5 11 100 0.00900901
4 5 11 100 0.00900901
5 5 11 100 0.90991
6 5 11 100 0.0627015
7 5 11 100 0.00820467
8 5 11 100 2.99245e-05
9 5 11 100 2.27198e-05
10 5 11 100 0.00111322
5 6 11 100 0.00900924
6 6 11 100 0.910287
7 6 11 100 0.027027
8 6 11 100 0.0310561
9 6 11 100 0.0136114
10 6 11 100 0.00900901
0 7 11 100 2.68463e-06
6 7 11 100 0.018018
7 7 11 100 0.900901
8 7 11 100 0.027027
9 7 11 100 0.027027
10 7 11 100 0.018018
11 7 11 100 0.00900633
0 8 11 100 1.12765e-05
6 8 11 100 0.00909091
7 8 11 100 0.00909091
8 8 11 100 0.9
9 8 11 100 0.0272727
10 8 11 100 0.0272727
11 8 11 100 0.0272615
0 9 11 100 1.74829e-05
7 9 11 100 0.0093458
8 9 11 100 0.018691
9 9 11 100 0.869159
10 9 11 100 0.0654206
11 9 11 100 0.0373663
0 10 11 100 0.000359111
8 10 11 100 0.0194175
9 10 11 100 0.00970888
10 10 11 100 0.902912
11 10 11 100 0.0676025
0 11 11 100 0.0109944
9 11 11 100 0.0210526
10 11 11 100 0.0210527
11 11 11 100 0.9469
0 12 11 100 0.333415
2 12 11 100 1.29969e-05
10 12 11 100 0.333328
11 12 11 100 0.333243
0 13 11 100 0.257221
11 13 11 100 0.742779
1 1 12 100 1
0 2 12 100 4.93379e-07
2 2 12 100 1
3 3 12 100 1
4 4 12 100 1
5 5 12 100 1
6 6 12 100 1
7 7 12 100 1
8 8 12 100 1
9 9 12 100 1
10 10 12 100 1
10 11 12 100 0.047619
11 11 12 100 0.952381
0 12 12 100 0.000475783
11 12 12 100 0.0476191
12 12 12 100 0.951905
0 13 12 100 0.500435
12 13 12 100 0.499565
1 1 13 100 1
2 2 13 100 0.928571
3 2 13 100 0.0714286
0 3 13 100 0.000238892
2 3 13 100 0.142618
3 3 13 100 0.785714
4 3 13 100 0.0714286
3 4 13 100 0.142857
4 4 13 100 0.714286
5 4 13 100 0.142738
10 4 13 100 0.000118939
4 5 13 100 0.142857
5 5 13 100 0.714286
6 5 13 100 0.142857
5 6 13 100 0.142857
6 6 13 100 0.714285
7 6 13 100 0.0714286
8 6 13 100 0.0714286
6 7 13 100 0.142857
7 7 13 100 0.642857
8 7 13 100 0.142857
9 7 13 100 0.0714286
0 8 13 100 8.50113e-05
7 8 13 100 0.214201
8 8 13 100 0.571429
9 8 13 100 0.142857
10 8 13 100 0.0714286
4 9 13 100 0.0712871
7 9 13 100 0.0714286
8 9 13 100 0.214286
9 9 13 100 0.571429
11 9 13 100 0.0715603
13 9 13 100 8.70796e-06
0 10 13 100 7.68918e-06
5 10 13 100 0.000118939
9 10 13 100 0.214286
10 10 13 100 0.714163
13 10 13 100 0.071425
4 11 13 100 0.000141659
10 11 13 100 0.230769
11 11 13 100 0.769089
11 12 13 100 0.25
12 12 13 100 0.75
0 13 13 100 0.000587645
12 13 13 100 0.25
13 13 13 100 0.749412
0 14 13 100 0.250238
13 14 13 100 0.749762
0 15 13 100 1
1 1 14 100 1
2 2 14 100 1
3 3 14 100 1
4 4 14 100 1
5 5 14 100 1
6 6 14 100 1
7 7 14 100 1
8 8 14 100 1
9 9 14 100 1
10 10 14 100 1
11 11 14 100 1
12 12 14 100 1
13 13 14 100 1
14 14 14 100 1
1 1 15 100 1
2 2 15 100 1
3 3 15 100 1
4 4 15 100 1
5 5 15 100 1
6 6 15 100 1
7 7 15 100 1
8 8 15 100 1
9 9 15 100 1
10 10 15 100 1
11 11 15 100 1
12 12 15 100 1
13 13 15 100 1
14 14 15 100 1
0 15 15 100 0.00102921
15 15 15 100 0.998971
