1 1 100 1 1
1 2 100 1 1
1 3 100 1 1
1 4 100 1 1
1 5 100 1 1
2 0 100 2 1
1 1 100 2 1
1 2 100 2 0.064096
2 2 100 2 0.935904
1 3 100 2 0.365411
2 3 100 2 0.634589
1 4 100 2 0.0803441
2 4 100 2 0.919656
1 5 100 2 2.32768e-05
2 5 100 2 0.999977
1 6 100 2 0.00185566
2 6 100 2 0.998144
2 7 100 2 1
3 0 100 3 1
1 1 100 3 0.997684
2 1 100 3 0.00231561
1 2 100 3 0.00152159
2 2 100 3 0.900153
3 2 100 3 0.0983258
1 3 100 3 0.00199174
2 3 100 3 0.0175832
3 3 100 3 0.980425
2 4 100 3 0.0756735
3 4 100 3 0.924327
1 5 100 3 0.00845549
2 5 100 3 0.330606
3 5 100 3 0.660938
3 6 100 3 1
1 0 100 4 1.43496e-07
2 0 100 4 9.88257e-06
4 0 100 4 0.99999
1 1 100 4 0.998907
2 1 100 4 0.00109276
1 2 100 4 0.00108528
2 2 100 4 0.982408
3 2 100 4 0.0125831
4 2 100 4 0.00392393
1 3 100 4 4.92513e-05
2 3 100 4 0.00640888
3 3 100 4 0.95832
4 3 100 4 0.0352218
2 4 100 4 0.00117172
3 4 100 4 0.0177504
4 4 100 4 0.981078
2 5 100 4 0.0127241
3 5 100 4 0.168433
4 5 100 4 0.818843
2 6 100 4 0.000654781
3 6 100 4 0.131442
4 6 100 4 0.867903
2 7 100 4 0.0671928
3 7 100 4 0.000302553
4 7 100 4 0.932505
4 8 100 4 1
2 0 100 5 0.000489377
3 0 100 5 0.0010944
4 0 100 5 0.000439287
5 0 100 5 0.997977
1 1 100 5 0.99592
2 1 100 5 0.00367688
3 1 100 5 0.000402892
1 2 100 5 0.000363945
2 2 100 5 0.978691
3 2 100 5 0.0127422
4 2 100 5 0.0051867
5 2 100 5 0.00301667
1 3 100 5 0.00032128
2 3 100 5 0.0038257
3 3 100 5 0.971464
4 3 100 5 0.0202455
5 3 100 5 0.00414344
2 4 100 5 0.000462267
3 4 100 5 0.00721338
4 4 100 5 0.963141
5 4 100 5 0.0291836
3 5 100 5 0.00139487
4 5 100 5 0.0112453
5 5 100 5 0.98736
3 6 100 5 0.01523
4 6 100 5 0.220106
5 6 100 5 0.764664
2 7 100 5 1.00082e-06
3 7 100 5 0.000344003
4 7 100 5 0.107745
5 7 100 5 0.89191
4 8 100 5 0.200194
5 8 100 5 0.799806
5 9 100 5 1
2 0 100 6 0.00442291
3 0 100 6 0.0022351
4 0 100 6 0.000816051
5 0 100 6 2.67912e-06
6 0 100 6 0.992523
1 1 100 6 0.992643
2 1 100 6 0.00629859
3 1 100 6 0.000924692
4 1 100 6 6.70171e-05
5 1 100 6 6.70165e-05
1 2 100 6 0.000721525
2 2 100 6 0.969334
3 2 100 6 0.0165515
4 2 100 6 0.00574288
5 2 100 6 0.00409473
6 2 100 6 0.00355489
2 3 100 6 0.0022417
3 3 100 6 0.966347
4 3 100 6 0.0219044
5 3 100 6 0.00696679
6 3 100 6 0.00253973
2 4 100 6 0.000662347
3 4 100 6 0.00521773
4 4 100 6 0.95855
5 4 100 6 0.0275747
6 4 100 6 0.00799541
2 5 100 6 3.41405e-05
3 5 100 6 0.000991222
4 5 100 6 0.00651393
5 5 100 6 0.961185
6 5 100 6 0.0312758
3 6 100 6 0.000164339
4 6 100 6 0.00173277
5 6 100 6 0.00987032
6 6 100 6 0.988232
2 7 100 6 1.43233e-07
3 7 100 6 0.0128527
4 7 100 6 0.0325928
5 7 100 6 0.21824
6 7 100 6 0.736315
2 8 100 6 2.14435e-05
3 8 100 6 2.13133e-06
4 8 100 6 0.0250759
5 8 100 6 0.123964
6 8 100 6 0.850937
2 9 100 6 2.78083e-05
4 9 100 6 1.66201e-05
5 9 100 6 0.181929
6 9 100 6 0.818027
6 10 100 6 1
2 0 100 7 0.00610249
3 0 100 7 0.00129737
4 0 100 7 0.000873078
5 0 100 7 0.00266989
6 0 100 7 2.82236e-05
7 0 100 7 0.989029
1 1 100 7 0.9927
2 1 100 7 0.00547671
3 1 100 7 0.00128599
4 1 100 7 0.000352525
5 1 100 7 0.000176262
7 1 100 7 8.95256e-06
1 2 100 7 9.80794e-05
2 2 100 7 0.969391
3 2 100 7 0.0156763
4 2 100 7 0.00546532
5 2 100 7 0.00355747
6 2 100 7 0.00312303
7 2 100 7 0.0026893
2 3 100 7 0.00168363
3 3 100 7 0.956295
4 3 100 7 0.0238969
5 3 100 7 0.00892369
6 3 100 7 0.00537307
7 3 100 7 0.00382737
2 4 100 7 0.000174191
3 4 100 7 0.00359979
4 4 100 7 0.949813
5 4 100 7 0.0271642
6 4 100 7 0.012781
7 4 100 7 0.00646827
3 5 100 7 0.000379497
4 5 100 7 0.0041107
5 5 100 7 0.954945
6 5 100 7 0.028191
7 5 100 7 0.0123735
3 6 100 7 3.59024e-05
4 6 100 7 0.000821213
5 6 100 7 0.00538243
6 6 100 7 0.969849
7 6 100 7 0.0239113
4 7 100 7 8.28861e-05
5 7 100 7 0.00123415
6 7 100 7 0.00667849
7 7 100 7 0.992004
5 8 100 7 0.017055
6 8 100 7 0.144203
7 8 100 7 0.838742
2 9 100 7 0.028762
4 9 100 7 0.000422329
5 9 100 7 0.000938376
6 9 100 7 0.2428
7 9 100 7 0.727078
1 10 100 7 0.0457432
2 10 100 7 0.0007599
3 10 100 7 3.24188e-06
4 10 100 7 0.0001599
5 10 100 7 0.100742
6 10 100 7 0.12226
7 10 100 7 0.730333
7 11 100 7 1
2 0 100 8 0.00949484
3 0 100 8 0.00505047
4 0 100 8 0.00246244
5 0 100 8 0.00468318
6 0 100 8 0.00176049
7 0 100 8 3.27148e-06
8 0 100 8 0.976545
1 1 100 8 0.988723
2 1 100 8 0.00751611
3 1 100 8 0.00180095
4 1 100 8 0.000893139
5 1 100 8 0.000631227
6 1 100 8 0.00021041
8 1 100 8 0.000225176
1 2 100 8 1.94523e-07
2 2 100 8 0.947723
3 2 100 8 0.0201263
4 2 100 8 0.00912065
5 2 100 8 0.00652252
6 2 100 8 0.00611257
7 2 100 8 0.00591068
8 2 100 8 0.00448438
2 3 100 8 0.00162689
3 3 100 8 0.931545
4 3 100 8 0.0299854
5 3 100 8 0.0140518
6 3 100 8 0.00914625
7 3 100 8 0.0073315
8 3 100 8 0.00631348
3 4 100 8 0.00290828
4 4 100 8 0.931267
5 4 100 8 0.0324618
6 4 100 8 0.0164123
7 4 100 8 0.00997257
8 4 100 8 0.00697769
2 5 100 8 0.000212161
3 5 100 8 0.000212287
4 5 100 8 0.00407127
5 5 100 8 0.93606
6 5 100 8 0.0348628
7 5 100 8 0.0177229
8 5 100 8 0.00685874
5 6 100 8 0.00588577
6 6 100 8 0.948302
7 6 100 8 0.0345675
8 6 100 8 0.011245
5 7 100 8 8.98962e-06
6 7 100 8 0.00578852
7 7 100 8 0.966634
8 7 100 8 0.0275688
6 8 100 8 0.000924136
7 8 100 8 0.00536895
8 8 100 8 0.993707
6 9 100 8 0.0549322
7 9 100 8 0.21815
8 9 100 8 0.726918
6 10 100 8 3.14203e-06
7 10 100 8 0.296878
8 10 100 8 0.703119
8 11 100 8 1
2 0 100 9 0.0211741
3 0 100 9 0.0166841
4 0 100 9 0.00565985
5 0 100 9 0.0166983
6 0 100 9 2.2559e-05
7 0 100 9 0.000180301
8 0 100 9 2.75343e-05
9 0 100 9 0.939553
1 1 100 9 0.973156
2 1 100 9 0.0155541
3 1 100 9 0.00834771
4 1 100 9 0.000734226
5 1 100 9 0.00147217
7 1 100 9 0.000736087
1 2 100 9 0.000663527
2 2 100 9 0.920599
3 2 100 9 0.0360383
4 2 100 9 0.0185488
5 2 100 9 0.00497205
6 2 100 9 0.00568235
7 2 100 9 0.00426176
8 2 100 9 0.00497205
9 2 100 9 0.00426176
2 3 100 9 0.00141628
3 3 100 9 0.886547
4 3 100 9 0.0461852
5 3 100 9 0.0283256
6 3 100 9 0.0113302
7 3 100 9 0.00991106
8 3 100 9 0.00849767
9 3 100 9 0.00778663
3 4 100 9 0.00358198
4 4 100 9 0.873948
5 4 100 9 0.0530122
6 4 100 9 0.0351025
7 4 100 9 0.0128949
8 4 100 9 0.0121785
9 4 100 9 0.00928151
3 5 100 9 0.000732781
4 5 100 9 0.00638165
5 5 100 9 0.873482
6 5 100 9 0.057157
7 5 100 9 0.0359061
8 5 100 9 0.0146767
9 5 100 9 0.0116634
4 6 100 9 0.000766615
5 6 100 9 0.00384411
6 6 100 9 0.89329
7 6 100 9 0.0599684
8 6 100 9 0.0344757
9 6 100 9 0.00765497
6 7 100 9 0.00376399
7 7 100 9 0.908061
8 7 100 9 0.0593337
9 7 100 9 0.0288414
6 8 100 9 0.001669
7 8 100 9 0.00584186
8 8 100 9 0.94799
9 8 100 9 0.0444995
7 9 100 9 0.00198736
8 9 100 9 0.00794944
9 9 100 9 0.990063
8 10 100 9 0.250063
9 10 100 9 0.749937
9 11 100 9 1
2 0 100 10 0.017632
3 0 100 10 0.000132419
4 0 100 10 0.00741616
5 0 100 10 0.0617226
6 0 100 10 2.84147e-06
7 0 100 10 0.000428793
8 0 100 10 3.29571e-06
9 0 100 10 6.27986e-05
10 0 100 10 0.912599
1 1 100 10 0.95673
2 1 100 10 0.0259076
3 1 100 10 0.0122464
5 1 100 10 0.0025581
7 1 100 10 0.0025581
2 2 100 10 0.866709
3 2 100 10 0.0512326
4 2 100 10 0.038642
5 2 100 10 0.0119507
6 2 100 10 0.00966057
7 2 100 10 0.00489803
8 2 100 10 0.00724543
9 2 100 10 0.00483113
10 2 100 10 0.00483069
2 3 100 10 0.00714159
3 3 100 10 0.823644
4 3 100 10 0.0594763
5 3 100 10 0.0448418
6 3 100 10 0.0172816
7 3 100 10 0.0166637
8 3 100 10 0.00952212
9 3 100 10 0.0119027
10 3 100 10 0.00952586
3 4 100 10 0.00228119
4 4 100 10 0.750545
5 4 100 10 0.0760852
6 4 100 10 0.0684357
7 4 100 10 0.0319357
8 4 100 10 0.0296555
9 4 100 10 0.0228119
10 4 100 10 0.0182495
2 5 100 10 3.50218e-07
3 5 100 10 0.0025011
4 5 100 10 0.00750492
5 5 100 10 0.768672
6 5 100 10 0.0819281
7 5 100 10 0.074979
8 5 100 10 0.025011
9 5 100 10 0.0250012
10 5 100 10 0.0144019
5 6 100 10 0.00775552
6 6 100 10 0.767754
7 6 100 10 0.0802379
8 6 100 10 0.095651
9 6 100 10 0.0284369
10 6 100 10 0.0201651
2 7 100 10 0.00271355
4 7 100 10 0.00156462
5 7 100 10 0.00542757
6 7 100 10 0.00542778
7 7 100 10 0.775964
8 7 100 10 0.0814142
9 7 100 10 0.113982
10 7 100 10 0.013506
6 8 100 10 0.00307913
7 8 100 10 0.00615827
8 8 100 10 0.840604
9 8 100 10 0.06158
10 8 100 10 0.0885787
7 9 100 10 0.00355869
8 9 100 10 0.0106761
9 9 100 10 0.946611
10 9 100 10 0.0391538
8 10 100 10 0.00400687
9 10 100 10 0.0280481
10 10 100 10 0.967945
9 11 100 10 0.12558
10 11 100 10 0.87442
10 13 100 10 1
2 0 100 11 0.0503327
3 0 100 11 4.91925e-05
4 0 100 11 7.21691e-05
5 0 100 11 5.72341e-06
6 0 100 11 4.7139e-05
8 0 100 11 1.24081e-05
9 0 100 11 4.49953e-05
10 0 100 11 6.45489e-06
11 0 100 11 0.949429
1 1 100 11 0.963238
2 1 100 11 0.0147059
3 1 100 11 0.0147057
6 1 100 11 0.00735087
2 2 100 11 0.810417
3 2 100 11 0.0698333
4 2 100 11 0.043768
5 2 100 11 0.0189942
6 2 100 11 0.0126677
7 2 100 11 0.0126628
8 2 100 11 0.0126628
9 2 100 11 0.00633139
10 2 100 11 0.00633128
11 2 100 11 0.00633139
3 3 100 11 0.823913
4 3 100 11 0.0704286
5 3 100 11 0.0563499
6 3 100 11 0.0140891
7 3 100 11 0.00704384
8 3 100 11 0.0140877
9 3 100 11 0.00704384
10 3 100 11 0.00704383
3 4 100 11 0.00675085
4 4 100 11 0.756117
5 4 100 11 0.0615998
6 4 100 11 0.0607577
7 4 100 11 0.0337543
8 4 100 11 0.0270018
9 4 100 11 0.0270028
10 4 100 11 0.0135017
11 4 100 11 0.0135136
4 5 100 11 0.0146677
5 5 100 11 0.75991
6 5 100 11 0.0845252
7 5 100 11 0.0704434
8 5 100 11 0.021133
9 5 100 11 0.0281762
10 5 100 11 0.0141
11 5 100 11 0.00704434
5 6 100 11 0.0201089
6 6 100 11 0.697104
7 6 100 11 0.0938414
8 6 100 11 0.0938414
9 6 100 11 0.0469032
10 6 100 11 0.0402178
11 6 100 11 0.0079838
6 7 100 11 0.00781255
7 7 100 11 0.765629
8 7 100 11 0.0703129
9 7 100 11 0.085938
10 7 100 11 0.0546878
11 7 100 11 0.0156194
2 8 100 11 9.95082e-05
7 8 100 11 0.00852781
8 8 100 11 0.81867
9 8 100 11 0.0596947
10 8 100 11 0.0682225
11 8 100 11 0.0447857
8 9 100 11 0.0088497
9 9 100 11 0.849571
10 9 100 11 0.0707976
11 9 100 11 0.0707812
4 10 100 11 1.6493e-05
10 10 100 11 0.95085
11 10 100 11 0.0491331
9 11 100 11 2.12016e-05
11 11 100 11 0.999979
9 13 100 11 1
2 0 100 12 1.53528e-05
8 0 100 12 0.108949
12 0 100 12 0.891036
1 1 100 12 0.969697
2 1 100 12 0.030303
2 2 100 12 0.90909
3 2 100 12 0.0303031
5 2 100 12 0.0303006
6 2 100 12 0.0303031
12 2 100 12 3.54462e-06
2 3 100 12 0.0285713
3 3 100 12 0.885709
4 3 100 12 0.0571473
5 3 100 12 1.53474e-06
7 3 100 12 0.0285713
4 4 100 12 0.909076
5 4 100 12 0.0606179
8 4 100 12 0.0303028
11 4 100 12 3.51464e-06
4 5 100 12 3.28928e-06
5 5 100 12 0.707071
6 5 100 12 0.12191
7 5 100 12 0.0491083
8 5 100 12 0.024382
9 5 100 12 0.0487641
10 5 100 12 0.024382
11 5 100 12 0.0243792
6 6 100 12 0.725206
7 6 100 12 0.111176
8 6 100 12 0.0278925
9 6 100 12 0.0278925
10 6 100 12 0.0557851
11 6 100 12 0.0278925
12 6 100 12 0.0241547
7 7 100 12 0.833333
8 7 100 12 0.1
9 7 100 12 0.0333333
11 7 100 12 0.0333333
8 8 100 12 0.735294
9 8 100 12 0.117647
10 8 100 12 0.0882353
11 8 100 12 0.0588235
9 9 100 12 0.828529
10 9 100 12 0.0690441
11 9 100 12 0.069044
12 9 100 12 0.0333829
10 10 100 12 0.888916
11 10 100 12 0.0740763
12 10 100 12 0.0370081
11 11 100 12 0.92003
12 11 100 12 0.0799702
12 12 100 12 1
9 0 100 13 1.66224e-05
10 0 100 13 1.11093e-05
11 0 100 13 0.247705
12 0 100 13 1.10021e-05
13 0 100 13 0.752256
1 1 100 13 0.941176
2 1 100 13 0.0588235
2 2 100 13 0.832627
3 2 100 13 0.0563557
4 2 100 13 0.0555085
6 2 100 13 0.0555085
3 3 100 13 0.833192
4 3 100 13 0.0556027
5 3 100 13 0.0556027
7 3 100 13 0.0556027
4 4 100 13 0.875
5 4 100 13 0.0625
8 4 100 13 0.0625
5 5 100 13 0.875
6 5 100 13 0.0625
9 5 100 13 0.0625
6 6 100 13 0.777778
7 6 100 13 0.111111
8 6 100 13 0.0555556
10 6 100 13 0.0555556
7 7 100 13 0.75
8 7 100 13 0.0625
9 7 100 13 0.125
11 7 100 13 0.0625
7 8 100 13 0.0555558
8 8 100 13 0.666669
9 8 100 13 0.111108
10 8 100 13 0.111112
12 8 100 13 0.0555558
8 9 100 13 0.0666666
9 9 100 13 0.733333
10 9 100 13 0.0666675
11 9 100 13 0.133333
10 10 100 13 0.705883
11 10 100 13 0.117648
12 10 100 13 0.176469
11 11 100 13 0.667953
12 11 100 13 0.13359
13 11 100 13 0.198456
12 12 100 13 0.909163
13 12 100 13 0.0908371
13 13 100 13 1
1 0 100 14 1.02392e-05
2 0 100 14 2.68017e-05
3 0 100 14 0.00161006
4 0 100 14 7.02562e-05
5 0 100 14 1.1051e-05
8 0 100 14 0.000572952
9 0 100 14 2.88333e-05
11 0 100 14 6.69801e-06
14 0 100 14 0.997663
1 1 100 14 0.876634
5 1 100 14 0.122927
8 1 100 14 0.00043894
2 2 100 14 0.740873
3 2 100 14 0.133359
5 2 100 14 0.00228955
6 2 100 14 0.123479
3 3 100 14 0.66668
4 3 100 14 0.16666
7 3 100 14 0.16666
1 4 100 14 7.37556e-05
2 4 100 14 0.000109035
3 4 100 14 0.134297
4 4 100 14 0.359314
5 4 100 14 0.0718695
6 4 100 14 0.0718695
8 4 100 14 0.143526
9 4 100 14 0.0716413
10 4 100 14 0.14375
11 4 100 14 0.00355006
2 5 100 14 0.045384
3 5 100 14 0.00217205
4 5 100 14 0.0454698
5 5 100 14 0.227277
6 5 100 14 0.0909111
7 5 100 14 0.0909107
8 5 100 14 0.0454312
9 5 100 14 0.0910526
10 5 100 14 0.0454485
11 5 100 14 0.134121
12 5 100 14 0.0909111
13 5 100 14 0.0909111
6 6 100 14 0.505943
7 6 100 14 0.168648
12 6 100 14 0.168648
14 6 100 14 0.156762
7 7 100 14 0.500099
8 7 100 14 0.333201
13 7 100 14 0.1667
8 8 100 14 0.400076
9 8 100 14 0.400076
14 8 100 14 0.199847
9 9 100 14 0.5
10 9 100 14 0.5
10 10 100 14 0.5
11 10 100 14 0.5
11 11 100 14 0.5
12 11 100 14 0.5
12 12 100 14 0.5
13 12 100 14 0.5
13 13 100 14 0.500119
14 13 100 14 0.499881
14 14 100 14 1
5 0 100 15 0.00334608
9 0 100 15 6.15397e-05
15 0 100 15 0.996592
1 1 100 15 0.397311
2 1 100 15 3.1408e-05
3 1 100 15 3.45668e-06
4 1 100 15 0.00306156
5 1 100 15 0.0996971
6 1 100 15 0.0998524
7 1 100 15 0.0999878
8 1 100 15 0.0999999
9 1 100 15 0.100022
10 1 100 15 0.100034
1 2 100 15 0.00352849
2 2 100 15 0.499961
3 2 100 15 0.249996
4 2 100 15 0.121174
6 2 100 15 0.000226494
7 2 100 15 5.727e-05
8 2 100 15 4.22663e-05
9 2 100 15 1.47339e-05
11 2 100 15 0.125
3 3 100 15 0.5
4 3 100 15 0.25
12 3 100 15 0.25
4 4 100 15 0.285714
5 4 100 15 0.142857
6 4 100 15 0.142857
8 4 100 15 0.142857
10 4 100 15 0.142857
13 4 100 15 0.142857
5 5 100 15 0.285716
6 5 100 15 0.142859
7 5 100 15 0.142858
9 5 100 15 0.14285
11 5 100 15 0.142859
14 5 100 15 0.142859
6 6 100 15 0.25
7 6 100 15 0.25
12 6 100 15 0.25
15 6 100 15 0.25
7 7 100 15 0.333333
8 7 100 15 0.333333
13 7 100 15 0.333333
8 8 100 15 0.333333
9 8 100 15 0.333333
14 8 100 15 0.333333
9 9 100 15 0.333448
10 9 100 15 0.333448
15 9 100 15 0.333105
10 10 100 15 0.5
11 10 100 15 0.5
11 11 100 15 0.5
12 11 100 15 0.5
12 12 100 15 0.5
13 12 100 15 0.5
13 13 100 15 0.5
14 13 100 15 0.5
14 14 100 15 1
15 15 100 15 1
