0 7 1.85012e-07
0 24 0.00142306
0 26 0.423726
0 30 0.15076
0 32 1.05734e-05
0 34 0.368164
0 37 0.0159121
0 68 0.0140803
0 141 1.46638e-05
0 174 1.10884e-05
0 214 1.25425e-05
0 812 0.00605931
0 4759 0.00476759
0 7128 0.0150592
2 2 0.240313
2 15 0.260463
2 741 0.499224
3 2 0.317035
3 3 0.682965
4 4 0.93193
4 28 0.0051466
4 739 0.00438646
4 1168 0.0106504
4 1849 0.00532451
4 3006 1.31011e-07
4 3581 0.00532531
4 3801 2.62008e-05
4 6447 0.00528893
4 12690 0.00518318
4 15794 0.0159759
4 17499 4.29605e-05
4 25691 0.00532528
4 25728 0.00532531
4 53768 6.92398e-05
5 5 1
6 6 1
7 7 0.983985
7 1849 2.90876e-06
7 34094 0.0160118
8 8 0.333333
8 3008 0.666667
9 9 0.249842
9 10 0.750158
10 10 0.332772
10 11 0.333614
10 13 0.333614
11 12 0.944444
11 14714 0.0555555
12 14 0.704131
12 956 0.0990086
12 957 0.0943681
12 3197 0.00495043
12 7565 0.00348336
12 14025 0.0594051
12 14872 0.00495041
12 16510 0.0297026
13 16 1
14 17 1
15 18 1
16 19 0.5
16 20 0.5
17 21 1
18 22 0.944444
18 29384 0.0555556
19 23 0.500005
19 24 0.499995
20 25 0.93617
20 49 0.0425532
20 12159 0.0212765
21 27 0.916667
21 29986 0.0416667
21 30022 0.0416667
22 20 0.974463
22 28 0.000460597
22 15699 0.0137248
22 53324 0.0113513
23 29 0.857143
23 74 0.142857
24 31 0.671946
24 162 0.00254521
24 225 0.00381776
24 308 0.00763295
24 1176 2.20895e-05
24 1378 0.00127259
24 1385 0.00122184
24 2092 0.259616
24 2884 0.00118426
24 3406 0.00127251
24 8708 0.010181
24 10794 0.0241799
24 13533 0.00127258
24 16606 0.00127114
24 19381 0.00127263
24 19417 0.00112384
24 19724 0.00127262
24 20292 0.00509049
24 21082 1.6281e-07
24 22038 0.00125853
24 22041 2.07526e-07
24 32820 0.00127263
24 42634 0.00127263
25 32 0.989877
25 366 0.00808393
25 1419 0.000403219
25 1536 7.6023e-07
25 3801 0.000402208
25 4701 3.4104e-05
25 10678 0.000404197
25 14007 0.000166471
25 18024 5.2499e-05
25 19354 0.000179863
25 34383 0.000395274
25 39595 1.51581e-07
26 32 0.250012
26 33 0.749988
27 34 0.99879
27 812 0.000109965
27 2057 5.03721e-07
27 7128 0.000659825
27 9708 0.000109944
27 15262 0.000109974
27 17340 0.000109974
27 22544 0.000109966
28 35 1
29 36 0.75
29 14321 0.25
30 37 1
31 38 0.030303
31 388 0.151515
31 896 0.181818
31 15808 0.121212
31 17899 0.363636
31 47957 0.151515
32 32 0.0999923
32 39 1.45585e-05
32 5384 0.0999992
32 13423 0.599995
32 14102 0.199998
33 39 1
34 40 0.521418
34 57 0.478582
35 26 2.01927e-06
35 41 0.81818
35 89 0.0454544
35 108 0.0454545
35 2851 0.0454545
35 31109 0.0454545
36 42 0.833596
36 43 0.0833595
36 21844 0.0830441
37 44 0.0294118
37 45 0.911765
37 48 0.0294118
37 18367 0.0294118
38 46 0.995763
38 49 0.00282486
38 4976 0.00141242
39 47 0.96875
39 3695 0.0273438
39 20426 0.00390625
40 50 1
41 51 0.909091
41 31194 0.0909091
42 52 0.185714
42 569 0.425
42 1210 0.385714
42 48841 0.00357143
43 5296 1
44 53 0.25
44 157 0.25
44 13303 0.25
44 22454 0.25
45 54 1
46 55 0.2
46 548 0.6
46 15065 0.0999999
46 16427 0.1
47 56 1
48 26 0.141178
48 57 0.576414
48 69 0.141204
48 72 0.141204
49 26 0.323166
49 58 0.676834
50 51 0.5
50 59 0.5
51 60 1
52 61 1
53 7 0.0970425
53 62 0.361183
53 75 0.180592
53 77 0.180591
53 801 0.180592
54 63 0.25
54 31502 0.75
55 64 1
56 65 1
57 7 0.187856
57 66 0.406072
57 73 0.406072
58 67 0.8
58 74 0.2
59 68 0.0833333
59 76 0.0833333
59 12839 0.833333
60 26 0.164151
60 70 0.208962
60 7875 0.313443
60 15168 0.313443
61 65 0.5
61 71 0.5
62 78 1
63 79 1
64 80 1
65 81 0.95
65 25286 0.025
65 28712 0.0249999
66 82 0.333333
66 1728 0.666667
67 83 0.59431
67 85 0.40569
68 84 0.759085
68 85 0.240915
69 86 1
70 87 1
71 88 0.5
71 45245 0.5
72 89 0.25
72 604 0.5
72 2172 0.25
73 90 0.5
73 91 0.5
74 92 1
75 93 0.951086
75 1536 8.97375e-07
75 2715 0.00543472
75 14322 0.0434782
76 94 0.941176
76 17564 0.0588235
77 95 0.912277
77 1405 0.0364911
77 10636 0.0512315
78 96 0.142857
78 8008 0.142857
78 24110 0.714286
79 97 0.0908976
79 5055 0.818192
79 54721 0.0909099
80 26 0.0169367
80 97 0.203396
80 740 0.610182
80 2170 0.0169495
80 14720 0.101697
80 17062 0.033899
80 23981 0.0169394
81 98 0.75
81 26098 0.25
82 99 0.25
82 100 0.25
82 5228 0.5
83 101 1
84 102 0.25
84 25952 0.75
85 103 0.916667
85 25876 0.0833333
86 104 1
87 105 0.542857
87 384 0.0428571
87 430 0.307143
87 986 0.0857143
87 2226 0.00714285
87 12612 0.0142857
88 106 0.0140845
88 323 0.957747
88 18454 0.0140845
88 21091 0.0140845
89 89 0.04
89 107 0.04
89 5156 0.88
89 29579 0.04
90 109 0.166667
90 1166 0.666667
90 3718 0.166667
91 110 1
92 68 1
93 26 0.333178
93 111 0.333411
93 112 0.333411
94 113 0.25
94 16819 0.75
95 39 0.498451
95 114 0.501549
96 39 0.000685751
96 115 0.66621
96 1788 0.333105
97 116 0.454545
97 429 0.454545
97 15752 0.0909091
98 117 0.25
98 13891 0.25
98 19004 0.5
99 118 0.5
99 15581 0.166667
99 25415 0.0833333
99 34125 0.25
100 119 0.666667
100 8914 0.333333
101 120 1
102 121 1
103 24 0.106045
103 122 0.893955
104 13 0.923077
104 123 0.0769231
105 124 0.999915
105 3045 8.49412e-05
106 44 0.994854
106 2139 0.00108392
106 9708 2.89834e-07
106 16619 0.00104774
106 21577 0.00104721
106 21603 0.000881338
106 30520 1.15719e-06
106 30706 0.00108394
106 57022 2.34339e-07
107 48 0.970775
107 1687 0.0241724
107 7137 0.00219666
107 7565 0.000325618
107 21577 8.03808e-07
107 25861 2.04186e-06
107 27619 0.00142821
107 32794 0.00109875
108 125 0.129412
108 907 0.0235294
108 3100 0.494118
108 4821 0.341176
108 19182 0.0117647
109 126 0.666667
109 1229 0.333333
110 127 1
111 19 0.125
111 36057 0.125
111 37927 0.75
112 128 1
113 129 0.101504
113 131 0.898496
114 129 1
115 141 0.980807
115 7983 0.00143346
115 14265 0.0157876
115 15827 0.00197129
116 130 1
117 912 0.931507
117 2269 0.0684931
118 4631 0.95
118 14759 0.05
119 30 0.199999
119 68 0.2
119 74 0.2
119 132 0.2
119 133 0.2
120 134 1
121 135 0.454545
121 403 0.545455
122 136 0.142857
122 3978 0.857143
123 15 2.31497e-05
123 137 0.0991179
123 480 0.900859
124 30 0.337195
124 137 0.662805
125 138 1
126 260 0.950617
126 1255 0.00205761
126 3022 0.0432099
126 38944 0.00411523
127 139 0.2
127 140 0.2
127 141 0.2
127 142 0.4
128 37 0.00925905
128 471 0.888889
128 22832 0.0925926
128 26026 0.00925925
129 143 0.5
129 144 0.5
130 145 1
131 257 1
132 849 0.952332
132 12285 0.00455661
132 12410 0.029618
132 14541 0.00683492
132 15406 0.0021886
132 36240 0.0022783
132 54247 0.00219161
133 144 1
134 150 1
135 26 0.199922
135 146 0.20002
135 147 0.20002
135 148 0.20002
135 149 0.20002
136 151 0.0126582
136 259 0.987342
137 152 1
138 26 0.331098
138 144 0.334451
138 153 0.334451
139 154 1
140 155 1
141 140 0.718752
141 723 0.0312498
141 10730 0.0312496
141 11483 0.0312491
141 11583 0.0312501
141 16828 0.0312501
141 17053 0.0312501
141 18542 0.0312492
141 18811 0.0312498
141 22243 0.0312499
142 156 0.25
142 35902 0.75
143 2653 0.5
143 22225 0.5
144 144 0.5
144 31232 0.25
144 34867 0.25
145 158 1
146 159 1
147 160 1
148 161 1
149 162 0.608696
149 13533 0.217391
149 34172 0.173913
150 163 0.923081
150 169 0.076919
151 48 0.0261549
151 164 0.973827
151 169 1.84086e-05
152 165 1
153 166 0.949923
153 22524 0.0500767
154 167 1
155 168 1
156 26 0.992612
156 30 0.00679755
156 200 0.000106957
156 214 0.000320279
156 515 3.25585e-05
156 2663 6.65344e-05
156 14629 3.18129e-05
156 15738 3.18229e-05
156 19830 7.59373e-07
157 170 1
158 171 0.769231
158 189 0.0384615
158 460 0.115385
158 13189 0.0384615
158 52907 0.0384615
159 172 1
160 73 0.0714274
160 173 0.928573
161 26 0.00607328
161 174 0.993927
162 175 1
163 176 1
164 177 1
165 178 1
166 179 1
167 180 0.75
167 9466 0.0625
167 25356 0.0625
167 43835 0.0625
167 56178 0.0625
168 181 1
169 182 1
170 183 0.913043
170 28178 0.0869565
171 184 1
172 185 1
173 186 1
174 187 0.526316
174 1474 0.157895
174 31877 0.0526316
174 32329 0.105263
174 35162 0.105263
174 39992 0.0526316
175 188 0.333333
175 2135 0.333333
175 36790 0.333333
176 189 1
177 190 0.105263
177 10514 0.473684
177 24467 0.0526316
177 25048 0.210526
177 35864 0.0526316
177 50068 0.105263
178 191 0.955276
178 483 0.00204119
178 704 0.00204115
178 13915 0.0347002
178 14648 0.00204119
178 25340 0.00204118
178 48012 0.00185856
179 192 0.913228
179 582 0.0846561
179 6009 0.0010582
179 16114 0.00105803
180 193 0.2
180 6122 0.4
180 29150 0.1
180 47316 0.3
181 194 0.008
181 2103 0.992
182 195 1
183 68 0.0555237
183 72 0.0555574
183 196 0.777804
183 8149 0.111115
184 197 0.979167
184 14342 0.0208333
185 198 1
186 199 1
187 26 0.00332835
187 200 0.996672
188 201 1
189 202 0.90625
189 18213 0.09375
190 203 1
191 204 0.965517
191 29094 0.0344828
192 205 1
193 206 1
194 207 0.75
194 20889 0.125
194 20903 0.125
195 208 0.906977
195 13838 0.0930232
196 209 0.2
196 1466 0.733333
196 30656 0.0666667
197 26 0.00364852
197 30 0.99608
197 2663 0.000173289
197 17070 1.15755e-06
197 19839 9.71608e-05
197 20946 1.29679e-07
198 210 1
199 211 0.994845
199 23235 0.00515461
200 212 1
201 213 0.984375
201 31421 0.015625
202 26 0.00207581
202 214 0.997924
203 215 1
204 216 1
205 217 1
206 218 0.937305
206 13214 0.0626945
207 219 1
208 220 1
209 221 1
210 222 1
211 223 1
212 224 0.969231
212 2192 0.0307692
213 225 0.685279
213 3406 0.233503
213 8872 0.0659898
213 43340 0.0152284
214 226 1
215 227 1
216 228 1
217 229 1
218 230 0.223881
218 550 0.641791
218 12037 0.0298507
218 21092 0.0895522
218 25972 0.0149253
219 231 0.285714
219 3176 0.0142857
219 5010 0.685714
219 44256 0.0142857
220 38 0.166667
220 232 0.666667
220 18623 0.166667
221 233 1
222 234 1
223 34 0.248082
223 235 0.751918
224 236 1
225 237 1
226 238 1
227 239 0.991525
227 1255 0.00847458
228 240 1
229 241 0.994118
229 3311 0.00588235
230 242 1
231 243 1
232 244 1
233 245 1
234 246 1
235 247 1
236 248 0.999395
236 25586 0.000604815
237 249 1
238 250 1
239 68 0.0238094
239 251 0.873016
239 4019 0.103175
240 252 0.1
240 4187 0.9
241 253 0.96875
241 40610 0.03125
242 38 0.340129
242 232 0.00112995
242 272 0.632799
242 388 0.00113
242 480 0.00113
242 792 0.00677999
242 2026 0.00109481
242 2695 0.00113
242 2787 0.00790999
242 4153 0.00451999
242 5232 0.00109058
242 13029 0.00113
242 16606 1.32085e-06
242 34383 2.49446e-05
243 254 0.796296
243 1590 0.111111
243 10897 0.0555556
243 35174 0.037037
244 255 1
245 256 1
246 258 0.904762
246 1583 0.0238095
246 11152 0.0238095
246 11176 0.0238095
246 17366 0.0238095
247 259 0.251908
247 325 0.722646
247 7642 0.00254453
247 11393 0.0203562
247 21028 0.00254451
248 261 0.875
248 14094 0.125
249 262 1
250 263 1
251 264 1
252 265 1
253 266 1
254 267 0.142857
254 4352 0.714286
254 4913 0.142857
255 268 1
256 269 0.5
256 270 0.5
257 271 0.961538
257 1213 0.0384615
258 273 1
259 274 0.947368
259 23076 0.0526316
260 275 0.964286
260 25481 0.0357143
261 276 0.1
261 9859 0.9
262 277 1
263 278 0.903226
263 14206 0.0967742
264 279 1
265 280 1
266 281 0.384615
266 296 0.538462
266 21988 0.025641
266 43895 0.025641
266 58091 0.025641
267 282 1
268 283 0.837209
268 4159 0.104651
268 16259 0.0116279
268 22261 0.0348837
268 31511 0.0116279
269 284 1
270 285 1
271 180 0.25
271 10984 0.5
271 56178 0.25
272 286 1
273 287 1
274 288 1
275 289 1
276 290 1
277 291 1
278 171 0.00904979
278 242 0.461539
278 926 0.0226245
278 4415 0.0135747
278 4541 0.00904979
278 4881 0.0045249
278 6102 0.41629
278 6108 0.0226245
278 12675 0.00452299
278 18388 0.0045249
278 19834 0.00904978
278 25386 0.00904978
278 44895 0.00904979
278 46763 0.0045249
279 292 1
280 293 1
281 294 1
282 295 1
283 297 0.97496
283 17106 0.0250403
284 298 1
285 188 1
286 299 1
287 300 1
288 25 0.421875
288 2109 0.546875
288 12566 0.015625
288 15870 0.0156249
289 301 1
290 302 1
291 303 0.866667
291 1443 0.0666666
291 21031 0.0666667
292 304 1
293 305 1
294 306 0.863636
294 5055 0.0454545
294 10390 0.0454545
294 16087 0.0454545
295 307 1
296 31 0.0491803
296 308 0.770492
296 644 0.0491803
296 1378 0.114754
296 24527 0.0163934
297 309 0.333333
297 6472 0.666667
298 310 1
299 311 1
300 312 1
301 313 1
302 314 0.907692
302 3077 0.0153846
302 14972 0.0153846
302 20031 0.0461538
302 36967 0.0153846
303 315 1
304 316 0.795987
304 1223 0.00334448
304 2089 0.0200669
304 6562 0.0535117
304 9040 0.00334448
304 9043 0.0802676
304 14232 0.0267559
304 19000 0.00668896
304 25520 0.00334448
304 38913 0.00668896
305 317 1
306 318 1
307 319 1
308 320 0.989727
308 633 0.00342466
308 7469 0.00342466
308 18398 0.00342414
309 321 1
310 322 0.8
310 20591 0.2
311 324 1
312 326 0.776936
312 18342 0.215388
312 25861 0.00767612
313 327 0.125
313 3121 0.875
314 328 1
315 329 1
316 330 0.4375
316 3767 0.0624999
316 9614 0.5
317 331 1
318 332 1
319 333 0.909257
319 15405 0.0645626
319 17253 0.00537994
319 26157 0.00538017
319 31572 0.0154206
320 334 0.970587
320 15192 0.0294117
320 25510 7.93452e-07
321 335 1
322 336 0.8
322 14822 0.2
323 337 0.615385
323 546 0.307692
323 29733 0.076923
324 338 0.954545
324 364 0.0454545
325 339 1
326 340 1
327 341 1
328 342 1
329 343 1
330 344 0.00312478
330 545 0.99368
330 14195 7.06402e-05
330 19709 0.00312478
331 345 0.917636
331 23810 0.0496019
331 29473 0.024801
331 31092 0.0055737
331 35924 0.00238719
332 346 0.982143
332 2495 0.00892857
332 20421 0.00892857
333 106 0.0116279
333 347 0.953487
333 13455 0.0116279
333 15510 0.0116278
333 18398 1.77826e-06
333 26152 0.0116279
334 348 1
335 349 0.930233
335 23475 0.0697674
336 350 0.954545
336 14745 0.0454545
337 351 0.939394
337 4801 0.0151514
337 14184 0.030303
337 14218 0.0151515
338 352 1
339 353 0.917647
339 418 0.0823529
340 354 1
341 355 0.666667
341 51542 0.333333
342 356 0.967055
342 13825 0.000261575
342 16791 0.032683
343 357 1
344 358 1
345 359 8.06253e-07
345 379 0.00696264
345 523 0.957587
345 1572 0.0310721
345 3118 1.54451e-07
345 9781 0.00140999
345 13693 8.26707e-05
345 13834 0.00141231
345 21577 4.2386e-05
345 29108 1.75547e-05
345 56215 0.00141237
346 359 0.0285556
346 410 0.914301
346 2134 0.0285719
346 30188 0.0285719
347 360 1
348 361 1
349 362 1
350 363 1
351 365 0.99361
351 15105 0.00638977
352 367 0.981813
352 18851 5.74113e-06
352 18968 0.0181817
353 368 0.954545
353 27880 0.0454545
354 369 1
355 370 1
356 371 1
357 372 0.875
357 487 0.125
358 373 0.980769
358 14923 0.0192308
359 374 1
360 375 0.992481
360 2229 1.0536e-06
360 10535 0.00751838
361 286 0.990613
361 7149 0.00658944
361 7983 0.000601023
361 17289 0.00219643
362 376 1
363 377 1
364 378 0.953566
364 2384 0.0454079
364 38506 0.00102624
365 379 0.994186
365 523 0.00581395
366 380 1
367 381 0.811321
367 6176 0.157233
367 10098 0.0188679
367 45782 0.00628931
367 53838 0.00628931
368 382 0.75
368 2814 0.230769
368 54579 0.0192308
369 4101 1
370 383 0.166667
370 12852 0.833333
371 105 0.0574491
371 384 0.937482
371 986 0.00168968
371 1193 0.00337936
372 385 0.879126
372 20939 0.109891
372 28164 0.0109837
373 386 0.928572
373 21567 0.0357143
373 53485 0.035714
374 387 1
375 388 1
376 389 1
377 390 0.5
377 42741 0.5
378 214 5.23192e-07
378 3305 0.999999
379 391 1
380 392 0.964286
380 24690 0.0357143
381 393 0.979592
381 15208 0.0204082
382 389 0.973333
382 682 0.0133333
382 26916 0.0133333
383 394 1
384 395 0.975
384 3930 0.025
385 396 1
386 397 1
387 398 0.973617
387 12715 0.0263826
388 399 1
389 400 1
390 401 1
391 402 1
392 403 1
393 404 1
394 405 1
395 406 0.979592
395 1204 0.0204081
396 407 0.0125786
396 685 0.00628931
396 1841 0.0566038
396 5107 0.805031
396 12308 0.00628931
396 12835 0.106918
396 13257 0.00628931
397 408 1
398 409 0.842105
398 13984 0.157895
399 411 0.8
399 15391 0.2
400 412 1
401 413 1
402 414 1
403 415 1
404 416 1
405 29 0.0302443
405 417 0.841077
405 5933 0.0378054
405 9873 0.0606294
405 12616 0.00756107
405 18087 0.0226832
406 116 0.333333
406 4414 0.333333
406 47233 0.333333
407 419 1
408 420 1
409 421 1
410 422 0.866667
410 31010 0.0666666
410 37467 0.0666667
411 423 0.9375
411 14827 0.0625
412 424 0.0555556
412 612 0.0555556
412 4123 0.888889
413 425 1
414 426 1
415 427 1
416 428 1
417 116 0.992857
417 429 0.00714286
418 431 1
419 432 0.95
419 8367 0.05
420 433 0.818182
420 15323 0.0909091
420 26367 0.0909091
421 434 1
422 435 0.992203
422 1536 0.00779664
423 436 1
424 437 0.986077
424 2141 3.42443e-05
424 2910 0.00462947
424 15986 0.00462947
424 36670 0.00462947
425 438 0.944138
425 442 0.0280352
425 18442 0.0278272
426 439 1
427 440 0.133333
427 481 0.866667
428 441 0.890909
428 6009 0.012987
428 11775 0.0363636
428 11948 0.0467532
428 13880 0.00259739
428 51440 0.0103896
429 442 0.943386
429 14784 0.056614
430 443 1
431 444 0.833333
431 22188 0.166667
432 445 1
433 446 1
434 359 0.909091
434 9781 0.0909091
435 447 1
436 448 1
437 380 0.125
437 449 0.625
437 19006 0.25
438 450 1
439 451 1
440 452 1
441 453 1
442 454 0.0526316
442 2487 0.894737
442 16848 0.0263158
442 19251 0.0263158
443 455 1
444 456 1
445 457 0.416442
445 458 0.583558
446 458 0.374494
446 459 0.625506
447 460 1
448 461 1
449 462 1
450 463 1
451 464 0.0350877
451 7192 0.824561
451 7541 0.0175439
451 20093 0.0175439
451 45099 0.105263
452 465 1
453 466 1
454 467 1
455 468 1
456 469 1
457 470 1
458 472 1
459 473 0.888889
459 20154 0.111111
460 474 1
461 475 0.166667
461 10170 0.833333
462 476 1
463 477 1
464 478 1
465 479 0.111111
465 2094 0.111111
465 2095 0.111111
465 8961 0.666667
466 480 0.999999
466 18263 6.6153e-07
467 482 1
468 484 1
469 485 0.5
469 28645 0.5
470 486 0.75
470 13126 0.25
471 488 0.894796
471 15937 0.07018
471 16457 0.0174794
471 33457 0.0175449
472 489 0.907285
472 1283 0.0794702
472 15279 0.0066225
472 20112 0.00662249
473 490 1
474 491 1
475 492 1
476 72 0.00465116
476 493 0.995349
477 494 1
478 495 1
479 496 0.964286
479 24151 0.0357143
480 497 1
481 498 0.960784
481 14236 0.0294118
481 30158 0.00980384
482 499 1
483 500 1
484 501 0.928571
484 30615 0.0714286
485 502 1
486 503 0.916667
486 14741 0.0833333
487 504 1
488 505 0.870868
488 15816 0.0512275
488 22094 0.0512273
488 50007 0.0266773
489 506 1
490 507 1
491 508 0.945946
491 18371 0.0540541
492 509 1
493 510 1
494 511 0.953393
494 1568 0.0221662
494 1586 0.00541673
494 2229 0.00541662
494 6922 0.000971594
494 16487 0.010834
494 18012 0.00180235
495 512 0.608696
495 3870 0.217391
495 5948 0.173913
496 513 1
497 514 0.888889
497 27462 0.111111
498 26 0.0123992
498 515 0.987601
499 516 0.989287
499 18922 0.000244157
499 21412 0.00523432
499 28477 0.00523429
500 517 1
501 518 1
502 519 1
503 520 0.928571
503 31394 0.0714286
504 521 0.619048
504 13776 0.380952
505 522 1
506 524 1
507 525 1
508 526 1
509 527 1
510 165 0.115376
510 457 0.846091
510 9862 7.46822e-05
510 36553 0.0384587
511 528 1
512 529 0.977778
512 14747 0.0222222
513 530 1
514 531 0.111111
514 592 0.777778
514 730 0.111111
515 532 1
516 533 1
517 534 1
518 535 1
519 536 1
520 537 1
521 538 0.833334
521 21097 0.166666
522 539 1
523 540 1
524 541 1
525 48 0.156385
525 30166 0.281205
525 30187 0.562411
526 542 1
527 543 1
528 544 1
529 547 1
530 549 1
531 551 0.882353
531 1592 0.0882353
531 23445 0.0294118
532 552 0.823529
532 34696 0.176471
533 553 1
534 554 0.991377
534 18024 0.00401215
534 30990 0.00461105
535 555 1
536 556 1
537 557 0.921053
537 29379 0.0789474
538 558 0.971114
538 1990 0.00169182
538 9781 1.42515e-06
538 9821 0.000845918
538 14468 0.0219939
538 18522 1.05779e-05
538 21206 0.000845915
538 29188 0.000845905
538 31110 0.000845918
538 31572 0.00011321
538 33347 0.00169181
539 559 1
540 560 0.987342
540 13769 0.0126582
541 561 1
542 562 0.978702
542 22144 0.0212976
543 563 0.953963
543 6922 0.0179792
543 20602 0.0280577
544 404 0.773678
544 24925 0.193419
544 34094 0.0329025
545 564 1
546 565 1
547 259 0.849421
547 325 0.146718
547 7642 0.003861
548 566 1
549 567 1
550 568 0.761421
550 618 0.150592
550 761 0.00338409
550 1236 0.00169205
550 1825 0.0795262
550 25884 0.00169204
550 48336 0.00169205
551 570 1
552 571 1
553 572 0.930233
553 14037 0.0697674
554 573 0.9375
554 3309 0.0208333
554 20122 0.0416667
555 574 0.733645
555 1654 0.154206
555 2328 0.0140187
555 2414 0.0093458
555 5475 0.0186916
555 6996 0.0046729
555 7109 0.0140187
555 12294 0.0140187
555 14663 0.0327103
555 22639 0.00467287
556 575 1
557 576 1
558 577 1
559 578 1
560 579 1
561 580 1
562 117 0.916667
562 23652 0.0833333
563 118 0.5
563 15597 0.5
564 581 0.872813
564 1546 0.119165
564 1893 0.00199728
564 2444 0.00199728
564 16253 0.00399455
564 26683 3.14296e-05
564 28164 9.81489e-07
565 583 1
566 584 0.909091
566 20604 0.0909091
567 585 1
568 586 0.2
568 13486 0.8
569 587 1
570 80 0.114208
570 588 0.875037
570 986 0.00531395
570 2079 0.00335907
570 25161 0.00167945
570 38615 0.000402329
571 589 0.25
571 40282 0.75
572 590 1
573 591 0.615385
573 6052 0.333333
573 37284 0.0512821
574 230 0.26506
574 593 0.73494
575 594 1
576 595 1
577 596 1
578 597 0.964912
578 9758 0.0175439
578 17056 0.0175437
579 598 1
580 599 1
581 600 0.666667
581 30781 0.333333
582 601 1
583 602 1
584 603 0.992131
584 2026 0.000237647
584 21032 0.00763177
585 604 1
586 605 0.957447
586 18813 0.0425532
587 606 0.75
587 10948 0.25
588 607 1
589 608 1
590 609 0.974026
590 20657 0.012987
590 23405 0.012987
591 610 0.948276
591 19592 0.0344827
591 29148 0.0172414
592 611 1
593 612 0.947368
593 14333 0.0526315
594 613 1
595 424 0.928571
595 9083 0.0584415
595 13150 0.00649351
595 25604 0.00649348
596 614 0.925
596 23376 0.05
596 24208 0.025
597 615 1
598 616 1
599 617 1
600 618 0.854167
600 1236 0.145833
601 210 1
602 619 1
603 413 0.0196075
603 620 0.549015
603 2778 0.392153
603 5325 9.42572e-06
603 17605 0.0196076
603 23943 0.0196076
604 621 0.993939
604 1023 0.0030303
604 22624 0.0030303
605 622 1
606 623 1
607 624 0.652542
607 635 0.00847457
607 2803 0.262712
607 15678 0.0423729
607 18081 0.0169491
607 19442 0.00847458
607 26699 0.00847457
608 625 0.833334
608 27724 0.0833333
608 30349 0.0833331
609 626 0.999939
609 16508 6.1304e-05
610 627 1
611 628 1
612 629 0.966102
612 28337 0.0338983
613 630 0.333333
613 9543 0.583333
613 25210 0.0833333
614 631 1
615 315 0.993827
615 14128 0.00617284
616 632 1
617 633 0.973799
617 3990 0.00436681
617 5135 0.00436681
617 7655 0.00873362
617 7866 0.00436681
617 25856 0.0043668
618 634 1
619 635 0.0117647
619 2803 0.0941176
619 5487 0.8
619 16907 0.0941176
620 636 0.935484
620 21156 0.0645161
621 637 0.916667
621 28020 0.0833333
622 638 1
623 639 1
624 640 1
625 641 1
626 642 1
627 643 1
628 644 1
629 645 1
630 646 1
631 647 0.973699
631 21232 0.00877206
631 21255 0.00877206
631 53380 0.00875687
632 648 1
633 649 1
634 650 0.958333
634 21244 0.0416667
635 422 0.947929
635 45982 0.0520712
636 651 0.75
636 14862 0.25
637 652 0.896552
637 15453 0.0689655
637 17907 0.0344828
638 653 0.856719
638 1438 1.57861e-07
638 2536 0.0906426
638 5266 0.00584781
638 6112 0.0321635
638 6519 0.00584791
638 8412 0.00292396
638 21602 7.23379e-06
638 49029 0.00584791
639 654 0.996184
639 7363 0.00190807
639 21082 0.00190815
640 655 1
641 656 1
642 657 1
643 658 1
644 659 0.272727
644 17867 0.727273
645 660 0.5
645 2898 0.5
646 661 1
647 434 0.960784
647 20501 0.0392157
648 662 1
649 663 0.2
649 11604 0.2
649 24193 0.4
649 24201 0.2
650 664 1
651 665 1
652 666 0.2
652 45592 0.8
653 667 1
654 668 1
655 669 1
656 670 1
657 671 1
658 672 1
659 673 1
660 674 0.5
660 15612 0.5
661 675 0.930233
661 18365 0.0697674
662 676 1
663 677 0.953757
663 3086 0.00578035
663 38106 0.0346821
663 44033 0.00578035
664 678 0.809524
664 30682 0.190476
665 679 1
666 680 0.333333
666 34694 0.333333
666 34704 0.333333
667 681 1
668 459 0.333333
668 23051 0.333333
668 37829 0.333333
669 565 1
670 43 0.892942
670 21602 0.0356293
670 25967 0.035717
670 32298 0.0357115
671 389 0.0129032
671 682 0.96129
671 9848 0.0258064
672 683 0.125
672 2080 0.875
673 684 1
674 398 0.75
674 23022 0.25
675 406 1
676 685 0.166667
676 12835 0.5
676 52100 0.333333
677 686 0.333333
677 39794 0.666667
678 687 1
679 688 1
680 689 0.707006
680 1066 0.00636943
680 1072 0.254777
680 10394 0.0127389
680 19027 0.00636942
680 31280 0.00636942
680 47871 0.00636943
681 690 1
682 691 1
683 692 1
684 693 0.990291
684 49254 0.00970867
685 694 1
686 695 0.972222
686 26725 0.0277778
687 696 1
688 697 1
689 698 1
690 699 1
691 700 1
692 701 1
693 702 0.166667
693 736 0.833333
694 703 1
695 704 1
696 705 1
697 706 1
698 707 0.0136985
698 1343 0.0273969
698 1806 0.890399
698 5909 0.0273969
698 7594 1.30135e-05
698 18426 0.0136984
698 22440 0.0136984
698 50430 0.0136984
699 708 0.666664
699 1340 0.0833329
699 15417 0.083333
699 15424 0.166666
699 28795 4.0023e-06
700 709 0.5
700 18897 0.5
701 24 0.110767
701 710 0.666924
701 6680 0.111154
701 7907 0.111154
702 711 1
703 712 1
704 482 0.166667
704 36274 0.833333
705 49260 1
706 713 0.965517
706 45704 0.0344828
707 530 0.5
707 49541 0.5
708 714 1
709 715 1
710 716 1
711 717 1
712 718 1
713 211 0.111111
713 654 0.111111
713 11926 0.777778
714 719 1
715 720 1
716 721 1
717 68 0.0022128
717 72 0.0132768
717 722 0.960356
717 3087 0.022128
717 4701 0.0020261
718 723 1
719 724 1
720 725 0.5
720 15627 0.5
721 726 1
722 727 0.8
722 831 0.2
723 728 0.944795
723 8062 0.0552049
724 729 1
725 730 1
726 731 1
727 732 0.912281
727 4817 0.0087719
727 12940 0.00877193
727 13445 0.0263158
727 15736 0.0263158
727 15883 0.00877193
727 19531 0.00877193
728 733 1
729 734 0.894737
729 30435 0.105263
730 735 0.995284
730 57022 0.00471597
731 737 0.889069
731 14397 0.0370444
731 15498 0.0370445
731 30538 0.0368417
732 738 0.924528
732 4408 0.0377358
732 48834 0.0377358
733 739 0.0173245
733 743 0.982675
734 742 1
735 633 1
736 744 0.978723
736 27037 0.0212766
737 745 1
738 746 0.285714
738 3122 0.571429
738 5812 0.142857
739 94 1.67727e-05
739 747 0.999983
740 94 0.111109
740 748 0.888891
741 139 0.860477
741 23990 0.116279
741 30814 0.0232445
742 749 0.978541
742 22783 0.0214592
743 750 1
744 211 0.00338983
744 751 0.99661
745 752 1
746 753 0.752512
746 16346 0.205231
746 24896 0.0422574
747 754 1
748 755 0.88
748 1815 0.12
749 756 0.85
749 14425 0.05
749 14450 0.05
749 28750 0.05
750 757 1
751 105 0.829421
751 384 0.00469484
751 430 0.0688576
751 986 0.0931142
751 2557 0.00391236
752 758 1
753 759 0.8
753 789 0.2
754 760 1
755 761 1
756 10299 0.6
756 31587 0.2
756 55310 0.2
757 762 1
758 763 1
759 26 3.7518e-06
759 764 0.999996
760 765 1
761 766 1
762 767 0.940298
762 14477 0.0597015
763 768 1
764 769 0.862069
764 15894 0.103448
764 25741 0.0344827
765 770 0.697675
765 4527 0.0116279
765 6985 0.0697675
765 12768 0.174419
765 14652 0.0348835
765 32972 0.0116279
766 771 0.8
766 1232 0.2
767 772 1
768 773 0.333333
768 6593 0.666667
769 774 0.999991
769 23990 9.39482e-06
770 775 0.193548
770 2576 0.741935
770 25436 0.0645161
771 154 1
772 776 0.5
772 15261 0.5
773 777 0.897386
773 3510 0.0341862
773 14560 0.0598258
773 23894 5.50895e-05
773 27804 0.00854653
774 778 1
775 779 1
776 780 1
777 781 0.928571
777 9882 0.0714286
778 782 1
779 783 0.981818
779 21871 0.0181817
780 784 1
781 785 1
782 786 1
783 787 0.933333
783 30407 0.0666667
784 788 1
785 790 0.00917431
785 969 0.678899
785 988 0.229358
785 1733 0.0458716
785 3478 0.00917431
785 15513 0.0183486
785 43719 0.00917431
786 791 1
787 792 0.928012
787 4926 0.0356928
787 13649 0.0356928
787 33292 0.000602674
788 71 0.00593445
788 793 0.994066
789 794 1
790 795 1
791 796 1
792 6361 0.347491
792 10827 0.355895
792 12409 0.296614
793 3926 0.00022503
793 4312 0.999775
794 797 1
795 798 0.833333
795 13759 0.166667
796 71 1
797 799 1
798 800 1
799 802 1
800 803 1
801 804 1
802 805 1
803 806 1
804 807 1
805 808 0.153846
805 13278 0.846154
806 809 1
807 810 1
808 811 1
809 34 0.0874858
809 812 0.824205
809 13408 0.0735899
809 15253 9.30219e-07
809 15764 0.014718
810 813 0.979592
810 6047 0.0204082
811 814 1
812 815 0.944444
812 27404 0.0555555
813 187 0.00367985
813 792 0.00122663
813 816 0.826751
813 1474 0.00122658
813 2079 0.152103
813 2283 0.00245327
813 2994 0.00122663
813 5463 0.00490653
813 24549 0.000293695
813 36018 0.00122663
813 36992 0.00490653
814 817 1
815 818 1
816 819 0.875
816 46689 0.125
817 820 1
818 821 0.842105
818 9287 0.0263158
818 18044 0.0789474
818 19108 0.0263158
818 23370 0.0263158
819 822 1
820 560 0.245279
820 7299 0.754704
820 19582 1.70064e-05
821 823 0.75
821 40531 0.25
822 824 0.5
822 825 0.5
823 826 0.866667
823 16047 0.133333
824 827 1
825 828 0.611111
825 5299 0.0555556
825 20481 0.0555556
825 39007 0.277778
826 829 1
827 830 0.666667
827 2533 0.166667
827 37726 0.166667
828 832 1
829 822 0.000125909
829 833 0.945363
829 14005 0.01818
829 19311 0.0181509
829 27595 0.01818
830 834 1
831 835 0.9
831 5797 0.05
831 19428 0.05
832 836 0.333333
832 35967 0.666667
833 837 1
834 838 0.666667
834 15800 0.333333
835 839 0.931035
835 1729 0.0488506
835 1773 0.0114943
835 4980 0.00574713
835 12416 0.00287356
836 840 1
837 841 0.914286
837 25343 0.0571429
837 25347 0.0285714
838 842 1
839 843 0.5
839 35043 0.5
840 844 0.97561
840 22727 0.0243902
841 845 0.964286
841 55903 0.0357143
842 846 1
843 847 0.4375
843 1170 0.21875
843 5331 0.0625
843 8154 0.28125
844 848 1
845 850 1
846 851 1
847 852 0.333333
847 3377 0.666667
848 853 1
849 854 1
850 855 1
851 856 1
852 857 1
853 858 1
854 859 1
855 860 0.875
855 18988 0.125
856 861 1
857 862 1
858 863 1
859 864 1
860 865 0.88
860 30317 0.04
860 30747 0.08
861 866 0.75
861 22786 0.25
862 867 0.923077
862 48524 0.0769231
863 868 0.95
863 27735 0.05
864 869 0.9
864 16682 0.1
865 870 1
866 871 0.4
866 40209 0.6
867 872 0.92
867 14065 0.04
867 27509 0.04
868 873 1
869 874 1
870 875 1
871 876 1
872 877 1
873 878 0.176471
873 11748 0.764706
873 18395 0.0588235
874 879 0.666667
874 7980 0.333333
875 880 0.952663
875 29108 0.0235205
875 29117 0.0238166
876 881 1
877 325 0.975525
877 17090 0.00349649
877 17902 0.00349648
877 19287 0.0104895
877 20708 0.00349616
877 23816 0.00349645
878 192 0.0294118
878 582 0.970588
879 882 1
880 883 0.5
880 31343 0.5
881 884 0.909091
881 31331 0.0909091
882 885 1
883 886 0.111111
883 1610 0.111111
883 11788 0.777778
884 887 1
885 888 1
886 889 0.833333
886 2105 0.166667
887 890 1
888 891 0.328146
888 8730 0.302904
888 19718 0.353388
888 21471 0.0155603
888 47314 2.57827e-06
889 892 1
890 893 1
891 894 1
892 895 0.714286
892 907 0.285714
893 896 0.8
893 15808 0.2
894 897 1
895 898 0.333333
895 9546 0.333333
895 10359 0.333333
896 899 0.0149254
896 1165 0.0298507
896 2165 0.0149254
896 2759 0.0149254
896 4626 0.925373
897 900 1
898 901 1
899 902 1
900 903 1
901 904 0.987519
901 22038 0.000136683
901 25236 0.012344
902 905 0.928571
902 17248 0.0714286
903 906 0.990315
903 4192 0.00484262
903 16980 0.0048425
904 908 1
905 909 0.8
905 29363 0.2
906 910 1
907 911 1
908 913 0.972973
908 16438 0.027027
909 141 0.000681547
909 914 0.0475866
909 1845 0.618626
909 4167 0.0951732
909 4389 0.21414
909 18140 0.0237932
910 915 0.875
910 22679 0.0625
910 25428 0.0312499
910 29541 0.03125
911 916 0.933333
911 17894 0.0666667
912 917 1
913 918 0.651163
913 27459 0.325581
913 42058 0.0232558
914 919 0.25
914 941 0.5
914 4725 0.25
915 920 0.928571
915 22217 0.0714286
916 921 0.222222
916 20020 0.666667
916 29170 0.111111
917 922 1
918 923 0.5
918 42440 0.25
918 42831 0.25
919 644 0.912328
919 1203 0.079452
919 4447 0.0027397
919 11215 0.00547945
919 32298 4.71932e-07
920 924 1
921 925 0.984127
921 19009 0.0079365
921 51002 0.00793651
922 927 1
923 928 1
924 929 1
925 930 1
926 931 1
927 932 0.875
927 1271 0.125
928 933 1
929 934 1
930 93 2.13104e-05
930 935 0.868403
930 1820 0.0210522
930 4760 0.0105261
930 13768 0.0947348
930 44616 0.00526305
931 936 1
932 937 0.5
932 23271 0.5
933 938 0.833555
933 8053 0.166445
934 939 1
935 940 0.950413
935 14003 0.0495868
936 942 0.75
936 43494 0.25
937 943 1
938 944 0.634615
938 8214 0.0961538
938 17228 0.230769
938 26190 0.0192308
938 28141 0.0192308
939 945 1
940 946 0.911765
940 14852 0.0294117
940 24992 0.0588235
941 947 0.992631
941 4275 0.00585623
941 7808 0.00146406
941 19858 4.90352e-05
942 948 1
943 949 0.111111
943 7739 0.111111
943 17614 0.777778
944 950 0.976191
944 4531 0.0119047
944 26812 0.0119047
945 951 0.972985
945 33995 0.027015
946 952 1
947 953 1
948 954 1
949 14 0.250039
949 955 0.249884
949 956 0.249884
949 957 0.250039
949 4242 0.00015425
950 958 1
951 959 1
952 960 1
953 961 0.888889
953 15991 0.111111
954 962 0.945946
954 25096 0.027027
954 45716 0.027027
955 963 1
956 964 0.893149
956 17772 0.106851
957 965 1
958 966 1
959 967 1
960 968 0.685185
960 2854 0.12963
960 6395 0.0185185
960 17683 0.166667
961 970 1
962 971 1
963 972 1
964 973 0.914894
964 1125 0.0829787
964 6805 0.00212765
965 974 1
966 975 1
967 976 1
968 977 0.64
968 12613 0.28
968 20115 0.04
968 52662 0.04
969 962 0.142857
969 978 0.857143
970 753 0.984127
970 8093 0.015873
971 979 1
972 68 0.00729927
972 921 0.0145985
972 980 0.262774
972 6676 0.708029
972 9379 0.00729927
973 981 0.967742
973 22508 0.0322581
974 982 1
975 983 1
976 984 0.888889
976 20078 0.111111
977 985 1
978 987 1
979 989 0.897436
979 18594 0.025641
979 24559 0.051282
979 42390 0.025641
980 990 0.998036
980 18012 0.00196409
981 991 0.992916
981 24592 0.00708412
982 992 0.96875
982 27236 0.03125
983 993 1
984 994 0.956799
984 20236 0.0432011
985 995 1
986 996 1
987 997 1
988 998 0.586957
988 5416 0.413043
989 999 1
990 1000 1
991 1001 0.866667
991 5399 0.0666667
991 14159 0.0666667
992 1002 1
993 1003 1
994 1004 0.958333
994 19154 0.0416666
995 1005 0.962121
995 20593 0.0151515
995 30140 1.59609e-07
995 30163 0.00757575
995 52067 0.0151515
996 48 1.14087e-06
996 1006 0.966666
996 23750 0.0333331
997 1007 0.9
997 17629 0.0142857
997 33399 0.0821429
997 54737 0.00357142
998 1008 1
999 1009 1
1000 1010 1
1001 1011 1
1002 1012 1
1003 1013 0.923498
1003 11710 0.0765021
1004 1014 1
1005 1015 1
1006 1016 1
1007 1017 1
1008 1018 1
1009 1019 0.953486
1009 14887 0.0465115
1009 49821 2.91072e-06
1010 1020 1
1011 1021 0.583333
1011 27173 0.416667
1012 1022 0.916667
1012 22836 0.0833333
1013 1023 1
1014 1024 1
1015 1025 1
1016 1026 0.966667
1016 14349 0.0222222
1016 31036 0.0111111
1017 1027 0.928572
1017 33974 0.0714278
1018 1028 0.75
1018 9385 0.1875
1018 17110 0.03125
1018 29037 0.03125
1019 1029 1
1020 1030 1
1021 1031 1
1022 994 0.0714286
1022 1032 0.857143
1022 17789 0.0714286
1023 1033 1
1024 1034 0.958333
1024 19544 0.0416667
1025 1035 1
1026 1036 0.666667
1026 2825 0.333333
1027 1037 0.973684
1027 20106 0.0263158
1028 722 0.00215038
1028 1038 0.987023
1028 5043 0.00215037
1028 5232 7.50143e-05
1028 15353 0.00430075
1028 48125 0.00430075
1029 1039 1
1030 473 1
1031 1040 1
1032 1041 1
1033 1042 1
1034 1043 0.2
1034 43259 0.4
1034 43507 0.4
1035 1044 1
1036 1045 1
1037 825 0.0144927
1037 2455 0.956522
1037 15793 0.0289855
1038 1046 1
1039 1047 1
1040 1048 1
1041 1049 0.646617
1041 13081 0.353383
1042 1050 1
1043 1051 0.25
1043 27883 0.75
1044 747 1
1045 1052 0.965517
1045 27584 0.0344828
1046 1053 1
1047 1054 1
1048 1055 0.5
1048 1937 0.5
1049 12684 0.125
1049 15239 0.125
1049 31797 0.125
1049 36363 0.625
1050 1056 1
1051 1057 1
1052 1058 1
1053 1059 1
1054 1060 1
1055 1061 1
1056 1062 1
1057 1063 1
1058 1064 1
1059 80 0.125
1059 1065 0.5
1059 3151 0.125
1059 13698 0.125
1059 14215 0.125
1060 1067 1
1061 1068 1
1062 1069 0.928578
1062 7132 0.017851
1062 18973 0.0535714
1063 1070 1
1064 1071 0.912698
1064 1858 0.00793648
1064 9866 0.0714286
1064 25111 0.00793651
1065 96 0.1
1065 1073 0.9
1066 1074 0.946429
1066 2856 0.0535714
1067 1075 0.825
1067 18320 0.175
1068 1076 0.666667
1068 30278 0.333333
1069 1077 1
1070 1078 0.909091
1070 51069 0.0909091
1071 1079 0.992701
1071 15485 0.00729926
1072 1080 0.558824
1072 2655 0.0588235
1072 32352 0.382353
1073 1081 1
1074 1082 1
1075 1083 1
1076 1084 1
1077 1085 1
1078 1086 1
1079 1087 1
1080 1088 1
1081 68 0.00917297
1081 921 0.568725
1081 7124 0.00014513
1081 9379 0.421957
1082 1089 1
1083 1090 0.9
1083 12879 0.1
1084 1091 0.0070922
1084 3331 0.992908
1085 1092 0.982094
1085 10802 0.00691616
1085 14007 0.00406768
1085 16004 0.00691608
1085 42619 5.70297e-06
1086 512 0.135921
1086 1093 0.00543446
1086 3870 0.815169
1086 5948 0.00543446
1086 13867 0.0326068
1086 17045 0.00543446
1087 369 0.944444
1087 39797 0.0555556
1088 1094 0.818204
1088 11517 0.0303039
1088 26967 0.0606077
1088 31401 0.0303039
1088 31402 0.0302762
1088 52950 0.0303039
1089 1095 1
1090 1096 0.888889
1090 47204 0.111111
1091 1097 0.956522
1091 29499 0.0434783
1092 1098 1
1093 1099 1
1094 1100 0.761905
1094 2619 0.214286
1094 2928 0.0238095
1095 1101 0.5
1095 4340 0.5
1096 1102 1
1097 1103 1
1098 1104 0.793651
1098 13409 0.015873
1098 16167 0.047619
1098 19805 0.0793651
1098 20922 0.015873
1098 22525 0.015873
1098 28764 0.0158728
1098 38578 0.015873
1099 1105 1
1100 1106 0.821053
1100 1239 0.178947
1101 1107 0.2
1101 5070 0.4
1101 32990 0.4
1102 1108 0.454545
1102 33994 0.454545
1102 40625 0.0909091
1103 1109 1
1104 558 0.00972846
1104 1110 0.970815
1104 12823 0.00972846
1104 25517 0.00972846
1105 1111 0.999793
1105 2954 0.000206942
1106 1112 0.919981
1106 1176 0.0263484
1106 3277 0.0268138
1106 16506 0.0268138
1106 25586 4.33478e-05
1107 1113 1
1108 1114 0.846154
1108 15795 0.0769231
1108 21352 0.0769231
1109 1115 0.970149
1109 13881 0.0298507
1110 1116 0.0666666
1110 8322 0.933333
1111 1117 1
1112 1118 1
1113 1119 1
1114 1120 1
1115 72 0.0124224
1115 1062 0.0124224
1115 1121 0.888199
1115 4390 0.0124224
1115 15945 0.0745342
1116 1122 1
1117 1123 0.966667
1117 31478 0.0333333
1118 1124 0.995692
1118 15406 0.00015744
1118 30098 0.00399876
1118 54247 0.000152171
1119 973 0.854839
1119 1125 0.129032
1119 5316 0.016129
1120 1126 0.829268
1120 2765 0.113821
1120 5270 0.0162602
1120 39100 0.0162602
1120 44370 0.0162602
1120 58263 0.00813008
1121 1127 0.0135135
1121 1555 0.986486
1122 1128 1
1123 1129 1
1124 1130 1
1125 1131 0.9
1125 14523 0.05
1125 24513 0.05
1126 1132 0.990156
1126 19354 0.00213832
1126 28179 0.00385274
1126 51597 0.00385271
1127 1133 0.884615
1127 21809 0.115385
1128 1134 0.333333
1128 17718 0.333333
1128 38357 0.333333
1129 1135 1
1130 1136 0.5
1130 6018 0.166667
1130 6099 0.166667
1130 42889 0.166667
1131 1137 1
1132 1138 1
1133 1139 1
1134 1140 1
1135 1141 1
1136 1142 0.5
1136 15692 0.5
1137 1143 1
1138 1144 1
1139 973 0.0869565
1139 1125 0.913043
1140 1145 0.0181818
1140 3977 0.945455
1140 20827 0.0181818
1140 29637 0.0181817
1141 1146 0.933333
1141 8820 0.0666667
1142 1147 1
1143 14529 1
1144 1148 1
1145 1149 0.785714
1145 4540 0.0714286
1145 4579 0.0714286
1145 25511 0.0714286
1146 1150 0.923077
1146 53696 0.0769231
1147 1151 1
1148 1152 1
1149 81 1
1150 1153 1
1151 1154 1
1152 1155 1
1153 1156 1
1154 1157 0.666667
1154 28661 0.333333
1155 1158 0.817026
1155 25145 0.0468035
1155 25146 0.136171
1156 1159 1
1157 1160 1
1158 1161 0.999886
1158 30538 0.000114075
1159 1162 1
1160 1163 0.969193
1160 13693 0.00735857
1160 15423 0.0234482
1161 1164 0.991736
1161 11802 0.00826446
1162 1167 0.5
1162 14122 0.5
1163 1168 1
1164 1169 1
1165 259 0.115385
1165 325 0.769231
1165 7642 0.115385
1166 1171 0.97549
1166 14689 0.0245098
1167 1172 1
1168 1173 1
1169 1174 1
1170 1175 1
1171 1177 1
1172 1178 1
1173 1179 1
1174 1180 0.942308
1174 6511 0.0576923
1175 1181 0.666667
1175 1259 0.333333
1176 1182 1
1177 1183 1
1178 1184 0.333333
1178 1209 0.666667
1179 955 0.136986
1179 1762 0.150685
1179 4228 0.0136986
1179 4242 0.69863
1180 910 0.625001
1180 27045 0.25
1180 40168 0.125
1181 1185 1
1182 550 1
1183 1186 0.941176
1183 25382 0.0588235
1184 523 0.0769231
1184 1187 0.923077
1185 1188 0.0454545
1185 2774 0.863636
1185 14325 0.0227272
1185 19002 0.0227273
1185 48691 0.0454545
1186 1189 1
1187 1190 0.731708
1187 2318 0.0243901
1187 6414 0.0243903
1187 10013 0.195122
1187 46541 0.0243901
1188 1191 1
1189 1192 0.333333
1189 54964 0.333333
1189 57078 0.333333
1190 68 0.0203944
1190 105 0.0204084
1190 384 0.102042
1190 430 0.0408168
1190 986 0.0204084
1190 1193 0.65307
1190 5347 0.122452
1190 25764 0.0204084
1191 1194 1
1192 1195 1
1193 1196 1
1194 1197 0.25
1194 49355 0.75
1195 1198 1
1196 1199 0.875
1196 16258 0.125
1197 1200 1
1198 1201 1
1199 1202 1
1200 1266 1
1201 1205 1
1202 1206 1
1203 437 1
1204 1207 1
1205 1208 1
1206 1210 0.5
1206 15160 0.5
1207 1211 0.00884956
1207 1284 0.0265486
1207 3086 0.619469
1207 7447 0.327434
1207 17649 0.00884956
1207 40684 0.00884956
1208 1212 1
1209 1214 1
1210 1215 1
1211 1216 0.833333
1211 30611 0.166667
1212 1217 1
1213 1218 0.857143
1213 17768 0.142857
1214 1219 1
1215 1220 0.25
1215 3830 0.75
1216 1221 0.818182
1216 4150 0.0454545
1216 5482 0.0454545
1216 23094 0.0909091
1217 1222 0.999998
1217 24896 2.38548e-06
1218 1224 1
1219 1225 1
1220 1226 1
1221 1227 0.166667
1221 16609 0.0833333
1221 22535 0.75
1222 1228 1
1223 1230 1
1224 1231 1
1225 1233 1
1226 1234 1
1227 1235 1
1228 1237 0.928571
1228 6500 0.0408163
1228 6573 0.0102041
1228 12960 0.0102041
1228 22043 0.0102041
1229 1238 1
1230 1240 1
1231 1241 1
1232 1242 0.933333
1232 22323 0.0666667
1233 1243 1
1234 1244 0.997959
1234 13994 0.00204082
1235 1245 0.888889
1235 25344 0.111111
1236 1246 0.955135
1236 2836 0.0064103
1236 6557 0.0128206
1236 12996 0.00640285
1236 18710 0.00641029
1236 26228 0.0064103
1236 37465 0.00641029
1237 1247 1
1238 1248 0.333333
1238 10735 0.666667
1239 1185 1
1240 1249 1
1241 1250 1
1242 1251 1
1243 1252 0.333333
1243 6513 0.666667
1244 1253 0.989117
1244 1295 0.0108831
1245 1254 1
1246 106 0.0260125
1246 260 0.0130063
1246 1255 0.923445
1246 15253 0.0129976
1246 18195 0.0130063
1246 20754 0.0115301
1246 22638 2.09668e-06
1247 1256 1
1248 1257 0.0454545
1248 4109 0.0454545
1248 7362 0.909091
1249 1258 0.846154
1249 6394 0.0384615
1249 19881 0.0384615
1249 29477 0.076923
1250 1260 1
1251 1261 1
1252 1262 0.952381
1252 5608 0.047619
1253 1263 1
1254 1264 1
1255 1265 1
1256 1267 0.00452489
1256 1376 0.00452486
1256 1900 0.963802
1256 15738 0.0271486
1257 1268 1
1258 1269 0.962264
1258 25863 0.0188679
1258 25870 0.0188679
1259 1270 1
1260 1271 1
1261 1170 1
1262 1272 1
1263 1273 1
1264 1274 1
1265 1275 0.983587
1265 1300 2.02634e-05
1265 1393 0.0163932
1266 1276 0.111111
1266 3104 0.666667
1266 36338 0.111111
1266 36341 0.111111
1267 1277 1
1268 1278 1
1269 1279 1
1270 1280 0.3
1270 2921 0.7
1271 1281 0.575758
1271 2164 0.030303
1271 5700 0.151515
1271 7728 0.030303
1271 17926 0.212121
1272 1282 1
1273 1193 0.944445
1273 30367 0.0555555
1274 1284 0.444444
1274 40684 0.111111
1274 50725 0.444444
1275 1192 0.25
1275 29676 0.125
1275 40311 0.625
1276 1285 1
1277 1286 0.95
1277 17486 0.05
1278 1287 0.0476191
1278 4597 0.904762
1278 23602 0.0476189
1279 1288 1
1280 1289 1
1281 515 0.75
1281 42595 0.25
1282 1290 1
1283 1291 1
1284 1292 0.571429
1284 38291 0.357143
1284 40341 0.0714285
1285 1293 0.166667
1285 33797 0.333333
1285 37185 0.333333
1285 57104 0.166667
1286 1294 1
1287 1296 1
1288 1297 1
1289 1298 1
1290 1299 0.333333
1290 46918 0.666667
1291 1300 0.249768
1291 1478 0.750232
1292 1301 1
1293 1302 0.857143
1293 1314 0.0714286
1293 2362 0.0714286
1294 1303 0.878788
1294 1312 0.0909091
1294 4577 0.030303
1295 1304 0.166667
1295 1336 0.833333
1296 1337 0.111111
1296 1525 0.111111
1296 6430 0.777778
1297 14 0.5
1297 165 0.5
1298 1305 1
1299 1306 1
1300 1307 0.998793
1300 1419 0.00120726
1301 24 0.0344559
1301 1308 0.93106
1301 14045 0.0344837
1302 1309 1
1303 1310 0.931035
1303 21021 0.0344828
1303 28087 0.0344828
1304 1311 0.875
1304 2988 0.125
1305 1313 1
1306 1315 1
1307 1316 0.111111
1307 2996 0.833333
1307 25571 0.0555555
1308 1317 1
1309 1318 0.522734
1309 2404 0.369271
1309 4215 0.00479573
1309 10229 0.0575487
1309 11901 0.00479573
1309 15623 0.0168761
1309 17354 0.0143872
1309 19198 0.00479572
1309 38744 0.00479573
1310 1319 0.285714
1310 34551 0.571429
1310 50927 0.142857
1311 1320 0.971429
1311 25599 0.0285714
1312 1321 1
1313 1322 1
1314 1323 1
1315 1324 0.5
1315 1429 0.5
1316 1325 1
1317 1326 1
1318 1327 1
1319 1328 1
1320 1329 1
1321 1330 1
1322 1331 1
1323 1332 1
1324 1333 0.5
1324 44787 0.5
1325 1334 0.975904
1325 19488 0.0120482
1325 31107 0.0120482
1326 1335 0.222222
1326 1524 0.777778
1327 151 0.973684
1327 21258 0.0263156
1328 1338 0.124999
1328 15766 7.60219e-06
1328 45028 0.624995
1328 50379 0.124999
1328 55734 0.124999
1329 1339 1
1330 1341 0.5
1330 40353 0.5
1331 3851 0.730769
1331 5517 0.192308
1331 7303 0.0384615
1331 23840 0.0384615
1332 1342 0.5
1332 1430 0.5
1333 1344 1
1334 1267 1
1335 1345 1
1336 1346 0.166667
1336 20538 0.833333
1337 1348 1
1338 1350 0.25
1338 36342 0.75
1339 1349 0.125
1339 8155 0.0416667
1339 8812 0.833333
1340 1347 1
1341 1351 1
1342 1352 1
1343 1353 1
1344 1354 1
1345 1355 1
1346 1356 1
1347 1357 1
1348 1358 0.9
1348 16147 0.06
1348 23910 2.01148e-07
1348 23932 0.02
1348 44008 0.0199999
1349 1359 1
1350 445 0.333333
1350 1360 0.333333
1350 1361 0.333333
1351 1362 0.142857
1351 2621 0.857143
1352 1363 1
1353 1364 0.2
1353 6932 0.8
1354 1066 0.147306
1354 1072 0.0105219
1354 1365 0.0105219
1354 4941 0.0631314
1354 10394 0.378788
1354 12306 0.357744
1354 15796 0.0109422
1354 16158 0.0105219
1354 27251 0.0105219
1355 1366 1
1356 1367 1
1357 1368 1
1358 1369 1
1359 1370 1
1360 1371 1
1361 1372 1
1362 1373 0.954545
1362 8991 0.0454545
1363 1374 0.33246
1363 1427 0.66754
1364 1375 1
1365 3824 0.625
1365 9567 0.0249999
1365 10399 0.25
1365 30068 0.025
1365 31243 0.025
1365 52068 0.05
1366 1377 0.166667
1366 11272 0.166667
1366 12645 0.166667
1366 12942 0.333333
1366 44530 0.166667
1367 1379 0.915254
1367 7816 0.0169492
1367 23131 0.0169492
1367 38579 0.0169492
1367 55045 0.0338983
1368 1380 1
1369 1381 1
1370 1382 1
1371 246 0.111111
1371 947 0.888889
1372 1383 0.875
1372 1966 0.125
1373 1384 1
1374 1385 0.000766804
1374 2450 0.980018
1374 15820 0.0192154
1375 1386 0.113924
1375 3693 0.860759
1375 20740 0.0253164
1376 1387 0.0499985
1376 4797 0.0999976
1376 5962 0.749982
1376 6815 0.0499988
1376 15402 0.0499988
1376 49881 2.45528e-05
1377 1388 0.0576923
1377 2241 0.923077
1377 18535 0.0192308
1378 1383 0.0606061
1378 1966 0.939394
1379 1389 1
1380 1390 1
1381 1391 0.857143
1381 29957 0.0714285
1381 46997 0.0714286
1382 1392 1
1383 1394 1
1384 1395 1
1385 1396 1
1386 1397 1
1387 1398 0.25
1387 5314 0.75
1388 1399 1
1389 1400 1
1390 1401 0.1
1390 1436 0.1
1390 1519 0.7
1390 1531 0.0999999
1391 1402 1
1392 1403 1
1393 1404 1
1394 1406 1
1395 1407 1
1396 1408 1
1397 1374 1
1398 1409 1
1399 1409 1
1400 1410 1
1401 1411 1
1402 1412 0.2
1402 5535 0.8
1403 1413 0.98
1403 2068 0.01
1403 34918 0.01
1404 1414 1
1405 1415 0.964286
1405 16011 0.0357142
1406 1416 0.944444
1406 24589 0.0555556
1407 1417 1
1408 116 0.4
1408 1418 0.6
1409 1420 1
1410 1421 1
1411 1422 1
1412 1423 1
1413 1424 0.25
1413 40005 0.5
1413 50925 0.25
1414 1425 1
1415 1426 1
1416 37 0.499967
1416 1427 0.500033
1417 1428 1
1418 1431 1
1419 1432 1
1420 1433 0.272727
1420 8385 0.727273
1421 1434 1
1422 1435 1
1423 1437 1
1424 1438 1
1425 1439 0.333333
1425 3085 0.666667
1426 1440 1
1427 1441 1
1428 1442 1
1429 1444 0.25
1429 3967 0.166667
1429 4137 0.583333
1430 1445 0.25
1430 51936 0.75
1431 1446 1
1432 1447 1
1433 1448 1
1434 1449 1
1435 1450 0.888889
1435 1477 0.111111
1436 1451 1
1437 1452 0.872727
1437 14859 0.0090909
1437 17187 0.118182
1438 1453 1
1439 1454 1
1440 1455 1
1441 1456 1
1442 1457 0.996201
1442 26828 0.00379888
1443 1458 1
1444 1459 1
1445 1460 1
1446 1461 1
1447 1462 1
1448 1463 0.166667
1448 10419 0.833333
1449 1464 1
1450 1465 0.7
1450 7941 0.1
1450 22137 0.1
1450 30250 0.1
1451 1467 1
1452 1468 1
1453 1469 1
1454 1470 1
1455 1471 0.4
1455 4449 0.6
1456 1472 0.5
1456 25241 0.5
1457 1473 0.666667
1457 6497 0.0833333
1457 27853 0.166667
1457 28133 0.0833333
1458 1475 0.4
1458 22036 0.2
1458 36245 0.4
1459 1476 1
1460 1479 1
1461 1480 0.5
1461 1481 0.5
1462 1482 1
1463 1483 0.933333
1463 17853 0.0666667
1464 1484 1
1465 1485 0.9
1465 30324 0.1
1466 1486 0.142857
1466 34744 0.714286
1466 51547 0.142857
1467 1487 1
1468 1488 1
1469 1489 0.333333
1469 25917 0.666667
1470 1490 1
1471 735 1
1472 1491 0.75
1472 9246 0.25
1473 1492 1
1474 1493 1
1475 1494 1
1476 753 0.916667
1476 4348 0.0833333
1477 1495 1
1478 1496 0.0952381
1478 2832 0.261905
1478 5210 0.630952
1478 19751 0.0119047
1479 1497 0.6
1479 9087 0.025
1479 9119 0.025
1479 12270 0.15
1479 14287 0.05
1479 22886 0.1
1479 25046 0.025
1479 30917 0.025
1480 1498 1
1481 1499 0.0714286
1481 1866 0.714286
1481 19880 0.214286
1482 1500 1
1483 1501 1
1484 1502 0.875
1484 27502 0.125
1485 1503 1
1486 1504 0.5
1486 50483 0.5
1487 1505 0.0151515
1487 2143 0.954545
1487 6127 0.0151515
1487 19316 0.0151515
1488 5461 0.948052
1488 14062 0.051948
1489 1506 0.0120482
1489 3102 0.975904
1489 17988 0.0120482
1490 1507 1
1491 1508 1
1492 1509 1
1493 1510 1
1494 1511 1
1495 1512 0.5
1495 11221 0.5
1496 1513 1
1497 1514 1
1498 1515 1
1499 1516 1
1500 1517 0.993576
1500 2018 0.0019597
1500 7035 0.00191596
1500 7124 0.00192871
1500 18522 0.000619305
1501 1518 1
1502 1520 1
1503 1521 1
1504 1522 1
1505 1523 1
1506 382 0.295775
1506 3002 0.5
1506 5151 0.190141
1506 16868 0.0140845
1507 1526 1
1508 1527 0.0333333
1508 4110 0.966667
1509 1528 1
1510 1529 0.5
1510 26498 0.5
1511 1530 1
1512 1531 1
1513 1532 0.405405
1513 12574 0.567568
1513 25088 0.027027
1514 1533 0.333333
1514 4426 0.666667
1515 1534 0.0084033
1515 1587 0.957983
1515 16426 0.0252101
1515 26170 0.00840335
1516 1535 0.875
1516 7374 0.125
1517 1537 0.0476189
1517 16408 0.904762
1517 29794 0.047619
1518 1538 1
1519 1539 1
1520 1540 1
1521 1541 1
1522 1542 1
1523 1543 1
1524 1544 0.866667
1524 24446 0.0666667
1524 31416 0.0666666
1525 1545 1
1526 1547 0.98718
1526 25529 0.0128205
1527 1548 1
1528 1549 1
1529 1550 1
1530 1551 1
1531 1552 1
1532 1553 0.4
1532 6682 0.6
1533 1554 0.0384615
1533 3570 0.192308
1533 9643 0.192308
1533 18769 0.0384615
1533 29271 0.0384615
1533 29646 0.5
1534 1556 1
1535 1557 1
1536 259 0.992647
1536 325 0.00735294
1537 1558 0.5
1537 54198 0.5
1538 1559 0.935484
1538 1579 0.0645161
1539 1560 0.5
1539 26880 0.5
1540 1561 1
1541 1562 0.555556
1541 15041 0.111111
1541 27140 0.277778
1541 53922 0.0555556
1542 1563 0.166667
1542 5639 0.833333
1543 1564 0.8
1543 1698 0.2
1544 1565 1
1545 1566 0.909091
1545 24231 0.0909091
1546 1567 1
1547 1569 1
1548 1007 0.333333
1548 1570 0.333333
1548 3324 0.333333
1549 1571 1
1550 26 0.3332
1550 1414 0.3334
1550 1573 0.3334
1551 1574 1
1552 1575 1
1553 1576 1
1554 1577 0.04
1554 19981 0.96
1555 1578 1
1556 1580 1
1557 1581 0.916667
1557 17383 0.0833332
1558 1582 1
1559 1198 0.692308
1559 1584 0.205128
1559 3295 0.025641
1559 3717 0.025641
1559 32311 0.025641
1559 35244 0.025641
1560 1585 0.882355
1560 16419 0.0588237
1560 31420 0.0294118
1560 55113 0.0294093
1561 1586 0.984375
1561 17294 0.015625
1562 1588 1
1563 1589 1
1564 1591 1
1565 1537 1
1566 1593 1
1567 1594 1
1568 1595 1
1569 1596 0.5
1569 36134 0.5
1570 1597 1
1571 1598 1
1572 1599 0.800045
1572 7128 0.099949
1572 15689 0.100006
1573 1600 1
1574 1601 1
1575 1602 0.25
1575 1613 0.5
1575 2821 0.25
1576 1603 1
1577 1604 1
1578 1605 0.5
1578 28439 0.5
1579 1606 0.947368
1579 13442 0.0526316
1580 1607 0.961538
1580 29699 0.0384615
1581 1608 1
1582 1609 1
1583 1611 1
1584 1612 1
1585 1614 1
1586 1615 1
1587 1616 0.98913
1587 18390 0.0108695
1588 1617 1
1589 1618 1
1590 1619 0.5
1590 32350 0.5
1591 1620 1
1592 1621 0.5
1592 13257 0.5
1593 460 0.140496
1593 1622 0.00413223
1593 3091 0.00413223
1593 6205 0.789256
1593 12764 0.0165289
1593 15591 0.0123967
1593 22752 0.0289256
1593 48924 0.00413223
1594 1623 0.5
1594 1632 0.5
1595 1624 1
1596 1625 1
1597 1626 1
1598 1627 0.0192308
1598 4510 0.980769
1599 1628 1
1600 1629 1
1601 1630 1
1602 1631 0.5
1602 17628 0.5
1603 1633 1
1604 1634 0.5
1604 43314 0.5
1605 1635 0.934093
1605 7481 0.0109892
1605 8104 0.0109893
1605 8121 0.0109893
1605 30069 0.0109893
1605 30427 0.0109893
1605 34964 0.0109608
1606 1636 1
1607 1637 1
1608 1638 0.070588
1608 2335 0.811762
1608 4890 0.0235293
1608 5419 3.01291e-06
1608 10806 0.0470587
1608 20240 0.0117647
1608 20688 0.0117647
1608 38809 0.0117647
1608 41482 0.0117647
1609 1639 0.984628
1609 42619 0.0153721
1610 1640 1
1611 1641 1
1612 1170 1
1613 225 0.0188679
1613 441 0.0754717
1613 1642 0.716981
1613 9182 0.0377358
1613 21784 0.132075
1613 51440 0.0188679
1614 1643 1
1615 1644 1
1616 1645 1
1617 1646 1
1618 1647 0.217391
1618 6566 0.478261
1618 37000 0.304348
1619 1648 0.333333
1619 1754 0.666667
1620 1649 1
1621 1650 1
1622 1651 1
1623 1652 0.975
1623 1664 0.025
1624 1653 1
1625 1655 1
1626 1656 1
1627 1657 1
1628 1658 1
1629 1659 0.976191
1629 31378 0.0238095
1630 1660 0.25
1630 6346 0.75
1631 1661 1
1632 1662 1
1633 1663 1
1634 1665 0.00729927
1634 1733 0.978102
1634 15513 0.00729927
1634 43719 0.00729927
1635 1666 1
1636 1564 0.076923
1636 1705 0.0769231
1636 11382 0.769231
1636 57373 0.076923
1637 1667 0.25
1637 39488 0.75
1638 1668 1
1639 1669 1
1640 1670 0.933333
1640 12096 0.0222221
1640 20484 0.0444444
1641 1671 1
1642 1672 0.5
1642 40885 0.5
1643 1673 1
1644 1674 1
1645 1675 0.894738
1645 16694 0.05263
1645 31424 0.0526317
1646 1676 0.0136986
1646 3316 0.924658
1646 14386 0.0616438
1647 1677 1
1648 1678 1
1649 1679 1
1650 1680 1
1651 1681 1
1652 1682 0.333333
1652 1692 0.666667
1653 1683 1
1654 1684 0.2
1654 6766 0.2
1654 16607 0.6
1655 1685 0.933333
1655 26131 0.0666667
1656 1686 1
1657 1688 1
1658 1689 1
1659 1690 1
1660 1691 1
1661 1693 1
1662 1694 1
1663 1695 1
1664 1696 0.166667
1664 1945 0.833333
1665 1697 0.958333
1665 18439 0.0416667
1666 1699 0.98913
1666 29354 0.0108696
1667 1700 1
1668 1701 1
1669 1702 1
1670 1703 1
1671 1704 1
1672 1706 1
1673 1707 1
1674 1708 1
1675 70 0.25
1675 325 0.25
1675 1709 0.25
1675 1710 0.25
1676 1711 1
1677 252 1
1678 1712 0.333333
1678 50513 0.666667
1679 31 0.333333
1679 1713 0.333333
1679 2424 0.333333
1680 1714 0.0454545
1680 4709 0.954545
1681 1715 1
1682 1716 1
1683 1717 1
1684 1718 0.333333
1684 33575 0.666667
1685 1719 1
1686 1568 0.169223
1686 10569 0.20737
1686 23878 0.20737
1686 37974 0.20737
1686 54443 0.00129739
1686 54450 0.20737
1687 1720 1
1688 1721 0.625
1688 10740 0.375
1689 1722 1
1690 1723 1
1691 1724 1
1692 1725 1
1693 70 0.5
1693 1726 0.5
1694 1727 0.24998
1694 16726 0.499962
1694 18346 7.972e-05
1694 26384 0.249978
1695 1728 1
1696 1730 0.913043
1696 18428 0.0869565
1697 1731 1
1698 1732 1
1699 1734 1
1700 1735 0.5
1700 57703 0.5
1701 1736 1
1702 1737 1
1703 1144 0.00377358
1703 1738 0.00377358
1703 1845 0.0113208
1703 4167 0.0943396
1703 4389 0.784906
1703 5015 0.0981132
1703 54277 0.00377358
1704 143 1
1705 1739 1
1706 1740 1
1707 1741 1
1708 1742 1
1709 1743 1
1710 1744 1
1711 1745 0.0769231
1711 10738 0.923077
1712 521 0.965818
1712 2884 0.000294138
1712 13776 0.0296523
1712 13826 0.00423604
1713 1746 1
1714 1747 0.5
1714 4834 0.5
1715 1748 1
1716 1749 1
1717 1750 0.571429
1717 14132 0.428571
1718 1751 1
1719 1752 0.965517
1719 27456 0.0344828
1720 1753 1
1721 1755 1
1722 1756 0.0666666
1722 13426 0.866667
1722 21262 0.0666666
1723 1757 0.000145438
1723 1770 0.848362
1723 1778 0.0302985
1723 1796 0.0605973
1723 21405 0.0605972
1724 1757 0.498797
1724 1791 0.501203
1725 1758 0.8
1725 1775 0.2
1726 1759 0.975
1726 15179 0.025
1727 1760 0.5
1727 1807 0.5
1728 1761 1
1729 955 0.227273
1729 1762 0.704545
1729 4242 0.0681818
1730 1763 1
1731 1764 1
1732 68 0.0204082
1732 1765 0.0102041
1732 3450 0.0714286
1732 3746 0.244898
1732 8982 0.571429
1732 11487 0.0102041
1732 36721 0.0714286
1733 1766 1
1734 1767 1
1735 1768 1
1736 1769 1
1737 1771 1
1738 1772 0.0909091
1738 3565 0.909091
1739 68 0.0289521
1739 1774 0.333843
1739 6361 1.16021e-06
1739 12427 0.606988
1739 54620 0.0302158
1740 1776 1
1741 1777 0.0434783
1741 8982 0.0652174
1741 11487 0.543478
1741 15954 0.0652174
1741 18009 0.0434783
1741 20365 0.217391
1741 39789 0.0217391
1742 1779 0.5
1742 1802 0.5
1743 1780 0.764706
1743 1803 0.0588235
1743 8810 0.0588235
1743 16866 0.117647
1744 1781 1
1745 1782 1
1746 1783 1
1747 1784 1
1748 1785 1
1749 1786 1
1750 1787 1
1751 1789 1
1752 1790 1
1753 1792 0.047619
1753 1819 0.952381
1754 1793 1
1755 1794 0.890652
1755 10636 0.0408367
1755 21407 0.0685117
1756 1795 0.333333
1756 1829 0.333333
1756 42582 0.333333
1757 1797 1
1758 1798 1
1759 1799 0.5
1759 1800 0.5
1760 1801 1
1761 1804 1
1762 1805 1
1763 1807 1
1764 1808 0.857143
1764 30969 0.142857
1765 1809 0.1
1765 6602 0.9
1766 1810 0.5
1766 28968 0.5
1767 1811 1
1768 1812 0.333333
1768 1831 0.666667
1769 1813 0.583333
1769 2234 0.166667
1769 37250 0.25
1770 1814 1
1771 1816 0.777778
1771 49663 0.222222
1772 1817 1
1773 1818 0.954545
1773 17080 0.0454545
1774 1821 1
1775 1822 1
1776 1823 1
1777 1824 1
1778 1826 1
1779 1827 1
1780 1828 0.714286
1780 47543 0.285714
1781 1830 0.4
1781 48780 0.2
1781 57401 0.4
1782 1832 1
1783 1833 0.727273
1783 2088 0.181818
1783 4672 0.0909091
1784 1834 1
1785 1835 1
1786 1836 0.037037
1786 3513 0.925926
1786 10563 0.037037
1787 1837 1
1788 1838 1
1789 1839 1
1790 1840 1
1791 1842 0.809524
1791 15383 0.190476
1792 1843 0.833333
1792 6028 0.166667
1793 1844 1
1794 1845 0.955882
1794 7965 0.0441176
1795 1846 0.2
1795 10002 0.8
1796 1847 1
1797 1848 1
1798 85 1
1799 1850 0.875
1799 20625 0.0178571
1799 44588 0.0714286
1799 53817 0.0357143
1800 1851 1
1801 1852 1
1802 1853 1
1803 1854 1
1804 44 0.0909091
1804 1855 0.363636
1804 4007 0.0909091
1804 5572 0.0909091
1804 5814 0.181818
1804 16001 0.181818
1805 83 0.913043
1805 2321 0.0434783
1805 3261 0.0434783
1806 1856 1
1807 1857 1
1808 325 1
1809 48 0.00105116
1809 1859 0.998949
1810 1860 1
1811 1861 0.964706
1811 48377 0.0117647
1811 51979 0.0235294
1812 1862 0.954545
1812 10507 0.0454545
1813 1221 1
1814 1863 1
1815 1864 0.666667
1815 27954 0.333333
1816 1865 1
1817 1867 1
1818 1868 0.829268
1818 19252 0.0243902
1818 34108 0.121951
1818 36298 0.0243902
1819 1869 0.99095
1819 24838 0.00904977
1820 1870 0.953907
1820 2010 0.00926121
1820 2885 0.00925386
1820 14538 0.0185225
1820 39968 0.00905554
1821 713 0.944444
1821 17074 0.0555555
1822 1871 0.733333
1822 29961 0.266667
1823 1872 0.952381
1823 26074 0.047619
1824 1873 0.998076
1824 21191 2.41072e-06
1824 49570 0.00192189
1825 211 0.428571
1825 751 0.571429
1826 1874 1
1827 1875 1
1828 1876 1
1829 1877 0.958333
1829 13944 0.0416667
1830 315 1
1831 1878 1
1832 1879 0.1
1832 7044 0.9
1833 1880 1
1834 1881 0.897948
1834 2927 0.10204
1834 25873 1.21745e-05
1835 7 0.5
1835 1882 0.5
1836 1883 1
1837 1884 1
1838 1885 1
1839 1886 1
1840 76 1
1841 1887 1
1842 1888 1
1843 1889 1
1844 7640 1
1845 1890 1
1846 1891 1
1847 1892 0.777786
1847 3006 0.111102
1847 14968 0.111112
1848 1893 0.971429
1848 14319 0.0285714
1849 1894 1
1850 68 0.0050505
1850 251 0.0606061
1850 1895 0.909091
1850 4351 0.00505048
1850 33020 0.00505051
1850 38498 0.0151515
1851 1896 1
1852 1897 1
1853 1898 1
1854 84 1
1855 1899 0.956522
1855 20679 0.0434783
1856 1901 0.955883
1856 16998 0.0294118
1856 55540 0.0147053
1857 1902 0.933333
1857 7326 0.0666667
1858 1903 1
1859 1904 0.952381
1859 19467 0.047619
1860 1905 1
1861 1906 1
1862 1907 1
1863 1908 1
1864 1909 1
1865 1910 0.947368
1865 7398 0.0526316
1866 1900 1
1867 1911 1
1868 1912 1
1869 1913 1
1870 141 0.199992
1870 489 0.200002
1870 1914 0.600006
1871 1915 1
1872 1916 0.875
1872 20430 0.125
1873 1917 1
1874 1918 0.625
1874 12691 0.375
1875 1919 0.942857
1875 17571 0.0571429
1876 1920 1
1876 12119 1.44992e-07
1877 1921 1
1878 1922 1
1879 1923 1
1880 1924 1
1881 1925 1
1882 1926 1
1883 973 0.611111
1883 1125 0.361111
1883 47055 0.0277778
1884 1927 1
1885 1928 1
1886 1929 0.939394
1886 5190 0.030303
1886 27868 0.030303
1887 1930 1
1888 1931 1
1889 1932 0.95
1889 27633 0.05
1890 1933 1
1891 1934 0.965517
1891 2457 0.0172414
1891 30302 0.0172414
1892 1935 0.5
1892 21796 0.5
1893 1936 1
1894 1938 1
1895 1939 1
1896 1940 0.8
1896 30881 0.2
1897 1941 0.4
1897 3871 0.6
1898 1942 1
1899 1943 0.875
1899 17965 0.125
1900 1944 0.981343
1900 14294 0.0149254
1900 23190 0.00373134
1901 1946 1
1902 1947 0.0555556
1902 12024 0.166667
1902 20045 0.166667
1902 37295 0.555556
1902 58153 0.0555556
1903 1948 0.714286
1903 19081 0.0714286
1903 36371 0.214286
1904 1949 0.875
1904 20071 0.125
1905 1950 1
1906 1951 1
1907 1952 1
1908 1953 1
1909 1870 0.857143
1909 1954 0.0204082
1909 2010 0.0408163
1909 6297 0.0204082
1909 14538 0.0612245
1910 1955 0.5
1910 39961 0.5
1911 1956 1
1912 3319 0.846164
1912 7128 0.0769129
1912 26344 0.0769233
1913 1984 0.5
1913 30776 0.5
1914 1957 1
1915 1958 1
1916 1959 1
1917 1960 1
1918 252 0.4
1918 1961 0.2
1918 19976 0.4
1919 1759 0.0188679
1919 1962 0.792454
1919 2992 0.0188679
1919 8020 0.0188678
1919 12119 0.0188676
1919 15179 0.0188679
1919 19418 0.0188677
1919 19942 0.0188676
1919 38252 0.0188679
1919 43563 0.0566038
1920 1963 0.5
1920 52242 0.5
1921 116 0.255556
1921 429 0.744444
1922 32 0.0769223
1922 1964 0.923078
1923 1965 0.166667
1923 3951 0.833333
1924 1967 0.978261
1924 29718 0.0217391
1925 1968 1
1926 1969 1
1927 1970 1
1928 1971 0.954545
1928 16045 0.0454545
1929 1972 1
1930 1973 1
1931 1974 1
1932 1975 1
1933 1976 1
1934 1977 1
1935 1978 0.955556
1935 3314 0.0222222
1935 14112 0.0222222
1936 1979 1
1937 1980 1
1938 1981 0.2
1938 11227 0.6
1938 29748 0.2
1939 1982 1
1940 1983 1
1941 252 1
1942 1985 1
1943 1986 0.0454545
1943 8763 0.954545
1944 1987 1
1945 1988 1
1946 1989 1
1947 1991 1
1948 1992 1
1949 1993 1
1950 1994 1
1951 1995 1
1952 1996 1
1953 1997 0.9
1953 16051 0.05
1953 18259 0.05
1954 1998 0.1
1954 3333 0.9
1955 1999 1
1956 2000 1
1957 1101 1
1958 2001 0.5
1958 2028 0.5
1959 2002 1
1960 2003 1
1961 2004 1
1962 2005 1
1963 2006 1
1964 2007 1
1965 2008 1
1966 2009 1
1967 2011 0.125
1967 6674 0.875
1968 2012 1
1969 2013 1
1970 2014 0.947369
1970 16944 0.0526315
1971 2015 0.5
1971 4225 0.25
1971 16925 0.25
1972 2016 1
1973 2017 1
1974 2018 1
1975 2019 1
1976 2020 1
1977 2021 1
1978 2022 1
1979 2023 1
1980 2024 1
1981 2025 1
1982 2026 1
1983 2027 0.5
1983 50279 0.5
1984 2029 1
1985 2030 0.333333
1985 18943 0.333333
1985 41195 0.333333
1986 2031 1
1987 2032 0.285714
1987 9979 0.142857
1987 45504 0.571429
1988 2033 1
1989 2034 1
1990 2035 0.2
1990 7147 0.8
1991 2036 1
1992 2037 0.666667
1992 8367 0.333333
1993 2038 1
1994 2039 1
1995 2040 1
1996 2041 1
1997 2042 1
1998 2043 1
1999 2044 1
2000 2045 1
2001 2046 0.5
2001 39334 0.5
2002 2047 1
2003 2048 1
2004 2049 0.333333
2004 55832 0.666667
2005 2050 1
2006 2051 1
2007 2049 1
2008 2052 1
2009 2053 1
2010 2054 1
2011 2055 0.625
2011 14180 0.25
2011 14216 0.125
2012 2056 1
2013 2057 0.921736
2013 15687 0.078264
2014 125 0.778377
2014 792 0.0486486
2014 1438 0.0162153
2014 17480 0.016216
2014 24387 0.0141934
2014 27753 0.0144152
2014 33760 0.0146473
2014 35814 0.0162059
2014 36654 0.0324324
2014 54832 0.0486486
2015 2058 1
2016 2059 0.888889
2016 14837 0.111111
2017 2060 1
2018 2061 1
2019 140 0.976523
2019 12026 0.0122065
2019 34127 0.00516735
2019 36854 0.00610327
2020 2062 0.5
2020 15582 0.375
2020 43440 0.125
2021 438 0.333333
2021 2063 0.333333
2021 2107 0.333333
2022 2047 0.6
2022 2053 0.2
2022 4088 0.2
2023 2064 1
2024 252 1
2025 204 1
2026 2065 1
2027 191 0.0357143
2027 5742 0.964286
2028 2066 0.979167
2028 18263 0.0104159
2028 20267 0.0104167
2029 2067 1
2030 2069 0.7
2030 17598 0.3
2031 2070 0.5
2031 4391 0.25
2031 50722 0.25
2032 2071 1
2033 2072 0.991597
2033 17303 0.00840335
2034 2073 0.833333
2034 20553 0.166667
2035 2074 1
2036 2075 1
2037 1413 0.328358
2037 2068 0.567164
2037 2091 0.0895522
2037 6937 0.0149254
2038 2076 1
2039 2077 1
2040 2078 1
2041 2081 0.952381
2041 31411 0.047619
2042 2082 1
2043 2083 1
2044 2084 0.908655
2044 5836 0.01621
2044 12634 0.00834834
2044 18705 0.00834831
2044 18711 0.0584384
2045 678 0.2
2045 2085 0.6
2045 2090 0.2
2046 2086 1
2047 2087 1
2048 34 0.499999
2048 23389 0.25
2048 37780 0.25
2049 93 1
2050 2091 1
2051 2093 0.222222
2051 22805 0.333333
2051 32624 0.444444
2052 2096 0.958333
2052 3836 0.0138889
2052 5404 0.0138889
2052 20947 0.0138888
2053 2097 1
2054 2098 0.909091
2054 2456 0.0909091
2055 925 0.8
2055 2099 0.1
2055 19009 0.1
2056 2100 1
2057 2101 0.857143
2057 2805 0.142857
2058 1517 0.5
2058 2102 0.5
2059 812 0.0133176
2059 2104 0.745788
2059 10772 0.0133176
2059 11710 0.0944056
2059 12265 0.0133176
2059 18664 0.0133176
2059 24306 0.0133129
2059 36273 0.0665882
2059 56707 0.0266353
2060 2105 0.142857
2060 9487 0.571429
2060 25650 0.142857
2060 29978 0.142857
2061 2106 0.5
2061 21010 0.5
2062 1065 0.56
2062 3151 0.16
2062 14215 0.28
2063 2108 0.5
2063 13338 0.5
2064 2110 1
2065 2111 0.333333
2065 20886 0.666667
2066 2112 1
2067 2113 1
2068 1807 0.166667
2068 18028 0.0833333
2068 20621 0.75
2069 1242 0.991667
2069 22323 0.00833333
2070 2114 0.0645198
2070 2126 0.1613
2070 4757 0.0322599
2070 6376 0.1613
2070 12272 0.258079
2070 13511 0.1613
2070 13980 0.0967797
2070 36770 0.0322599
2070 37358 0.0322025
2071 2115 1
2072 2116 1
2073 2117 1
2074 2118 0.8
2074 15046 0.0666666
2074 15468 0.133333
2075 2119 1
2076 2120 1
2077 2121 1
2078 2122 0.983051
2078 10595 0.0169491
2079 2123 1
2080 1170 0.978723
2080 5331 0.0212766
2081 570 1
2082 2124 0.714286
2082 13987 0.285714
2083 2125 0.25
2083 5251 0.5
2083 34587 0.25
2084 2127 0.5
2084 8636 0.5
2085 2136 0.592303
2085 2147 0.229314
2085 2232 0.00562778
2085 6934 0.148076
2085 15274 0.0246792
2086 2137 0.0930101
2086 2147 0.0329357
2086 2232 0.0359001
2086 2290 0.00106309
2086 6920 0.0465051
2086 9844 0.790586
2087 2128 1
2088 2129 0.5
2088 2148 0.5
2089 2130 1
2090 2133 0.058789
2090 2145 0.646681
2090 2177 0.117578
2090 2275 0.0293944
2090 37858 0.0299787
2090 37862 0.117578
2091 2131 0.25
2091 2150 0.5
2091 2174 0.25
2092 2132 1
2093 2291 0.8
2093 6960 0.2
2094 3418 0.909091
2094 17645 0.0909091
2095 1136 0.5
2095 7241 0.5
2096 2138 0.5
2096 2207 0.5
2097 2140 0.0624995
2097 2208 0.875
2097 32742 0.0625
2098 2141 0.498144
2098 2209 0.501856
2099 2142 0.176471
2099 5458 0.823529
2100 2144 1
2101 2146 0.5
2101 2210 0.5
2102 2149 1
2103 2151 0.5
2103 2166 0.5
2104 141 0.1
2104 2152 0.9
2105 2153 1
2106 2154 1
2107 2155 0.666667
2107 2180 0.333333
2108 2156 1
2109 2157 0.5
2109 9819 0.5
2110 2158 1
2111 2159 1
2112 2160 0.909091
2112 3373 0.0454545
2112 19408 0.0454545
2113 2161 1
2114 2162 1
2115 1293 0.5
2115 2163 0.333333
2115 29682 0.166667
2116 2167 1
2117 2168 1
2118 2169 1
2119 2171 1
2120 2173 1
2121 2175 0.125
2121 8134 0.75
2121 23955 0.125
2122 140 0.166668
2122 723 0.333335
2122 2654 0.166668
2122 6361 0.166661
2122 43546 0.166668
2123 2176 1
2124 2959 0.90085
2124 6881 0.0100532
2124 7363 1.68021e-06
2124 14876 0.0692961
2124 16041 0.00989936
2124 55835 0.00989945
2125 2178 1
2126 2179 1
2127 2181 1
2128 2182 1
2129 2183 0.5
2129 2204 0.5
2130 2184 1
2131 2185 0.714286
2131 13837 0.285714
2132 2186 1
2133 2187 0.25
2133 2612 0.75
2134 2188 0.5
2134 13569 0.5
2135 2189 0.999992
2135 16961 8.00217e-06
2136 2190 1
2137 2191 1
2138 2193 1
2139 2194 1
2140 2195 1
2141 2196 1
2142 2197 1
2143 2198 0.666667
2143 27124 0.333333
2144 2199 1
2145 2200 0.933333
2145 28231 0.0666667
2146 2201 1
2147 2202 0.5
2147 2213 0.5
2148 2203 1
2149 2205 1
2150 1124 0.999933
2150 15253 9.70198e-06
2150 15254 5.69353e-05
2151 2206 1
2152 2211 0.777778
2152 4507 0.111111
2152 5685 0.111111
2153 2212 0.0206446
2153 5526 0.908362
2153 6594 0.0206445
2153 6921 0.0206446
2153 13772 0.0206446
2153 29820 0.00905979
2154 2214 1
2155 2215 0.333333
2155 7287 0.666667
2156 2216 0.25
2156 9323 0.75
2157 2217 1
2158 2218 1
2159 2219 1
2160 2220 1
2161 2221 1
2162 2222 1
2163 2223 0.2
2163 13555 0.8
2164 2224 1
2165 2225 1
2166 214 1
2167 2227 0.974359
2167 50494 0.025641
2168 2228 1
2169 2229 1
2170 2230 1
2171 2231 0.5
2171 38565 0.5
2172 2233 1
2173 753 0.142857
2173 2234 0.857143
2174 2235 1
2175 2236 0.857143
2175 21503 0.142857
2176 2237 1
2177 2238 1
2178 2239 0.0645161
2178 2923 0.935484
2179 2240 1
2180 2242 0.0325203
2180 2424 0.95935
2180 23440 0.00813008
2181 2243 1
2182 2244 1
2183 2245 1
2184 2246 0.0740096
2184 3243 0.906618
2184 19311 2.97024e-05
2184 25754 0.0185024
2184 26683 0.000840332
2185 2247 1
2186 2248 1
2187 2249 1
2188 2250 0.9625
2188 25560 0.0125
2188 26112 0.0125
2188 35099 0.0125
2189 2251 0.285714
2189 6520 0.714286
2190 2252 1
2191 2253 0.964286
2191 12599 0.0357142
2192 2254 1
2193 2255 1
2194 2256 1
2195 2257 0.875
2195 2820 0.125
2196 2258 1
2197 2259 1
2198 2260 1
2199 2261 1
2200 2262 0.333333
2200 28097 0.666667
2201 2263 1
2202 2264 1
2203 2265 0.875
2203 21448 0.125
2204 2266 0.5
2204 2294 0.5
2205 2267 1
2206 2268 0.888889
2206 14870 0.111111
2207 2270 1
2208 2271 1
2209 2272 1
2210 2273 1
2211 2274 1
2212 2276 1
2213 2277 1
2214 2278 0.2
2214 2967 0.8
2215 2279 0.333333
2215 2908 0.5
2215 4992 0.166667
2216 2280 1
2217 2281 1
2218 2282 1
2219 2284 1
2220 2285 1
2221 2286 1
2222 2287 0.947369
2222 16519 0.0263158
2222 41556 0.0263156
2223 2288 1
2224 2289 1
2225 2290 0.0279365
2225 5453 0.972063
2226 2234 0.75
2226 10905 0.25
2227 2292 1
2228 2293 1
2229 2295 1
2230 2296 1
2231 2297 0.333333
2231 48876 0.666667
2232 2298 1
2233 2299 1
2234 2300 1
2235 2301 0.919355
2235 15561 0.0483871
2235 20542 0.016129
2235 25578 0.016129
2236 2302 1
2237 2303 1
2238 2304 1
2239 2305 1
2240 2306 0.666667
2240 30492 0.333333
2241 2307 1
2242 2308 0.333333
2242 2322 0.666667
2243 2323 0.25
2243 2386 0.6875
2243 16482 0.0625
2244 2309 0.722222
2244 13190 0.0555555
2244 14635 0.166667
2244 18169 0.0555555
2245 1431 0.25
2245 2310 0.25
2245 3229 0.5
2246 2330 1
2247 956 0.200313
2247 957 0.799687
2248 2311 1
2249 2312 0.999624
2249 12690 0.000375782
2250 2313 1
2251 2314 1
2252 2315 1
2253 2316 0.0121951
2253 2340 0.987805
2254 2317 1
2255 2318 1
2256 2319 0.0714286
2256 5426 0.785714
2256 24312 0.142857
2257 2320 1
2258 2321 1
2259 2324 1
2260 2325 0.997729
2260 26972 0.00227113
2261 2326 1
2262 2327 0.0666667
2262 2372 0.933333
2263 2328 1
2264 2329 1
2265 2331 0.0588235
2265 11552 0.941176
2266 2332 1
2267 2333 1
2268 32 2.00137e-06
2268 2334 0.913042
2268 15874 0.0652173
2268 19972 0.0217391
2269 2335 1
2270 2336 0.916667
2270 13824 0.0833333
2271 2337 0.929412
2271 2806 0.0352941
2271 4025 0.0352941
2272 2338 1
2273 2320 1.95519e-06
2273 8983 0.999998
2274 2320 0.499989
2274 2385 0.500011
2275 1162 0.875
2275 9845 0.125
2276 34 0.499471
2276 2339 0.500529
2277 2341 1
2278 2342 0.972973
2278 54657 0.027027
2279 2343 1
2280 2344 1
2281 2345 1
2282 2312 0.039477
2282 2346 0.93429
2282 13825 0.0130736
2282 31491 0.013159
2283 2347 1
2284 2348 1
2285 2349 1
2286 2350 1
2287 1393 0.333334
2287 2351 0.190477
2287 7283 0.0476191
2287 14055 0.285715
2287 30078 0.0476191
2287 46494 0.0476172
2287 51897 0.0476191
2288 2352 1
2289 2353 1
2290 2354 1
2291 2355 1
2292 2356 1
2293 2357 1
2294 2358 0.25
2294 13418 0.75
2295 2359 0.963493
2295 2680 0.0218976
2295 20265 1.12503e-05
2295 39181 0.0145984
2296 2360 0.9375
2296 28090 0.0625
2297 2361 0.25
2297 12218 0.75
2298 2363 1
2299 1269 0.0204082
2299 2364 0.979592
2300 2365 0.428571
2300 37499 0.571429
2301 2366 1
2302 2367 1
2303 2368 0.142857
2303 20988 0.857143
2304 2369 1
2305 2370 0.5
2305 56039 0.5
2306 2371 1
2307 2373 1
2308 2374 0.0769231
2308 10901 0.846154
2308 16754 0.0769231
2309 2375 1
2310 2376 1
2311 2377 0.888889
2311 28482 0.111111
2312 2378 1
2313 2379 1
2314 2303 1
2315 2380 1
2316 2381 1
2317 2382 1
2318 2383 1
2319 2387 1
2320 2388 0.5
2320 56771 0.5
2321 2389 1
2322 2390 1
2323 2391 1
2324 873 0.857143
2324 54044 0.142857
2325 2392 0.054054
2325 9764 0.891892
2325 19223 0.027027
2325 40485 0.027027
2326 2393 1
2327 2394 0.931035
2327 27367 0.0344828
2327 29192 0.0344827
2328 733 0.5
2328 2395 0.5
2329 2396 1
2330 2400 1
2331 955 0.4
2331 1762 0.6
2332 2397 1
2333 2398 1
2334 14 0.111111
2334 956 0.111111
2334 957 0.111111
2334 2399 0.555556
2334 12677 0.111111
2335 2401 0.962264
2335 17363 0.0377358
2336 2402 1
2337 32 0.0384615
2337 2403 0.884615
2337 16209 0.0769231
2338 2405 0.970588
2338 18797 0.0294117
2339 2406 1
2340 338 1
2341 2407 0.740308
2341 7264 0.255279
2341 53324 0.00441359
2342 2408 0.534884
2342 4092 0.0232558
2342 4098 0.418605
2342 7695 0.0232558
2343 2409 0.970588
2343 25608 0.0294118
2344 2410 0.4
2344 43021 0.4
2344 54679 0.2
2345 2411 1
2346 2412 0.5
2346 18508 0.5
2347 2413 1
2348 140 0.875
2348 751 0.0416667
2348 1221 0.0416666
2348 11583 0.0416666
2349 2414 1
2350 2415 1
2351 2416 1
2352 2417 1
2353 2418 1
2354 2419 1
2355 2420 1
2356 2421 0.909093
2356 7954 0.0454546
2356 39580 0.0454522
2357 2422 0.803051
2357 6929 0.100379
2357 18172 0.0965697
2358 2423 0.833333
2358 15229 0.166667
2359 77 0.805556
2359 16026 0.166667
2359 21292 0.0277775
2360 2425 1
2361 2426 0.75
2361 19122 0.25
2362 2427 1
2363 2428 1
2364 2429 1
2365 2430 0.5
2365 20721 0.0769231
2365 20724 0.115385
2365 23694 0.0384615
2365 33424 0.269231
2366 2431 1
2367 2432 1
2368 2433 1
2369 2434 0.5
2369 11655 0.5
2370 2435 1
2371 2436 1
2372 1040 1
2373 2437 0.954545
2373 24528 0.0454545
2374 2052 1
2375 2438 1
2376 2439 1
2377 2342 1
2378 2440 0.833333
2378 2712 0.166667
2379 2441 1
2380 2442 1
2381 2443 1
2382 2444 1
2383 2445 1
2384 2446 1
2385 2447 1
2386 2448 0.978261
2386 13928 0.0217391
2387 2052 1
2388 2449 1
2389 2451 0.928571
2389 16000 0.0714286
2390 2452 0.888889
2390 19353 0.111111
2391 747 0.0588235
2391 2453 0.911765
2391 31466 0.0294118
2392 2454 0.96
2392 33811 0.04
2393 2458 0.0390556
2393 2469 0.960944
2394 2458 0.102247
2394 52388 0.897753
2395 2459 1
2396 2460 1
2397 2461 0.5
2397 52838 0.5
2398 2462 0.130095
2398 6114 0.361376
2398 15382 0.014455
2398 17770 0.375831
2398 25556 0.00260149
2398 27156 0.0289101
2398 31795 0.0144551
2398 33914 0.0722753
2399 2463 0.1
2399 3330 0.9
2400 2523 0.888888
2400 14762 0.111112
2401 2464 1
2402 2465 1
2403 2466 0.5
2403 2496 0.5
2404 2467 1
2405 2468 1
2406 2470 1
2407 2471 0.962963
2407 31126 0.037037
2408 2472 1
2409 2473 0.866667
2409 26334 0.133333
2410 2474 1
2411 2475 1
2412 2476 0.333333
2412 25139 0.333333
2412 46728 0.333333
2413 2477 1
2414 2478 1
2415 2479 1
2416 2480 1
2417 2481 0.705882
2417 24907 0.294118
2418 2482 0.25
2418 20233 0.75
2419 2483 1
2420 2484 0.0909091
2420 29167 0.909091
2421 2485 1
2422 2486 1
2423 2488 1
2424 2489 1
2425 2490 1
2426 2491 1
2427 2492 1
2428 2493 0.0909091
2428 12141 0.727273
2428 20330 0.181818
2429 2541 0.833333
2429 6118 0.166667
2430 2494 1
2431 2497 1
2432 2498 1
2433 2499 1
2434 2500 1
2435 2501 0.363636
2435 50985 0.636364
2436 2502 0.925926
2436 13815 0.0301932
2436 16523 0.0301932
2436 28734 0.00362334
2436 38287 0.0100644
2437 2503 0.976676
2437 14660 0.0233236
2438 2504 0.931827
2438 9669 0.0653415
2438 25510 0.00283196
2439 2505 1
2440 2506 1
2441 2507 0.993848
2441 2509 0.00615171
2442 2508 0.501552
2442 2509 0.498448
2443 2510 0.1
2443 13912 0.1
2443 28228 0.0999997
2443 28235 0.7
2444 2511 1
2445 2512 1
2446 464 0.639095
2446 7192 0.0768624
2446 8709 0.142021
2446 15731 0.0710106
2446 20093 0.0710106
2447 2513 1
2448 2514 1
2449 2515 1
2450 2516 1
2451 2517 0.0909091
2451 4655 0.909091
2452 2518 1
2453 2519 0.947368
2453 28653 0.0526316
2454 2520 1
2455 2521 0.845836
2455 8867 0.0388224
2455 14630 0.115341
2456 2522 1
2457 2524 1
2458 2525 1
2459 2526 0.839944
2459 16916 0.160056
2460 2527 1
2461 2528 1
2462 2529 1
2463 2530 1
2464 2531 1
2465 2532 1
2466 2534 0.166667
2466 42902 0.833333
2467 2535 1
2468 2536 0.0769231
2468 7973 0.923077
2469 2537 1
2470 2538 1
2471 2539 0.989899
2471 18146 0.010101
2472 2540 0.5
2472 14795 0.5
2473 2542 1
2474 2543 1
2475 2549 0.944445
2475 30486 0.0555555
2476 2544 0.25
2476 2552 0.75
2477 2545 0.9
2477 19505 0.1
2478 2546 1
2479 2547 1
2480 2548 1
2481 2550 1
2482 2551 1
2483 2553 1
2484 2554 0.5
2484 8159 0.25
2484 15286 0.25
2485 1320 1
2486 2555 1
2487 2556 1
2488 2558 1
2489 2559 1
2490 712 1
2491 2560 0.333333
2491 36782 0.666667
2492 2561 0.829274
2492 5419 0.024384
2492 14777 0.146342
2493 2562 1
2494 2563 0.973684
2494 48323 0.0263158
2495 2564 0.875
2495 18341 0.125
2496 2565 0.941176
2496 20648 0.0588235
2497 2566 0.55
2497 8316 0.45
2498 2567 0.666667
2498 24628 0.333333
2499 2568 0.884058
2499 12569 0.0144928
2499 15663 0.101449
2500 1052 0.0384615
2500 2569 0.923077
2500 24961 0.0384615
2501 2570 1
2502 2571 1
2503 2572 0.125
2503 6721 0.125
2503 7032 0.125
2503 7034 0.125
2503 7128 0.125
2503 39628 0.375
2504 2573 0.75
2504 25782 0.125
2504 38880 0.125
2505 2574 1
2506 2575 1
2507 2577 1
2508 2578 1
2509 2579 1
2510 2580 1
2511 2581 0.981481
2511 15324 0.0185185
2512 2582 1
2513 2583 0.981818
2513 14423 0.0181818
2514 2584 1
2515 2585 0.96875
2515 45022 0.03125
2516 2586 1
2517 2587 1
2518 2588 1
2519 2589 0.9
2519 8722 0.0666667
2519 39362 0.0333333
2520 2590 1
2521 2591 1
2522 2592 1
2523 2593 1
2524 2594 0.930712
2524 5892 0.000346427
2524 8292 0.0689416
2525 2595 1
2526 2596 0.888889
2526 54457 0.111111
2527 2597 1
2528 2598 0.9
2528 14723 0.0999999
2529 2599 1
2530 2600 1
2531 2601 1
2532 2602 0.965075
2532 3045 3.0996e-07
2532 17495 0.0087734
2532 23492 4.91648e-07
2532 27182 0.00860426
2532 29712 0.0087734
2532 31135 0.00877338
2533 2603 0.9
2533 15399 0.1
2534 2604 1
2535 2605 1
2536 2606 1
2537 2607 1
2538 2608 0.933333
2538 26645 0.0666667
2539 2609 1
2540 2610 0.333333
2540 14035 0.333333
2540 31440 0.333333
2541 2611 1
2542 80 0.168673
2542 2821 0.783125
2542 3319 0.0120481
2542 15124 0.0120481
2542 17240 0.012048
2542 22150 0.012048
2542 33568 9.80919e-06
2543 2613 1
2544 2614 1
2545 2615 0.93617
2545 14944 0.0425532
2545 23743 0.0212766
2546 2616 1
2547 2617 1
2548 1033 1
2549 2618 1
2550 2620 1
2551 2621 0.889059
2551 24378 0.0740882
2551 29666 0.0368528
2552 2622 1
2553 2623 1
2554 2624 0.941176
2554 25751 0.0588235
2555 2625 1
2556 2626 1
2557 2627 1
2558 2628 1
2559 2629 0.415771
2559 2633 0.58208
2559 2744 0.00214887
2560 2630 0.930556
2560 6340 0.0138889
2560 14212 0.0138889
2560 16290 0.0138888
2560 31688 0.0138889
2560 33394 0.0138888
2561 2631 0.615385
2561 21768 0.384615
2562 2632 0.5
2562 2720 0.5
2563 2634 0.870214
2563 2721 0.0621579
2563 33371 0.0621581
2563 48012 0.00546995
2564 2635 1
2565 2636 0.978226
2565 12768 0.0217735
2566 2637 1
2567 2638 0.918919
2567 21362 0.027027
2567 30762 0.027027
2567 44242 0.027027
2568 2639 1
2569 2640 1
2570 2641 1
2571 2642 0.0769231
2571 2657 0.923077
2572 2643 0.173913
2572 16317 0.826087
2573 2644 1
2574 2645 1
2575 2646 1
2576 2647 1
2577 2648 0.166667
2577 20208 0.166667
2577 25161 0.166667
2577 40295 0.166667
2577 41390 0.166667
2577 43016 0.166667
2578 2649 1
2579 2650 1
2580 2651 1
2581 2652 1
2582 2654 0.714286
2582 25044 0.142857
2582 53835 0.142857
2583 2656 1
2584 2658 1
2585 2659 1
2586 2660 1
2587 2661 0.96875
2587 26841 0.03125
2588 2662 1
2589 2663 1
2590 2664 1
2591 2665 0.833333
2591 3792 0.142857
2591 29133 0.0238095
2592 2666 1
2593 2667 0.7
2593 32639 0.3
2594 2668 1
2595 2669 1
2596 2670 0.923077
2596 22437 0.0769231
2597 2671 1
2598 2672 1
2599 2673 1
2600 2674 1
2601 2675 0.833333
2601 16009 0.166667
2602 2676 1
2603 2677 1
2604 2678 0.934783
2604 15835 0.0652174
2605 2679 1
2606 2681 1
2607 2682 1
2608 2683 1
2609 2684 1
2610 2685 0.940741
2610 6313 1.55931e-07
2610 10322 0.00367477
2610 14620 0.0519096
2610 28762 0.00367476
2611 2686 1
2612 2687 1
2613 2688 0.959154
2613 14290 0.0204075
2613 22131 0.0204075
2613 25586 1.09032e-06
2613 48012 3.00343e-05
2614 2689 1
2615 2690 1
2616 2691 1
2617 2692 0.0689655
2617 2726 0.0344828
2617 8640 0.758621
2617 10979 0.0344828
2617 14389 0.0344828
2617 19589 0.0344828
2617 25619 0.0344828
2618 2693 0.745455
2618 7584 0.163636
2618 15941 0.0909091
2619 2694 1
2620 2695 0.973333
2620 4179 0.0133333
2620 15146 0.0133333
2621 2696 0.5
2621 4690 0.5
2622 2697 1
2623 428 1
2624 2698 0.971429
2624 25899 0.0285714
2625 2699 0.6
2625 5270 0.4
2626 2700 0.956522
2626 16826 0.0434783
2627 2701 1
2628 2702 1
2629 2703 1
2630 2704 0.333333
2630 7647 0.666667
2631 2705 0.8
2631 30831 0.2
2632 2706 0.75
2632 31428 0.25
2633 2707 1
2634 2708 1
2635 2709 1
2636 2710 0.2
2636 47893 0.2
2636 51087 0.2
2636 54599 0.4
2637 2711 1
2638 2713 0.0434783
2638 15895 0.956522
2639 2714 1
2640 2716 0.976744
2640 57220 0.0232558
2641 2717 1
2642 2718 1
2643 2719 1
2644 2722 1
2645 2723 1
2646 2724 0.2
2646 2725 0.8
2647 30 0.0344796
2647 2727 0.896555
2647 26862 0.0689657
2648 2728 0.913043
2648 13452 0.0869566
2649 2729 1
2650 2730 1
2651 2731 1
2652 2732 1
2653 2733 1
2654 2734 1
2655 2735 1
2656 689 0.9
2656 1072 0.1
2657 2736 1
2658 2737 0.909091
2658 31200 0.090909
2659 2738 0.833333
2659 31217 0.166667
2660 2739 0.5
2660 5390 0.5
2661 2740 0.947368
2661 25812 0.0526316
2662 2741 0.933333
2662 5998 0.0666667
2663 2742 0.25
2663 41051 0.75
2664 2743 1
2665 2744 1
2666 379 0.00464653
2666 2745 0.928997
2666 20982 0.0663569
2667 2746 0.571429
2667 6248 0.428571
2668 2747 0.571429
2668 7081 0.214286
2668 15596 0.0714286
2668 23654 0.0714286
2668 53983 0.0714286
2669 2748 1
2670 2749 1
2671 2750 1
2672 281 1
2673 2751 1
2674 2752 1
2675 2753 1
2676 2754 1
2677 2755 0.981818
2677 16883 0.0181818
2678 2756 1
2679 1566 0.2
2679 41920 0.8
2680 2757 0.304348
2680 11392 0.434783
2680 35614 0.217391
2680 58089 0.0434783
2681 2758 1
2682 2759 1
2683 2760 1
2684 2761 1
2685 2762 0.933333
2685 30442 0.0666667
2686 2763 1
2687 2682 0.125
2687 2764 0.875
2688 2765 1
2689 2766 1
2690 2767 0.762712
2690 14679 0.0169491
2690 20250 0.118644
2690 24174 0.0169492
2690 25713 0.0169491
2690 51822 0.0677966
2691 2768 1
2692 2769 1
2693 2770 1
2694 2771 1
2695 2772 1
2696 2773 1
2697 2775 1
2698 2776 1
2699 2777 1
2700 2779 1
2701 2780 1
2702 2781 1
2703 2782 1
2704 2783 1
2705 2784 1
2706 2785 1
2707 2786 1
2708 2787 1
2709 2788 0.25
2709 51835 0.75
2710 2789 1
2711 2790 0.947368
2711 19307 0.0526316
2712 2791 0.90625
2712 13765 0.09375
2713 2792 1
2714 2793 0.972793
2714 6447 0.000184633
2714 16508 6.43473e-07
2714 26133 0.027022
2715 2794 0.965517
2715 14738 0.0344827
2716 2795 1
2717 2796 1
2718 2797 0.809524
2718 4981 0.0476191
2718 10384 0.047619
2718 20272 0.0476191
2718 21591 0.047619
2719 2798 1
2720 2799 0.555556
2720 18207 0.444444
2721 2800 1
2722 2801 1
2723 2802 1
2724 635 0.0943396
2724 2803 0.886792
2724 15539 0.0188679
2725 2804 1
2726 2805 0.916667
2726 24259 0.0833333
2727 2806 1
2728 2807 0.916667
2728 29451 0.0833333
2729 2808 1
2730 230 0.0714286
2730 2809 0.214286
2730 7542 0.214286
2730 12037 0.428571
2730 13202 0.0714286
2731 2810 1
2732 2811 0.986842
2732 17744 0.0131578
2733 2812 1
2734 2813 0.964286
2734 14885 0.0357143
2735 2815 1
2736 739 0.875
2736 15250 0.125
2737 2816 1
2738 2817 0.8
2738 25642 0.08
2738 28984 0.12
2739 2818 1
2740 2819 0.666667
2740 44211 0.333333
2741 2820 0.937492
2741 15551 0.0624994
2741 22127 8.4488e-06
2742 2821 0.907689
2742 21347 0.0769251
2742 21590 0.015385
2742 37698 8.25891e-07
2743 2822 1
2744 2823 1
2745 368 0.0222218
2745 2824 0.933317
2745 3052 0.0222218
2745 18851 1.81053e-05
2745 24794 0.0222218
2746 2825 1
2747 2826 1
2748 2827 1
2749 2828 1
2750 2829 0.1
2750 13635 0.1
2750 39175 0.8
2751 2830 1
2752 2831 1
2753 2833 1
2754 4 0.497465
2754 30 0.00487489
2754 38 0.497465
2754 2885 0.000194112
2755 2834 1
2756 89 0.0100028
2756 1111 0.00500139
2756 2835 0.400112
2756 2954 0.00484508
2756 4146 0.00500139
2756 6145 0.535149
2756 12333 0.0150042
2756 14195 0.00488833
2756 15179 0.00500139
2756 19398 0.00499958
2756 20265 0.00499369
2756 47723 0.00500139
2757 2837 1
2758 2838 1
2759 2839 1
2760 2840 1
2761 2841 1
2762 2842 0.892857
2762 15375 0.0714286
2762 57904 0.0357143
2763 2843 1
2764 2844 1
2765 2845 0.957565
2765 6817 0.0416333
2765 10360 0.000801442
2766 2846 1
2767 2847 1
2768 2848 1
2769 2849 1
2770 2850 1
2771 2852 1
2772 34 0.496716
2772 373 0.503284
2773 1804 1
2774 32 0.5
2774 2853 0.5
2775 7 0.100011
2775 2855 0.899989
2776 2856 0.979167
2776 10427 0.0208326
2777 2857 1
2778 2858 0.468354
2778 8368 0.0253165
2778 14975 0.0379747
2778 20752 0.43038
2778 23919 0.0253165
2778 57066 0.0126582
2779 2859 1
2780 2860 1
2781 2861 0.727273
2781 20776 0.272727
2782 2862 1
2783 2863 1
2784 2864 1
2785 2865 1
2786 2866 0.772727
2786 6082 0.181818
2786 29053 0.0454545
2787 2867 1
2788 2868 1
2789 2869 1
2790 2870 1
2791 2871 1
2792 2872 1
2793 2873 1
2794 2874 1
2795 2875 1
2796 2876 0.833333
2796 19366 0.166667
2797 2877 1
2798 2014 0.16
2798 2878 0.2
2798 8826 0.0800001
2798 12333 0.440001
2798 14768 0.0399993
2798 22929 0.0399995
2798 31137 0.0399998
2799 2879 1
2800 2880 0.982247
2800 7326 0.00591715
2800 16542 0.0118343
2800 22062 1.16077e-06
2801 2881 0.578947
2801 9614 0.157895
2801 36194 0.157895
2801 57189 0.0526316
2801 58096 0.0526316
2802 211 0.993056
2802 25872 0.00694437
2803 2882 1
2804 2883 1
2805 2884 0.833333
2805 39446 0.166667
2806 2886 1
2807 2887 1
2808 2888 0.5
2808 2889 0.5
2809 2893 0.0242521
2809 5981 0.912796
2809 29119 0.0629515
2810 365 0.243028
2810 2893 0.0278875
2810 6803 0.121514
2810 50237 0.60757
2811 2894 0.2
2811 4396 0.6
2811 31396 0.2
2812 2890 1
2813 2891 1
2814 2892 0.6
2814 26274 0.4
2815 2895 1
2816 2896 1
2817 2897 0.909091
2817 24286 0.0909091
2818 2898 1
2819 2899 1
2820 2900 0.500004
2820 13410 0.249994
2820 56600 0.250002
2821 2901 1
2822 2902 1
2823 2903 0.666667
2823 15532 0.333333
2824 2904 1
2825 2905 1
2826 2906 1
2827 2907 1
2828 2909 1
2829 2910 1
2830 2911 1
2831 2912 0.913043
2831 13744 0.0869565
2832 2913 1
2833 2914 1
2834 2915 1
2835 2916 0.923077
2835 16257 0.076923
2836 2917 1
2837 2918 0.25
2837 49775 0.75
2838 2919 1
2839 2920 1
2840 2922 1
2841 2924 0.285714
2841 14064 0.142857
2841 21047 0.142857
2841 35052 0.428571
2842 2925 0.384615
2842 28664 0.0769231
2842 28665 0.538462
2843 2926 1
2844 2927 1
2845 2928 0.936508
2845 24930 0.0634921
2846 2929 1
2847 2930 1
2848 2931 1
2849 2932 1
2850 2933 1
2851 2334 0.75
2851 5418 0.25
2852 2934 0.909091
2852 29724 0.0909091
2853 2935 1
2854 2936 1
2855 2937 1
2856 1280 0.5
2856 2921 0.5
2857 2938 1
2858 2939 0.875
2858 28735 0.125
2859 2940 1
2860 2941 0.888889
2860 17341 0.111111
2861 2942 1
2862 2943 1
2863 2944 1
2864 2945 0.957983
2864 15543 0.0420168
2865 2946 1
2866 2947 1
2867 2948 1
2868 2949 1
2869 2950 1
2870 2951 1
2871 2952 1
2872 2953 1
2873 2954 1
2874 2955 0.874465
2874 15904 0.116595
2874 34127 0.00893975
2875 2956 1
2876 2957 1
2877 2958 1
2878 2960 0.999594
2878 12017 0.000406429
2879 2961 1
2880 2079 5.556e-07
2880 2962 0.913043
2880 28273 0.0869565
2881 2963 1
2882 2964 1
2883 568 0.857143
2883 1825 0.142857
2884 2965 1
2885 2966 0.375
2885 6507 0.0625
2885 22594 0.125
2885 26097 0.4375
2886 2967 1
2887 93 1
2888 2968 0.5
2888 14964 0.5
2889 70 0.00158881
2889 2969 0.537606
2889 10215 0.0384004
2889 22938 0.0768009
2889 26914 0.345604
2890 2970 1
2891 2971 1
2892 2972 1
2893 2973 0.5
2893 16225 0.166667
2893 24845 0.166667
2893 38997 0.166667
2894 2974 0.666667
2894 23323 0.166667
2894 31244 0.166667
2895 2975 1
2896 2976 1
2897 2977 1
2898 2978 0.666667
2898 34091 0.333333
2899 1517 1
2900 1196 0.333333
2900 2979 0.666667
2901 2980 1
2902 2981 1
2903 2982 0.916667
2903 14197 0.0833333
2904 2983 0.5
2904 20007 0.5
2905 2984 1
2906 2985 0.666667
2906 14883 0.333333
2907 2986 0.2
2907 12672 0.2
2907 14937 0.4
2907 50441 0.2
2908 2987 1
2909 2988 1
2910 31 0.5
2910 434 0.5
2911 2989 1
2912 2902 1
2913 2990 1
2914 2991 1
2915 435 0.25
2915 2992 0.25
2915 24326 0.5
2916 2993 1
2917 34 0.496117
2917 2995 0.503883
2918 2997 1
2919 2998 1
2920 2999 0.928571
2920 13967 0.0357143
2920 57506 0.0357143
2921 3000 1
2922 211 0.00591716
2922 3001 0.982249
2922 3308 0.0118343
2923 3003 1
2924 3004 1
2925 3005 0.0344827
2925 18305 0.0344828
2925 18330 0.931035
2926 573 0.8
2926 20122 0.2
2927 3007 1
2928 11 1
2929 3009 1
2930 3010 0.973684
2930 53043 0.0263158
2931 3011 1
2932 3012 1
2933 3013 0.5
2933 39065 0.5
2934 3014 1
2935 3015 1
2936 3016 1
2937 3017 1
2938 3018 1
2939 464 0.785425
2939 7192 0.00429194
2939 8709 0.193137
2939 14811 0.00858388
2939 15731 0.00429194
2939 20093 0.00426948
2940 3019 1
2941 3020 1
2942 3021 0.87037
2942 8091 0.111111
2942 28536 0.0185185
2943 3023 0.964286
2943 31563 0.0357143
2944 3024 0.865672
2944 17722 0.0298507
2944 17963 0.0895522
2944 25471 0.0149254
2945 3025 1
2946 3026 1
2947 3027 0.75
2947 13792 0.25
2948 3028 1
2949 3029 1
2950 3030 1
2951 3031 1
2952 3032 1
2953 3033 1
2954 3034 1
2955 3035 0.869565
2955 15684 0.130435
2956 3036 0.5
2956 23053 0.5
2957 2279 1
2958 3037 1
2959 3038 1
2960 3039 1
2961 3040 1
2962 3041 1
2963 3042 1
2964 3043 1
2965 3044 1
2966 3045 0.925928
2966 4201 0.0185186
2966 23836 0.0185186
2966 24737 0.0185186
2966 53717 0.0185165
2967 3046 1
2968 3047 1
2969 1665 0.933333
2969 1733 0.0666667
2970 3048 1
2971 3049 1
2972 3050 0.666667
2972 3578 0.333333
2973 3005 1
2974 3051 1
2975 3053 1
2976 1284 0.989796
2976 15559 0.0102041
2977 3054 0.600757
2977 29884 0.200251
2977 54877 0.198992
2978 3055 0.984127
2978 3063 0.015873
2979 3056 1
2980 3057 1
2981 3058 1
2982 3059 0.777679
2982 14710 0.111097
2982 14718 0.000127402
2982 14727 0.111097
2983 29 1
2984 3060 1
2985 3061 1
2986 3062 0.5
2986 27612 0.5
2987 80 0.266667
2987 1065 0.0666661
2987 2821 0.6
2987 18336 0.0666667
2988 3064 1
2989 3065 1
2990 3066 1
2991 3067 1
2992 3068 1
2993 3069 1
2994 3070 1
2995 3071 1
2996 3072 0.333333
2996 4494 0.333333
2996 16138 0.333333
2997 3073 1
2998 3074 1
2999 3075 1
3000 3076 0.806452
3000 19802 0.0645162
3000 25912 0.032258
3000 26754 0.0322578
3000 27112 0.0322581
3000 30816 0.0322575
3001 3077 0.875
3001 15437 0.114583
3001 22103 0.0104167
3002 3078 1
3003 3079 1
3004 3080 1
3005 3081 1
3006 3082 1
3007 3083 1
3008 1438 1
3009 2866 0.02
3009 3084 0.02
3009 5481 0.02
3009 6171 0.32
3009 11705 0.48
3009 16447 0.02
3009 33817 0.04
3009 36798 0.02
3009 44420 0.02
3009 55089 0.02
3009 56449 0.02
3010 68 0.0177618
3010 722 0.00444338
3010 3087 0.9731
3010 7128 0.000256491
3010 15776 0.00443861
3011 3088 1
3012 3089 1
3013 3090 1
3014 3091 0.75
3014 7019 0.0357143
3014 12764 0.178571
3014 41768 0.0357143
3015 3092 1
3016 3093 0.857143
3016 49587 0.142857
3017 3094 1
3018 3095 1
3019 3096 1
3020 3097 1
3021 1510 1
3022 3098 1
3023 3099 0.75
3023 19391 0.25
3024 3100 1
3025 3101 1
3026 3103 0.0344825
3026 3342 0.0172412
3026 3973 0.68965
3026 5254 0.0172411
3026 24156 0.241377
3026 28844 8.2211e-06
3027 3105 1
3028 3106 1
3029 3107 1
3030 2960 1
3031 3108 1
3032 3109 1
3033 3110 1
3034 3111 0.5
3034 49020 0.5
3035 3112 0.5
3035 5451 0.0833333
3035 18596 0.333333
3035 25101 0.0833333
3036 3113 1
3037 3114 1
3038 3115 1
3039 3116 0.25002
3039 9881 0.25002
3039 18346 0.24994
3039 44060 0.25002
3040 3117 0.894737
3040 22035 0.0526316
3040 27096 0.0526316
3041 2127 0.833333
3041 10667 0.0833333
3041 53041 0.0833333
3042 3119 0.2
3042 3130 0.8
3043 17152 0.970539
3043 24232 0.02941
3043 53380 5.08517e-05
3044 3118 0.499973
3044 6274 0.500027
3045 3120 1
3046 3118 1
3047 1709 0.0188679
3047 3123 0.981132
3048 3124 1
3049 3125 1
3050 3126 1
3051 3119 1
3052 3127 1
3053 3128 1
3054 3129 0.75
3054 55614 0.25
3055 3131 1
3056 3132 1
3057 3133 1
3058 3134 1
3059 3135 1
3060 3136 1
3061 3137 1
3062 3138 0.5
3062 3164 0.5
3063 3139 1
3064 3140 1
3065 3141 0.025641
3065 3236 0.923077
3065 6707 0.0512821
3066 3142 1
3067 3143 1
3068 3144 1
3069 3145 1
3070 3146 1
3071 3147 1
3072 3148 1
3073 3149 1
3074 3150 1
3075 3151 1
3076 3152 0.888889
3076 9798 0.0740741
3076 24962 0.037037
3077 3153 0.833333
3077 15269 0.166667
3078 3154 1
3079 1038 0.5
3079 1856 0.1
3079 9979 0.2
3079 39483 0.2
3080 3155 1
3081 3156 1
3082 3157 1
3083 3158 1
3084 3159 0.998391
3084 14204 0.00160885
3085 3160 0.125
3085 4448 0.125
3085 15718 0.125
3085 21588 0.125
3085 39464 0.375
3085 44335 0.125
3086 3161 0.933333
3086 27793 0.0666667
3087 3162 1
3088 3163 1
3089 3165 1
3090 3166 1
3091 3167 1
3092 3168 1
3093 3169 1
3094 3170 1
3095 3171 0.875
3095 24414 0.125
3096 3172 0.8
3096 23718 0.2
3097 3173 1
3098 3174 1
3099 3175 1
3100 210 0.307692
3100 3176 0.153846
3100 3680 0.538462
3101 3177 0.111111
3101 6212 0.888889
3102 3121 1
3103 3178 0.2
3103 4790 0.4
3103 13997 0.2
3103 22441 0.2
3104 3179 1
3105 3180 1
3106 3181 1
3107 3182 1
3108 3183 1
3109 3184 1
3110 3185 1
3111 3186 0.333333
3111 3408 0.666667
3112 3187 1
3113 3188 1
3114 3189 1
3115 3190 1
3116 3191 1
3117 3192 0.902439
3117 3246 0.0243902
3117 22785 0.0243902
3117 25727 0.0243902
3117 25740 0.0243902
3118 3193 1
3119 3194 1
3120 3195 0.973684
3120 25731 0.0263158
3121 125 0.916667
3121 36931 0.0833333
3122 3196 1
3123 210 0.1
3123 342 0.4
3123 3197 0.5
3124 3198 1
3125 3199 0.999871
3125 29666 0.000129084
3126 3200 1
3127 3201 0.9
3127 15272 0.1
3128 3202 1
3129 3203 1
3130 3204 1
3131 3205 1
3132 3206 1
3133 3207 0.985818
3133 31450 0.0141819
3134 3208 0.826087
3134 16553 0.173913
3135 1517 0.125
3135 3209 0.75
3135 6106 0.125
3136 3210 0.75
3136 24479 0.25
3137 1260 1
3138 3211 0.666667
3138 31540 0.333333
3139 3212 1
3140 3213 1
3141 3214 1
3142 2856 1
3143 3215 1
3144 3216 1
3145 3217 0.571429
3145 15446 0.428571
3146 3218 1
3147 3219 0.90625
3147 5222 0.09375
3148 3220 1
3149 3221 1
3150 3222 1
3151 3223 1
3152 3224 1
3153 3225 0.833333
3153 27546 0.111111
3153 30763 0.0555556
3154 3226 1
3155 3227 1
3156 3228 1
3157 3211 1
3158 3003 1
3159 434 1
3160 3230 1
3161 3231 1
3162 3232 1
3163 9 0.1
3163 34455 0.8
3163 45243 0.1
3164 3233 1
3165 3234 0.928572
3165 5826 0.0238095
3165 13782 0.0238095
3165 14766 0.0238095
3166 3235 1
3167 3237 0.8
3167 21734 0.2
3168 3238 1
3169 3239 0.9
3169 25003 0.1
3170 3240 1
3171 3241 1
3172 3242 1
3173 3244 0.939394
3173 26340 0.030303
3173 26343 0.030303
3174 3245 1
3175 3247 1
3176 3248 1
3177 3249 0.931035
3177 18929 0.0344827
3177 25905 0.0344828
3178 3250 1
3179 3251 1
3180 3252 0.8
3180 30823 0.2
3181 3253 1
3182 3254 1
3183 3255 1
3184 1602 0.0133333
3184 2821 0.0133333
3184 3256 0.546667
3184 12595 0.426667
3185 3257 0.5
3185 19932 0.5
3186 3258 1
3187 3259 1
3188 3260 0.923077
3188 5420 0.0384615
3188 23530 0.0384615
3189 3262 1
3190 3263 0.999807
3190 31138 0.000192496
3191 3264 0.8
3191 30448 0.2
3192 3265 1
3193 3266 1
3194 99 1
3195 3267 1
3196 3268 0.923077
3196 16564 0.0384615
3196 27675 0.0384615
3197 3269 1
3198 3270 1
3199 3271 1
3200 3272 1
3201 2568 1
3202 3273 1
3203 3274 0.916667
3203 22458 0.0833333
3204 3275 1
3205 3276 1
3206 3277 1
3207 3278 1
3208 3279 0.5
3208 3387 0.5
3209 3280 0.998428
3209 54877 0.00157154
3210 3281 1
3211 3282 1
3212 3283 0.888889
3212 26788 0.111111
3213 3284 1
3214 998 0.0144928
3214 3458 0.753623
3214 5262 0.0144928
3214 5416 0.202899
3214 10299 0.0144928
3215 3285 1
3216 3286 1
3217 3287 1
3218 3288 1
3219 3289 1
3220 3290 0.9375
3220 14503 0.0208333
3220 16455 0.0416667
3221 3291 0.5
3221 3309 0.5
3222 3310 0.913043
3222 14755 0.0869565
3223 3292 1
3224 3292 1
3225 825 1
3226 3293 1
3227 3294 0.821488
3227 23492 0.178512
3228 3296 1
3229 3297 1
3230 3298 1
3231 141 0.0323737
3231 3299 0.46713
3231 3947 0.400397
3231 7942 0.0333664
3231 20515 0.0667328
3232 3300 1
3233 3301 1
3234 3302 1
3235 3303 0.903226
3235 25001 0.0967742
3236 3304 1
3237 116 0.409091
3237 429 0.5
3237 15752 0.0454545
3237 52935 0.0454545
3238 32 0.5
3238 3305 0.5
3239 3306 1
3240 3307 0.999997
3240 50656 2.51317e-06
3241 3001 0.283333
3241 3308 0.583333
3241 4110 0.0166667
3241 5533 0.0666667
3241 12925 0.05
3242 3312 0.947368
3242 11991 0.0263158
3242 53754 0.0263158
3243 3313 1
3244 1978 0.432432
3244 3314 0.513514
3244 41705 0.027027
3244 47131 0.027027
3245 3315 0.333333
3245 4487 0.333333
3245 20040 0.333333
3246 3317 0.888889
3246 18273 7.96842e-06
3246 18274 0.111103
3247 3318 1
3248 936 1
3249 3320 1
3250 3321 0.888889
3250 14767 0.111111
3251 3322 1
3252 3323 1
3253 3324 0.875
3253 54955 0.125
3254 3325 1
3255 3326 0.928571
3255 18495 0.0714285
3256 3327 1
3257 3328 1
3258 3329 1
3259 3332 0.923077
3259 25607 0.0384615
3259 30532 0.0384615
3260 3334 0.5
3260 5398 0.5
3261 3335 1
3262 3336 1
3263 3337 1
3264 2118 1
3265 3338 0.976744
3265 19430 0.0232558
3266 3339 0.96875
3266 14084 0.03125
3267 3340 0.5
3267 33050 0.5
3268 3341 0.5
3268 34651 0.5
3269 3342 0.875
3269 40337 0.125
3270 3343 0.96
3270 14139 0.04
3271 3344 0.0909091
3271 4553 0.0909091
3271 7217 0.727273
3271 49930 0.0909091
3272 3345 1
3273 3346 0.666667
3273 13302 0.333333
3274 3347 1
3275 3348 1
3276 3349 0.999973
3276 27753 2.70132e-05
3277 3350 1
3278 3351 1
3279 3352 0.0416667
3279 7230 0.916667
3279 27437 0.0416667
3280 3353 0.957447
3280 25660 0.0425532
3281 140 0.216216
3281 2992 0.675676
3281 4275 0.027027
3281 9693 0.0270269
3281 9838 0.0270269
3281 12694 4.39857e-07
3281 17801 0.027027
3282 3354 1
3283 3355 1
3284 3356 1
3285 3357 1
3286 3358 1
3287 3359 1
3288 3360 0.125
3288 3364 0.875
3289 3361 0.891766
3289 30181 0.0891765
3289 30189 0.0190574
3290 3362 0.857143
3290 23427 0.142857
3291 3363 1
3292 3365 1
3293 3366 0.764681
3293 8552 0.156858
3293 18855 0.0196072
3293 21145 0.0392144
3293 44903 0.0196071
3293 53694 3.21389e-05
3294 2636 0.8125
3294 13164 0.1875
3295 3367 1
3296 1242 1
3297 3368 1
3298 3369 1
3299 3370 1
3300 3371 1
3301 3371 1
3302 3372 1
3303 3373 1
3304 3374 1
3305 1244 0.00817447
3305 3375 0.975486
3305 5523 0.00272482
3305 6092 0.00544965
3305 8062 0.00272482
3305 14387 0.00272482
3305 22145 0.00271496
3306 3376 1
3307 3378 0.947368
3307 26694 0.0526316
3308 3379 1
3309 3380 0.666667
3309 30426 0.333333
3310 3381 1
3311 3382 1
3312 3383 1
3313 3384 0.9375
3313 22723 0.0625
3314 2611 1
3315 3385 0.885714
3315 4909 0.0857143
3315 26261 0.0285714
3316 2856 0.0217391
3316 3367 0.97826
3316 18085 4.81552e-07
3317 3386 0.888871
3317 16127 0.111109
3317 40938 2.06611e-05
3318 3387 0.982759
3318 28687 0.0172414
3319 3388 1
3320 3389 1
3321 595 0.0416667
3321 3390 0.916667
3321 15756 0.0416666
3322 3391 1
3323 3392 1
3324 3393 1
3325 3394 1
3326 3395 0.777778
3326 30333 0.222222
3327 3396 1
3328 3397 1
3329 3398 1
3330 3399 1
3331 3400 1
3332 3401 1
3333 3402 1
3334 3403 0.988235
3334 15089 0.0117646
3335 3404 1
3336 3405 0.0769231
3336 35048 0.923077
3337 3407 0.595745
3337 4319 0.106383
3337 5991 0.276596
3337 23035 0.0212766
3338 3409 1
3339 3410 1
3340 3411 1
3341 3412 1
3342 3413 1
3343 3414 0.8
3343 34054 0.2
3344 3415 0.5
3344 4609 0.5
3345 3416 0.714286
3345 25966 0.142857
3345 30430 0.142857
3346 3417 1
3347 3419 1
3348 3420 1
3349 3421 1
3350 3422 0.904762
3350 14888 0.047619
3350 31057 0.047619
3351 3423 0.333333
3351 11597 0.333333
3351 42389 0.333333
3352 3424 1
3353 3425 1
3354 1060 1
3355 3426 1
3356 3427 1
3357 3428 1
3358 3429 1
3359 3430 0.913183
3359 24549 0.0868173
3360 3431 1
3361 3432 1
3362 3433 1
3363 3434 0.178571
3363 4487 0.714286
3363 18792 0.0357143
3363 34202 0.0714286
3364 3435 0.875
3364 21650 0.125
3365 3436 1
3366 3437 1
3367 3438 1
3368 3439 1
3369 3440 0.571429
3369 20245 0.285714
3369 24163 0.142857
3370 3441 0.6
3370 32862 0.4
3371 3442 1
3372 3443 1
3373 3444 1
3374 3445 1
3375 3446 0.5
3375 3465 0.5
3376 3447 1
3377 3448 1
3378 3449 0.941176
3378 23059 0.0588235
3379 3451 1
3380 3452 1
3381 3453 1
3382 3454 0.987805
3382 15912 0.00304878
3382 20032 0.00304871
3382 20933 0.00609757
3383 3455 1
3384 3456 0.856036
3384 3488 0.0053313
3384 8684 1.53552e-05
3384 16093 0.101297
3384 16141 0.0159943
3384 20951 0.0213257
3385 3457 0.5
3385 5412 0.5
3386 3459 0.769231
3386 22267 0.230769
3387 3460 1
3388 3461 0.75
3388 45714 0.25
3389 3462 1
3390 3463 1
3391 3464 0.863636
3391 15807 0.0909091
3391 21003 0.0454545
3392 3466 0.8
3392 21863 0.1
3392 41459 0.1
3393 3467 1
3394 3468 1
3395 3469 1
3396 3470 1
3397 3471 1
3398 140 0.5
3398 1036 0.5
3399 3472 1
3400 3473 1
3401 3474 1
3402 3475 1
3403 3446 0.642857
3403 3465 0.0714286
3403 45519 0.142857
3403 56116 0.142857
3404 3476 1
3405 3477 1
3406 3478 1
3407 3479 1
3408 3480 0.5
3408 41475 0.5
3409 3481 1
3410 3482 1
3411 509 1
3412 3483 1
3413 3484 0.833333
3413 24320 0.166667
3414 3485 1
3415 3486 1
3416 3487 0.714286
3416 29208 0.142857
3416 36241 0.142857
3417 3488 1
3418 3489 1
3419 3490 1
3420 3491 1
3421 3492 1
3422 3493 1
3423 3494 1
3424 3495 0.8
3424 30600 0.2
3425 3496 0.833333
3425 19926 0.166667
3426 68 0.0344828
3426 1260 0.0689655
3426 3497 0.810345
3426 27335 0.0172414
3426 37107 0.0689655
3427 3498 1
3428 3499 1
3429 3500 1
3430 3501 1
3431 3502 1
3432 3503 1
3433 3504 1
3434 3505 1
3435 3506 0.891892
3435 17673 0.0810811
3435 46173 0.027027
3436 3507 1
3437 3508 0.333333
3437 4389 0.666667
3438 3509 1
3439 3511 1
3440 3512 1
3441 3514 1
3442 3515 1
3443 3516 0.8125
3443 18958 0.0625
3443 21628 0.0625
3443 25373 0.0625
3444 1759 0.986957
3444 2092 0.00434782
3444 15179 0.00869565
3445 812 0.125
3445 3517 0.75
3445 35187 0.125
3446 3518 0.875
3446 15957 0.125
3447 3519 1
3448 3520 1
3449 3521 0.833333
3449 16900 0.166667
3450 3522 1
3451 3523 1
3452 3524 1
3453 3525 0.956522
3453 18818 0.0434783
3454 3526 1
3455 3527 1
3456 3528 1
3457 3529 1
3458 3530 1
3459 3531 0.75
3459 18715 0.25
3460 3532 1
3461 3533 1
3462 3534 1
3463 3535 0.722222
