0 27 0.00289503
0 156 0.938975
0 197 0.0578778
0 792 5.87854e-05
0 813 7.53319e-05
0 2542 0.000116634
0 13212 4.02802e-07
0 18877 3.92403e-07
2 2 1
3 3 1
4 4 0.994271
4 1820 0.00572216
4 2754 6.58826e-06
5 5 0.428571
5 7455 0.428571
5 44163 0.142857
6 6 1
7 7 0.980769
7 59 0.0192305
8 8 0.5
8 5051 0.5
9 371 0.0249185
9 3163 0.325027
9 14111 0.650054
10 9 1
11 10 0.333333
11 2928 0.333333
11 5337 0.333333
12 11 1
13 12 0.0525537
13 104 0.671386
13 11443 0.223795
13 22245 0.0522651
14 12 0.98789
14 2247 1.05793e-07
14 3724 0.00505702
14 16464 0.00705238
15 2 1
16 13 1
17 14 1
18 15 0.933333
18 3658 0.0666667
19 16 0.10176
19 111 0.20352
19 12387 0.69472
20 22 0.986111
20 13312 0.0138889
21 17 1
22 18 0.947179
22 13258 0.052821
23 19 0.20001
23 701 0.199961
23 5495 0.20001
23 7991 0.20001
23 14148 0.20001
24 20 0.000136941
24 104 0.49987
24 701 0.00012242
24 12691 0.49987
25 20 0.248586
25 288 0.152543
25 4182 0.564973
25 4332 0.00564973
25 7344 0.0169492
25 12180 0.0112995
26 156 0.998559
26 161 2.4448e-05
26 187 6.43239e-05
26 197 0.00119175
26 202 9.60204e-05
26 498 6.4004e-05
27 21 0.916667
27 40782 0.0833333
28 4 0.5
28 22 0.5
29 23 0.308562
29 294 0.000129693
29 405 0.205708
29 2983 0.154281
29 11231 9.2882e-07
29 12721 0.0248289
29 13840 0.0494968
29 14042 0.205708
29 26109 0.0512856
30 27 3.28042e-07
30 156 0.0208104
30 197 0.979189
30 2647 1.25265e-07
31 24 0.988768
31 296 0.00561791
31 1679 0.00186773
31 2910 5.16909e-07
31 4815 0.00187258
31 11723 0.00187267
32 25 0.993273
32 2337 0.000405583
32 3238 0.000166754
32 3475 0.000405583
32 3495 0.000811166
32 4766 8.695e-06
32 6101 0.000405583
32 7822 0.00283908
32 10039 0.000405583
32 14171 0.000405583
32 14310 0.000405583
32 19058 0.000405583
32 22245 2.67043e-05
32 49695 3.50306e-05
33 26 1
34 27 0.999013
34 809 0.000550409
34 2048 0.00022
34 15221 0.000106326
34 15331 0.000109986
35 28 1
36 29 1
37 30 0.846158
37 128 0.076919
37 14193 0.0769228
38 31 0.00325727
38 220 0.00325713
38 242 0.980444
38 294 1.08195e-05
38 2754 0.0065108
38 7923 0.00325729
38 12571 4.32989e-06
38 12999 8.75248e-07
38 16145 0.00325729
39 33 8.13863e-06
39 11533 0.200012
39 12904 0.200331
39 12999 0.200277
39 13039 0.00247942
39 13945 0.200045
39 13946 0.196848
40 32 0.200002
40 33 0.199994
40 34 0.200001
40 14961 0.400003
41 27 0.0524286
41 35 0.947571
42 36 1
43 670 1
44 106 1
45 37 0.861111
45 5354 0.111111
45 5942 0.0277778
46 38 0.995763
46 8953 0.00141242
46 24208 0.00141243
46 38663 0.00141243
47 39 0.995984
47 20261 0.00401604
48 107 1
49 20 0.4
49 38 0.4
49 12455 0.2
50 40 1
51 41 0.909092
51 48 0.090908
52 42 0.912281
52 10017 0.0877193
53 43 0.5
53 44 0.5
54 45 0.0952381
54 4541 0.904762
55 46 0.285714
55 3916 0.142857
55 8216 0.571429
56 34 0.5
56 47 0.5
57 48 1
58 49 0.0952375
58 4543 0.904763
59 50 1
60 51 0.25
60 9951 0.75
61 52 1
62 53 1
63 43 0.5
63 54 0.5
64 34 0.5
64 55 0.5
65 56 0.666667
65 61 0.333333
66 48 0.500008
66 57 0.499992
67 57 7.74406e-06
67 58 0.999992
68 717 0.0554782
68 972 0.0684047
68 1081 1.54729e-06
68 3010 0.00162633
68 3305 0.00146369
68 6021 0.0780183
68 12571 0.136718
68 12611 0.136809
68 12712 0.0684047
68 12737 0.000496976
68 12889 0.0119122
68 14214 0.0573689
68 14335 0.0412731
68 19140 0.136809
68 20449 0.205214
69 59 0.249904
69 12948 0.000382968
69 12949 0.749713
70 60 0.312739
70 1675 0.156369
70 1694 0.15637
70 2889 0.156273
70 9517 0.15637
70 14335 0.0618796
71 61 0.0625
71 788 0.0625
71 796 0.5
71 21607 0.375
72 48 0.0548095
72 476 0.0548089
72 717 0.324934
72 1115 0.109619
72 6021 0.000151257
72 7894 0.0172024
72 9373 0.0548089
72 12590 0.0548095
72 12611 0.274047
72 19020 0.0548095
73 57 0.2
73 3426 0.4
73 15749 0.4
74 23 0.111111
74 58 0.111111
74 118 0.111111
74 6773 0.111111
74 13898 0.111111
74 13912 0.111111
74 19845 0.111111
74 20128 0.111111
74 20829 0.111111
75 53 0.333333
75 48011 0.333333
75 53624 0.333333
76 60 0.142856
76 1840 0.857144
77 2359 1
78 62 1
79 63 0.494157
79 4817 0.494157
79 13110 0.011686
80 64 0.00847436
80 570 0.576267
80 1059 0.00847452
80 2542 0.118643
80 2987 0.0338981
80 3398 7.27947e-06
80 12664 0.00847412
80 12708 0.016949
80 12739 0.00847439
80 13106 0.211863
80 21287 0.00847452
81 65 0.863636
81 1149 0.136364
82 32 0.5
82 66 0.5
83 67 0.04
83 1805 0.84
83 12428 0.08
83 12430 0.04
84 68 0.000229741
84 1854 0.99977
85 7 0.0608307
85 27 0.0621341
85 68 0.062551
85 1798 0.814484
86 69 0.00803213
86 3477 0.931727
86 5623 0.0562249
86 15689 0.00401606
87 70 1
88 71 1
89 72 0.173032
89 89 0.307871
89 2756 0.346065
89 5088 0.173032
90 12755 0.00173319
90 13019 0.666942
90 13100 0.331297
90 13115 2.77085e-05
91 73 1
92 74 1
93 75 0.977654
93 930 0.00558659
93 2887 0.00558659
93 29401 0.0111732
94 76 1
95 77 0.625
95 7006 0.325
95 13337 0.05
96 78 0.333333
96 79 0.333333
96 1065 0.333334
97 80 0.866667
97 12228 0.133333
98 81 1
99 82 0.000133793
99 3194 0.60022
99 12745 0.200073
99 13111 0.199574
100 82 1
101 83 1
102 84 1
103 85 1
104 86 1
105 87 0.0648506
105 371 0.0289467
105 751 0.904496
105 1190 0.000853298
105 15589 0.000853298
106 88 0.111111
106 333 0.222222
106 1246 0.222222
106 12563 0.111111
106 12746 0.222222
106 14031 0.111111
107 89 0.0993953
107 12722 0.900605
108 2 0.333231
108 8706 0.333385
108 12789 0.333384
109 90 0.333333
109 7366 0.333333
109 23588 0.333333
110 91 1
111 92 0.5
111 12576 0.5
112 93 1
113 94 0.25
113 50514 0.75
114 95 0.25
114 28741 0.25
114 45772 0.5
115 96 1
116 97 0.026455
116 406 0.00529101
116 417 0.73545
116 1408 0.010582
116 1921 0.121693
116 3237 0.047619
116 4184 0.010582
116 4477 0.015873
116 18047 0.00529101
116 25642 0.021164
117 98 0.0833333
117 562 0.916667
118 99 0.6
118 563 0.1
118 8460 0.2
118 25065 0.1
119 100 0.125
119 5141 0.75
119 13384 0.0625
119 16740 0.0625
120 101 0.875
120 53111 0.125
121 102 1
122 103 1
123 5229 0.5
123 11443 0.142857
123 12319 0.0714286
123 12938 0.142857
123 13823 0.0714286
123 19479 0.0714285
124 105 1
125 108 0.157143
125 2014 0.685714
125 3121 0.157143
126 109 1
127 110 0.857143
127 13083 0.142857
128 112 1
129 2 1
130 7 0.111111
130 27 0.111111
130 48 0.111111
130 50 0.111111
130 113 0.111111
130 114 0.111111
130 115 0.111111
130 116 0.111111
130 117 0.111111
131 113 1
132 8016 0.857143
132 43747 0.142857
133 119 0.420219
133 5390 0.420194
133 7104 0.159588
134 120 1
135 121 0.918367
135 3725 0.0612245
135 20053 0.0204082
136 122 0.500002
136 123 0.499998
137 124 1
138 125 1
139 126 0.0256409
139 741 0.948718
139 22856 0.025641
140 141 0.0875832
140 2019 0.609274
140 2122 3.39734e-05
140 2348 0.0799673
140 3281 0.0267578
140 3398 0.00380469
140 3731 0.0609274
140 7104 0.112793
140 7699 0.00380789
140 11044 1.79088e-07
140 12787 0.0038079
140 13121 0.00379562
140 20225 0.00363903
140 36556 0.00380796
141 115 0.982568
141 2104 0.00198064
141 5495 0.00990473
141 6366 0.00198095
141 7813 0.00198095
141 20229 0.00158507
142 127 1
143 129 0.025
143 1704 0.95
143 4572 0.025
144 134 0.249975
144 135 0.250007
144 144 0.500018
145 130 1
146 131 1
147 132 1
148 133 0.25
148 5697 0.5
148 51460 0.25
149 27 0.111105
149 8051 0.888895
150 18071 0.5
150 50021 0.5
151 136 0.0243902
151 1327 0.902439
151 5238 0.0487805
151 14027 0.0243901
152 137 1
153 138 1
154 139 0.5
154 771 0.5
155 140 1
156 142 1
157 44 0.5
157 143 0.5
158 145 1
159 27 0.119002
159 146 0.880998
160 147 1
161 148 1
162 24 0.111111
162 115 0.111111
162 149 0.777778
163 150 1
164 151 0.0566038
164 4827 0.886792
164 11907 0.0566038
165 152 0.659519
165 510 0.022742
165 1297 0.303227
165 3724 0.00693075
165 4388 0.00758068
166 153 1
167 154 1
168 155 1
169 150 0.5
169 151 0.5
170 157 1
171 158 0.909091
171 278 0.0909091
172 159 1
173 160 1
174 161 1
175 162 1
176 163 1
177 164 1
178 165 1
179 166 1
180 167 0.857143
180 271 0.0714286
180 14856 0.0714286
181 168 1
182 169 1
183 170 0.488372
183 4930 0.511628
184 171 0.5
184 50772 0.5
185 172 1
186 173 1
187 24 0.00511899
187 174 0.585224
187 813 0.175567
187 12327 0.23409
188 175 0.25
188 285 0.75
189 176 0.894737
189 14917 0.0526316
189 18326 0.0526316
190 177 1
191 178 0.972974
191 2027 0.002079
191 10204 0.0228679
191 40377 0.002079
192 179 0.996536
192 878 0.00115473
192 35951 0.00115473
192 41278 0.00115473
193 180 0.666667
193 14857 0.333333
194 181 0.5
194 55202 0.5
195 182 1
196 183 1
197 184 1
198 185 1
199 186 1
200 156 0.00482297
200 187 0.995177
201 188 1
202 189 1
203 190 1
204 191 0.651163
204 2025 0.27907
204 36301 0.0232558
204 38340 0.0465116
205 192 0.984375
205 8257 0.015625
206 193 1
207 194 0.75
207 37320 0.25
208 195 0.951219
208 19282 0.0487805
209 196 1
210 198 0.864198
210 601 0.0699589
210 3100 0.0164609
210 3123 0.00411523
210 9736 0.0123457
210 10586 0.0288066
210 44334 0.00411523
211 199 0.546742
211 713 0.00283283
211 744 0.00283286
211 1825 0.00849858
211 2802 0.405099
211 2922 0.00283286
211 4416 0.01983
211 7699 0.00566572
211 15038 0.00283286
211 16489 0.00283286
212 200 1
213 201 1
214 87 0.00073551
214 156 0.00723036
214 202 0.989092
214 6367 0.00073551
214 15220 0.00220653
215 203 1
216 204 1
217 205 1
218 206 0.882353
218 9970 0.0588235
218 28121 0.0588235
219 207 1
220 208 1
221 209 1
222 210 1
223 211 0.833333
223 42766 0.166667
224 212 0.999992
224 14673 7.69561e-06
225 24 0.0215827
225 213 0.971223
225 1613 0.00719424
226 214 1
227 215 1
228 216 0.156863
228 5815 0.843137
229 217 1
230 218 0.227273
230 574 0.666667
230 2730 0.0151515
230 3948 0.0151515
230 4141 0.0757576
231 219 1
232 220 0.8
232 242 0.2
233 221 0.333333
233 17307 0.666667
234 222 1
235 223 1
236 224 1
237 225 1
238 226 1
239 227 0.975
239 32001 0.00833333
239 33833 0.0166667
240 228 1
241 229 1
242 230 0.0285714
242 278 0.971429
243 231 1
244 232 1
245 233 1
246 234 0.594595
246 1371 0.00900901
246 3901 0.036036
246 8981 0.036036
246 15491 0.0900901
246 25195 0.225225
246 41359 0.00900895
247 235 1
248 236 0.9
248 1105 0.0999999
249 237 1
250 238 1
251 239 0.900165
251 1850 0.0981998
251 20229 0.00163538
252 240 0.00584795
252 1677 0.19883
252 1941 0.695906
252 2024 0.0350877
252 5210 0.0175439
252 11461 0.0175439
252 11690 0.0292398
253 241 1
254 243 0.977273
254 4904 0.0227271
255 244 0.0714286
255 4356 0.857143
255 18974 0.0714286
256 245 1
257 131 1
258 246 0.926829
258 5017 0.0731707
259 136 0.145251
259 247 0.184358
259 547 0.409683
259 1165 0.00558659
259 1536 0.251397
259 12043 0.0018622
259 30758 0.0018622
260 126 0.99569
260 1246 0.00215517
260 7145 0.00215517
261 248 1
262 249 0.0909091
262 4238 0.818182
262 40575 0.0909091
263 250 1
264 251 1
265 252 1
266 253 1
267 254 0.0111111
267 4254 0.0111111
267 5060 0.9
267 15717 0.0333333
267 30379 0.0444444
268 255 1
269 256 1.08323e-06
269 13030 0.636363
269 22356 0.181818
269 45998 0.181818
270 256 1
271 257 0.471698
271 6572 0.207547
271 13945 0.264151
271 34164 0.0377358
271 47656 0.0188679
272 242 0.998217
272 14712 0.00178253
273 258 1
274 259 1
275 260 0.964286
275 35250 0.0357143
276 261 1
277 262 0.5
277 47232 0.5
278 263 0.933333
278 10231 0.0666667
279 264 1
280 265 0.333333
280 8795 0.333333
280 15844 0.333333
281 27 0.00917415
281 266 0.137613
281 2672 0.0642192
281 6648 0.623844
281 20241 0.16515
282 267 1
283 268 1
284 269 1
285 270 0.5
285 40407 0.5
286 272 0.00211864
286 361 0.955508
286 9903 0.0338983
286 11266 0.00847458
287 273 0.689829
287 12775 0.310171
288 274 1
289 275 0.999855
289 12652 0.000143901
289 12653 1.04573e-06
290 276 1
291 277 1
292 279 1
293 280 1
294 281 1
295 282 1
296 266 0.247059
296 8908 0.258824
296 8923 0.0352941
296 10565 0.0117647
296 20241 0.447059
297 283 0.567164
297 4087 0.19403
297 11423 0.0597015
297 19874 0.179104
298 284 0.08
298 5221 0.84
298 33306 0.04
298 46153 0.04
299 286 1
300 287 1
301 289 1
302 290 1
303 291 0.928571
303 52363 0.0714286
304 292 0.944444
304 53769 0.0555556
305 293 1
306 294 1
307 295 1
308 24 0.106931
308 296 0.83763
308 919 0.0554387
309 297 1
310 298 1
311 299 1
312 300 1
313 27 0.333174
313 301 0.333413
313 40882 0.333413
314 302 1
315 303 0.108541
315 615 0.859431
315 1830 0.0284698
315 13315 0.00355872
316 304 0.940711
316 10424 0.0474308
316 11826 0.0118577
317 305 0.75
317 16304 0.0833332
317 53438 0.166667
318 306 1
319 307 1
320 308 1
321 309 1
322 310 1
323 88 1
324 311 1
325 247 0.4544
325 547 0.0608
325 877 0.4464
325 1165 0.032
325 1536 0.0016
325 1808 0.00319998
325 7581 0.0016
326 312 0.979505
326 9754 0.0107964
326 11922 0.00969807
327 313 1
328 314 1
329 315 1
330 27 1.87636e-05
330 316 0.999981
331 317 1
332 318 1
333 319 0.988304
333 25168 0.00584793
333 35691 0.00584795
334 320 1
335 321 1
336 322 1
337 323 1
338 324 0.724138
338 2340 0.275862
339 325 1
340 326 1
341 327 1
342 12 0.0937741
342 328 0.609532
342 2247 0.132589
342 3123 0.0937741
342 10629 0.0703306
343 329 0.333333
343 14410 0.666667
344 330 0.25
344 19571 0.75
345 331 0.973684
345 30234 0.0263157
346 332 1
347 333 0.976191
347 12498 0.0119047
347 12563 0.0119048
348 334 0.75
348 26226 0.125
348 47109 0.125
349 335 0.869565
349 11359 0.130435
350 336 0.954545
350 15080 0.0454545
351 337 1
352 338 1
353 339 0.866667
353 6925 0.0111111
353 10471 0.0111111
353 13480 0.0111111
353 17726 0.1
354 340 1
355 341 1
356 342 1
357 343 1
358 344 0.952381
358 55016 0.047619
359 345 0.0833333
359 346 0.0833333
359 434 0.833333
360 347 1
361 348 1
362 349 1
363 350 1
364 324 1
365 351 0.9952
365 2810 0.0032
365 24844 0.0016
366 25 1
367 352 1
368 345 0.0227274
368 353 0.954552
368 2745 0.0227204
369 354 0.0555556
369 1087 0.944444
370 355 1
371 356 1
372 357 1
373 358 0.927273
373 2772 0.0181817
373 10568 0.0545455
374 359 1
375 360 0.985083
375 4970 0.00746275
375 12732 0.0074547
376 362 1
377 363 1
378 364 1
379 27 1.07013e-07
379 345 0.0284091
379 365 0.971591
380 366 0.925926
380 437 0.037037
380 14240 0.037037
381 367 0.948529
381 11236 0.0514706
382 368 0.47561
382 1506 0.512195
382 9895 0.0121951
383 369 0.5
383 370 0.5
384 87 0.0104348
384 371 0.966956
384 751 0.0104348
384 1190 0.00869565
384 5565 0.00173913
384 22605 0.00173913
385 372 1
386 373 1
387 374 1
388 31 0.037037
388 242 0.00740741
388 375 0.911111
388 7923 0.0444444
389 376 0.0131579
389 382 0.960526
389 671 0.0263158
390 377 0.5
390 378 0.5
391 379 1
392 380 0.75
392 6411 0.111111
392 10718 0.138889
393 381 1
394 383 1
395 384 1
396 385 1
397 386 1
398 387 0.156863
398 674 0.0588235
398 10717 0.784314
399 388 0.75
399 18558 0.25
400 389 1
401 390 1
402 391 1
403 121 0.771429
403 392 0.0714286
403 3725 0.0714286
403 6435 0.0142857
403 8073 0.0142857
403 11273 0.0428571
403 24379 0.0142857
404 393 0.375
404 544 0.5
404 11101 0.125
405 394 0.925
405 10239 0.05
405 51826 0.025
406 395 0.315789
406 675 0.684211
407 396 0.333333
407 9545 0.666667
408 397 1
409 398 1
410 346 0.941176
410 18473 0.0588235
411 399 1
412 400 1
413 401 0.659764
413 603 0.329882
413 2343 0.0103534
414 402 1
415 403 0.966618
415 597 0.0333825
416 404 1
417 405 0.965217
417 4959 0.00869562
417 8369 0.00869565
417 12646 0.0173913
418 339 0.636364
418 4605 0.272727
418 10471 0.0909091
419 407 1
420 408 1
421 409 1
422 410 0.541667
422 635 0.458333
423 411 1
424 412 0.00578035
424 595 0.82659
424 8057 0.127168
424 9888 0.0404624
425 413 1
426 414 1
427 415 0.954545
427 9814 0.0454545
428 416 0.805195
428 2623 0.116883
428 4744 0.012987
428 10837 0.0519481
428 10888 0.012987
429 97 0.0592086
429 417 0.0118417
429 813 0.0118417
429 1921 0.786834
429 3237 0.118432
429 18047 0.0118417
430 87 0.323308
430 751 0.661654
430 1190 0.0150376
431 418 1
432 419 1
433 420 1
434 421 0.0180181
434 647 0.882885
434 2910 0.00900654
434 3159 0.0450452
434 3747 0.0360361
434 6660 0.00900903
435 422 0.976923
435 11798 0.0230769
436 423 1
437 424 0.930131
437 1203 0.0436681
437 4416 0.0218341
437 7699 0.00436681
438 425 0.971429
438 35360 0.0285714
439 426 1
440 427 1
441 428 0.985632
441 1613 0.0114942
441 18478 0.00287356
442 425 0.0140912
442 429 0.704221
442 4375 0.0140839
442 5449 0.0281688
442 9327 0.0140844
442 10513 0.225351
443 430 1
444 431 1
445 432 1
446 433 0.0909091
446 5961 0.909091
447 435 0.894737
447 10220 0.0526316
447 29555 0.0526316
448 436 1
449 437 1
450 438 1
451 439 1
452 440 0.947368
452 32130 0.0526316
453 441 1
454 442 1
455 443 0.666667
455 29811 0.333333
456 444 1
457 510 1
458 445 1
459 446 0.5
459 668 0.5
460 158 0.0789474
460 447 0.0263158
460 1593 0.894737
461 448 1
462 449 1
463 450 0.944444
463 38888 0.0555556
464 451 0.0102564
464 2446 0.0461538
464 2939 0.938462
464 20453 0.00512821
465 452 1
466 453 0.75
466 12167 0.25
467 454 1
468 455 1
469 456 1
470 457 1
471 128 1
472 458 1
473 459 0.347826
473 1030 0.652174
474 460 1
475 461 1
476 462 1
477 463 1
478 464 1
479 465 1
480 123 0.00938967
480 242 0.00469484
480 466 0.530516
480 4044 0.455399
481 427 1
482 467 0.75
482 705 0.0833333
482 3521 0.0833333
482 25173 0.0833333
483 178 0.0454545
483 4075 0.863636
483 4101 0.0454545
483 18482 0.0454545
484 468 1
485 469 0.5
485 50369 0.5
486 470 1
487 27 0.332946
487 357 0.333527
487 38333 0.333527
488 471 0.962264
488 12808 0.0377358
489 472 0.91946
489 1870 0.00671136
489 4564 0.0604055
489 4628 0.00671139
489 25911 0.00671139
490 473 1
491 474 0.181818
491 9815 0.818182
492 475 1
493 476 0.981651
493 4617 0.00458716
493 12611 0.00458716
493 17673 0.00458716
493 20729 0.00458716
494 477 1
495 478 1
496 479 1
497 480 1
498 481 0.837607
498 19063 0.162393
499 482 1
500 483 1
501 484 1
502 485 1
503 486 1
504 487 1
505 488 1
506 489 1
507 490 0.986577
507 10730 0.00671141
507 26172 0.00671141
508 491 1
509 492 0.8
509 3411 0.0666667
509 11859 0.133333
510 493 1
511 494 0.99435
511 13259 0.00282486
511 18104 0.00282486
512 495 0.350001
512 1086 0.649999
513 496 1
514 497 1
515 156 0.00717242
515 498 0.974212
515 1281 0.0186155
516 499 1
517 500 1
518 501 0.5
518 4878 0.5
519 502 1
520 503 1
521 504 0.053719
521 1712 0.942149
521 17080 0.00413223
522 505 1
523 322 5.00046e-07
523 345 0.99852
523 365 0.00147274
523 1184 6.62751e-06
524 506 0.5
524 24156 0.5
525 507 1
526 508 1
527 509 0.95
527 9690 0.05
528 511 1
529 512 1
530 513 0.363636
530 707 0.0909091
530 4162 0.545455
531 514 1
532 515 1
533 516 1
534 517 1
535 518 1
536 519 1
537 520 1
538 521 1
539 522 1
540 523 1
541 524 0.5
541 525 0.5
542 526 0.25
542 19993 0.75
543 527 1
544 528 1
545 330 0.987578
545 8667 0.0124224
546 323 1
547 529 1
548 46 1
549 530 1
550 218 0.781817
550 1182 0.090909
550 12664 8.63221e-07
550 13631 0.127273
551 531 1
552 532 1
553 533 1
554 534 1
555 535 1
556 536 1
557 537 1
558 538 0.998261
558 1104 0.000869565
558 10891 0.000869565
559 539 1
560 540 0.75
560 820 0.25
561 541 0.222222
561 9199 0.777778
562 542 1
563 543 1
564 545 1
565 415 0.333333
565 546 0.333333
565 669 0.333333
566 548 1
567 549 1
568 550 0.986842
568 2883 0.0131579
569 42 0.937008
569 10017 0.0472441
569 11209 0.00787402
569 19246 0.00787402
570 551 0.5
570 2081 0.5
571 552 1
572 553 1
573 4 0.0204082
573 554 0.918367
573 2926 0.0612245
574 555 0.720183
574 4374 0.252294
574 5451 0.00458716
574 11114 0.0229358
575 556 0.894737
575 19401 0.105263
576 557 1
577 558 1
578 559 0.866667
578 27233 0.133333
579 560 1
580 561 0.777778
580 8875 0.0222222
580 12932 0.2
581 564 0.995444
581 34237 0.00455581
582 179 0.650406
582 878 0.268293
582 5348 0.0813008
583 565 1
584 566 0.714286
584 13134 0.285714
585 567 1
586 568 0.25
586 28948 0.5
586 44948 0.25
587 569 0.515837
587 3991 0.484163
588 570 1
589 571 1
590 572 1
591 573 0.827586
591 12541 0.0344828
591 34765 0.137931
592 514 1
593 574 0.968254
593 11233 0.031746
594 575 1
595 576 0.8
595 3321 0.2
596 577 1
597 578 0.982143
597 9555 0.0178571
598 579 1
599 580 1
600 581 1
601 582 1
602 583 1
603 584 1
604 72 0.0298507
604 585 0.955224
604 12253 0.0149254
605 586 0.978261
605 14241 0.0217391
606 587 1
607 588 0.5
607 19279 0.5
608 589 1
609 590 0.986842
609 19005 0.0131579
610 591 1
611 592 1
612 412 0.0526316
612 593 0.947368
613 594 1
614 596 1
615 566 0.537098
615 597 0.462902
616 598 1
617 599 1
618 550 0.520468
618 600 0.479532
619 602 1
620 603 0.965517
620 53789 0.0344827
621 604 0.996936
621 35871 2.47117e-05
621 50433 0.00303944
622 605 1
623 606 1
624 607 1
625 608 1
626 609 1
627 610 1
628 611 0.666667
628 10053 0.333333
629 612 1
630 613 1
631 614 1
632 616 1
633 308 0.00361011
633 617 0.805054
633 735 0.187726
633 44434 0.00361011
634 618 1
635 607 0.142857
635 619 0.142857
635 2724 0.714286
636 620 1
637 621 0.916667
637 4080 0.0833333
638 622 1
639 623 1
640 624 1
641 625 1
642 626 1
643 627 0.787879
643 24901 0.121212
643 27742 0.030303
643 28110 0.0606061
644 296 1.41896e-07
644 628 0.00298507
644 919 0.997015
644 11428 2.14571e-07
645 629 1
646 630 1
647 631 0.991072
647 7992 0.0089285
648 632 1
649 633 1
650 634 1
651 636 1
652 637 1
653 638 0.989865
653 6193 0.0101351
654 639 0.998088
654 15219 0.00191205
655 640 1
656 641 0.142857
656 20741 0.857143
657 642 1
658 643 0.0625
658 6875 0.125
658 23129 0.375
658 29211 0.1875
658 36060 0.1875
658 47842 0.0625
659 644 0.75
659 39483 0.25
660 645 0.333333
660 7870 0.5
660 19733 0.166667
661 646 0.333333
661 26909 0.333333
661 54037 0.333333
662 648 1
663 649 1
664 650 1
665 651 1
666 652 0.0833333
666 12777 0.166667
666 38496 0.75
667 653 1
668 654 1
669 655 0.222222
669 5834 0.777778
670 656 1
671 657 0.916667
671 5169 0.0833333
672 658 1
673 659 1
674 660 1
675 661 1
676 662 1
677 663 0.906593
677 7894 0.0934066
678 664 0.987483
678 2045 0.0099663
678 52301 0.00255095
679 665 0.666667
679 36115 0.333333
680 666 0.5
680 11267 0.5
681 667 1
682 382 0.0066225
682 671 0.986755
682 27468 0.00662252
683 202 0.5
683 672 0.5
684 673 1
685 396 0.5
685 676 0.5
686 677 0.5
686 38338 0.5
687 678 1
688 679 1
689 680 0.860465
689 2656 0.139535
690 681 1
691 682 1
692 683 1
693 684 0.990291
693 44125 0.00970874
694 685 0.75
694 3629 0.125
694 32158 0.125
695 686 1
696 687 1
697 688 1
698 689 1
699 690 0.931818
699 4650 0.0227273
699 12967 0.0454545
700 691 1
701 692 0.137931
701 8036 0.37931
701 37869 0.448276
701 51536 0.0344828
702 24 0.111111
702 693 0.222222
702 4046 0.555556
702 12988 0.111111
703 498 0.5
703 694 0.5
704 178 0.142857
704 695 0.714286
704 919 0.142857
705 696 1
706 697 0.25
706 6358 0.75
707 698 0.166667
707 46797 0.833333
708 699 1
709 700 1
710 701 1
711 702 0.571429
711 9630 0.285714
711 10416 0.142857
712 703 0.25
712 704 0.25
712 2490 0.5
713 706 0.622222
713 1821 0.377778
714 708 1
715 709 0.25
715 14131 0.25
715 54105 0.5
716 710 1
717 711 1
718 712 1
719 714 1
720 715 1
721 716 1
722 717 0.995413
722 1028 0.00229358
722 3010 0.00229358
723 141 0.0285714
723 718 0.8
723 2122 0.0571429
723 12153 0.0285714
723 14323 0.0285714
723 19123 0.0285714
723 28103 0.0285714
724 719 0.725
724 11316 0.275
725 720 0.5
725 29944 0.5
726 721 1
727 722 1
728 723 1
729 724 0.727273
729 4050 0.181818
729 10779 0.0909091
730 514 0.00621118
730 725 0.987578
730 52167 0.00621118
731 726 1
732 727 0.990476
732 4757 0.00952374
733 728 0.142857
733 2328 0.0952381
733 5439 0.714286
733 52740 0.047619
734 187 0.0550465
734 729 0.944954
735 730 0.976852
735 1471 0.00462963
735 6786 0.00925926
735 14481 0.00462962
735 18224 0.00462963
736 693 0.769231
736 27709 0.230769
737 731 1
738 732 0.960784
738 12879 0.0392157
739 4 0.111111
739 733 0.111111
739 2736 0.777778
740 80 0.857143
740 12228 0.142857
741 2 1
742 734 1
743 733 1
744 736 1
745 737 0.933333
745 24201 0.0666667
746 738 0.181818
746 6604 0.0909091
746 31601 0.727273
747 25 0.0333333
747 739 0.0333333
747 1044 0.866667
747 2391 0.0666667
748 740 1
749 742 0.991304
749 20827 0.00434783
749 34942 0.00434783
750 743 1
751 744 0.751918
751 1825 0.0102302
751 2348 0.00255754
751 4416 0.0153453
751 7699 0.00511509
751 16557 0.0255754
751 23779 0.189258
752 745 1
753 746 0.103774
753 970 0.584906
753 1476 0.103774
753 2173 0.00943396
753 3808 0.198113
754 747 1
755 748 1
756 749 1
757 750 1
758 752 0.5
758 31900 0.5
759 753 1
760 754 1
761 550 0.0235294
761 755 0.976471
762 756 0.5
762 757 0.5
763 758 0.851852
763 10232 0.148148
764 759 1
765 760 1
766 761 1
767 762 0.797468
767 4474 0.189873
767 52236 0.0126582
768 763 1
769 764 1
770 765 1
771 766 1
772 767 1
773 768 1
774 769 1
775 770 1
776 772 1
777 773 0.990566
777 11047 0.00943396
778 774 1
779 775 0.850704
779 6994 0.149296
780 776 1
781 777 0.317073
781 33748 0.682927
782 778 1
783 779 0.981818
783 55071 0.0181818
784 780 1
785 781 1
786 782 0.5
786 3843 0.5
787 783 1
788 784 0.0381944
788 6050 0.8125
788 8035 0.0416667
788 11116 0.00347222
788 13123 0.00694444
788 20991 0.00347222
788 35621 0.0138889
788 35870 0.0381944
788 38657 0.0416667
789 753 0.5
789 18252 0.5
790 785 0.333333
790 4997 0.333333
790 16836 0.333333
791 786 1
792 242 0.0974629
792 787 0.837562
792 813 0.0162438
792 2014 0.0487314
793 788 1
794 789 1
795 790 1
796 791 1
797 792 0.158048
797 794 0.841952
798 792 0.273019
798 793 0.181781
798 794 0.086394
798 795 0.454452
798 4240 0.00435429
799 797 1
800 798 1
801 53 1
802 799 1
803 800 0.333333
803 31361 0.333333
803 54099 0.333333
804 801 1
805 802 0.911765
805 10001 0.0882353
806 803 1
807 804 1
808 805 1
809 806 1
810 807 1
811 808 1
812 27 0.0170317
812 322 1.8942e-07
812 809 0.948969
812 2059 2.68484e-06
812 3445 0.0170321
812 12652 0.0169641
813 810 1
814 811 1
815 812 1
816 813 0.808153
816 3686 0.00119904
816 6288 0.18705
816 7193 4.00203e-07
816 11236 0.00239808
816 25910 0.00119904
817 814 1
818 815 1
819 816 1
820 817 1
821 818 1
822 425 0.00271788
822 819 0.934947
822 829 0.0623349
823 821 0.75
823 51682 0.25
824 8230 0.5
824 11205 0.5
825 12 0.0909194
825 822 0.0909195
825 1037 0.090805
825 3225 0.727356
826 823 0.722222
826 10524 0.277778
827 824 1
828 825 1
829 826 1
830 827 0.999684
830 20650 0.000316018
831 722 1
832 828 1
833 829 1
834 830 1
835 831 1
836 832 0.166667
836 23199 0.166667
836 32275 0.666667
837 833 1
838 834 1
839 835 0.99083
839 11152 0.00611584
839 17959 0.00305361
840 836 1
841 837 1
842 838 0.0769231
842 3821 0.769231
842 10203 0.153846
843 839 0.142857
843 8058 0.142857
843 17622 0.571429
843 41243 0.142857
844 840 1
845 841 0.964286
845 9968 0.0357143
846 842 1
847 843 0.933333
847 6323 0.0666667
848 844 1
849 132 0.992854
849 12976 0.00237316
849 13946 4.12806e-05
849 16152 2.65488e-07
849 30862 0.00237525
849 35871 0.00235594
850 845 1
851 846 0.285714
851 52070 0.714286
852 847 1
853 848 0.142857
853 14286 0.857143
854 849 1
855 850 1
856 851 1
857 852 1
858 853 0.954545
858 12468 0.0454545
859 854 1
860 855 1
861 856 0.666667
861 16365 0.333333
862 857 1
863 858 0.5
863 4646 0.5
864 859 1
865 860 1
866 861 1
867 862 1
868 863 1
869 864 1
870 865 1
871 866 1
872 867 1
873 868 0.6
873 2324 0.4
874 869 0.25
874 6802 0.625
874 30752 0.125
875 870 1
876 871 1
877 872 1
878 873 0.5
878 24224 0.5
879 874 1
880 875 1
881 876 1
882 879 1
883 880 1
884 881 1
885 882 1
886 883 1
887 884 1
888 885 0.0769231
888 4868 0.923077
889 886 0.833333
889 40856 0.166667
890 887 1
891 888 1
892 889 1
893 890 1
894 891 0.818182
894 34513 0.181818
895 892 0.4
895 3635 0.6
896 31 0.6
896 893 0.4
897 894 1
898 895 0.2
898 19053 0.2
898 25170 0.2
898 47369 0.4
899 896 0.125
899 20583 0.875
900 897 1
901 898 0.5
901 23055 0.5
902 899 1
903 900 1
904 901 1
905 902 1
906 903 1
907 108 0.133333
907 892 0.266667
907 14555 0.4
907 29092 0.0666667
907 53340 0.133333
908 904 1
909 905 1
910 906 0.763393
910 1180 0.0223214
910 5502 0.147321
910 8702 0.0580357
910 15195 0.00892857
911 907 1
912 117 1
913 908 0.75
913 5247 0.0208333
913 33616 0.0625
913 52874 0.0208333
913 53726 0.145833
914 909 0.285715
914 5862 0.571429
914 19142 0.142856
915 910 0.933333
915 13984 0.0666667
916 911 1
917 912 0.6
917 39807 0.4
918 913 1
919 914 0.0454545
919 10616 0.909091
919 17669 0.0454545
920 915 1
921 916 0.025
921 972 0.025
921 1081 0.775
921 15851 0.05
921 31507 0.05
921 42426 0.05
921 50241 0.0125
921 55222 0.0125
922 917 0.666667
922 50296 0.333333
923 918 1
924 920 0.975806
924 11235 0.0241935
925 921 0.939394
925 2055 0.0606061
926 278 1
927 922 1
928 923 1
929 924 1
930 925 1
931 926 0.9
931 19259 0.1
932 927 0.875
932 22590 0.125
933 928 0.757576
933 32000 0.242424
934 929 1
935 930 1
936 931 0.577778
936 3248 0.0222222
936 9370 0.0444444
936 14533 0.0444444
936 29767 0.0222222
936 31508 0.0666667
936 33263 0.111111
936 52875 0.0222222
936 53744 0.0888889
937 932 0.0909091
937 9682 0.909091
938 933 0.333333
938 12395 0.133333
938 34505 0.133333
938 52043 0.4
939 934 0.666667
939 30785 0.0833333
939 51425 0.0833333
939 51780 0.166667
940 935 0.991379
940 23825 0.00862069
941 914 0.2
941 10616 0.8
942 936 1
943 937 1
944 938 0.942857
944 13485 0.0571429
945 939 0.888889
945 30946 0.111111
946 940 0.885716
946 11292 0.0857145
946 13115 0.0285691
947 941 0.981187
947 1371 0.0115774
947 3901 0.00144718
947 9287 0.00578871
948 942 1
949 943 0.5
949 14946 0.5
950 944 0.987952
950 9548 0.0120482
951 945 1
952 946 1
953 947 1
954 948 1
955 949 0.98063
955 1179 0.00605327
955 1729 0.0121065
955 2331 0.00121065
956 2247 1
957 2247 0.904766
957 3726 0.0952339
957 37181 4.98726e-07
958 950 1
959 951 1
960 952 0.4
960 25590 0.6
961 953 1
962 954 0.972222
962 969 0.0277777
963 955 1
964 956 1
965 957 1
966 958 1
967 959 1
968 960 1
969 785 0.831461
969 13667 0.157303
969 36403 0.011236
970 961 1
971 962 1
972 963 1
973 964 0.831755
973 1119 0.102477
973 1139 0.0232118
973 1883 0.0406207
973 12916 1.02668e-06
973 16699 0.00193431
974 965 1
975 966 1
976 967 0.835821
976 8253 0.134328
976 12032 0.0298507
977 968 1
978 969 1
979 971 1
980 972 1
981 973 0.967742
981 36243 0.0322581
982 974 1
983 975 1
984 976 1
985 977 1
986 87 0.0869549
986 371 0.00724624
986 570 0.028985
986 751 0.862302
986 1190 0.00724624
986 10037 8.78826e-06
986 13945 1.03467e-05
986 20351 0.00724624
987 978 1
988 785 1
989 979 0.714286
989 9185 0.0408163
989 13076 0.244898
990 980 0.994152
990 49852 0.00584795
991 981 1
992 982 1
993 983 0.142857
993 13823 0.857143
994 984 0.986667
994 1022 0.00888889
994 23515 0.00444442
995 985 1
996 986 0.8
996 13404 0.2
997 987 0.909088
997 39231 0.0909117
998 988 0.84375
998 3214 0.03125
998 6243 0.03125
998 13652 0.09375
999 989 1
1000 990 1
1001 991 0.722222
1001 30713 0.277778
1002 992 1
1003 993 1
1004 994 1
1005 995 0.984496
1005 52217 0.0155039
1006 996 1
1007 997 0.999999
1007 1548 8.64875e-07
1008 998 1
1009 999 1
1010 1000 1
1011 1001 0.894737
1011 19548 0.0526316
1011 32995 0.0526316
1012 1002 1
1013 1003 1
1014 1004 1
1015 1005 1
1016 1006 1
1017 1007 0.55
1017 12851 0.45
1018 1008 1
1019 1009 0.97619
1019 12786 0.0238095
1020 1010 0.166667
1020 50981 0.833333
1021 1011 0.875
1021 3792 0.125
1022 1012 0.846154
1022 3755 0.076923
1022 3766 0.0769231
1023 604 0.0769231
1023 1013 0.923077
1024 1014 0.2
1024 18139 0.6
1024 35504 0.2
1025 1015 0.833333
1025 45113 0.166667
1026 1016 1
1027 1017 0.866667
1027 25972 0.133333
1028 1018 0.75
1028 6020 0.25
1029 1019 1
1030 1020 0.968254
1030 3666 0.015873
1030 9721 0.015873
1031 1021 0.458333
1031 11131 0.5
1031 13007 0.0416667
1032 1022 1
1033 1023 0.917683
1033 2548 0.0823171
1034 1024 1
1035 1025 1
1036 1026 0.153846
1036 3398 0.0769231
1036 5897 0.0769231
1036 9104 0.0769231
1036 11195 0.153846
1036 14654 0.0769231
1036 25889 0.0769231
1036 32339 0.230769
1036 37349 0.0769231
1037 1027 1
1038 1028 0.987097
1038 3079 0.0107527
1038 7927 0.00215053
1039 1029 1
1040 27 0.021273
1040 1031 0.978727
1041 1032 1
1042 1033 0.346154
1042 10494 0.653846
1043 1034 1
1044 1035 0.08
1044 3906 0.08
1044 8240 0.08
1044 13467 0.68
1044 35716 0.08
1045 1036 0.998743
1045 1037 0.00125745
1046 1038 1
1047 1039 1
1048 1040 1
1049 1041 0.988506
1049 30321 0.0114942
1050 1042 1
1051 1043 0.5
1051 27079 0.5
1052 1045 0.903226
1052 2500 0.0322581
1052 13474 0.0645161
1053 1046 1
1054 1047 0.666667
1054 12671 0.333333
1055 1048 0.047619
1055 4158 0.904762
1055 38057 0.047619
1056 1050 1
1057 1051 1
1058 792 0.223767
1058 1049 0.388114
1058 1052 0.388119
1059 1053 0.25
1059 13531 0.75
1060 1054 0.166667
1060 3354 0.833333
1061 1055 1
1062 1056 0.952381
1062 1115 0.047619
1063 1057 1
1064 1058 0.538462
1064 10489 0.461538
1065 1059 0.210526
1065 2062 0.736842
1065 2987 0.0526316
1066 680 0.0666667
1066 1354 0.933333
1067 1060 1
1068 1061 1
1069 1062 0.912287
1069 7065 0.0175378
1069 10186 0.0701754
1070 792 0.333328
1070 1049 0.333334
1070 1063 0.333338
1071 1064 1
1072 25 0.0212666
1072 680 0.829852
1072 1354 0.0212688
1072 2656 0.0425376
1072 25820 0.0212688
1072 41747 0.0638065
1073 1065 0.818182
1073 13133 0.181818
1074 1066 0.929825
1074 4581 0.0175439
1074 11156 0.0175439
1074 11856 0.0175439
1074 33843 0.0175439
1075 1067 0.942784
1075 10472 0.0571384
1075 26109 7.78356e-05
1076 1068 0.666667
1076 16859 0.333333
1077 1069 1
1078 792 0.0416667
1078 1070 0.833333
1078 10310 0.0833333
1078 33899 0.0416667
1079 1071 0.978417
1079 14182 0.0215827
1080 1072 1
1081 1073 1
1082 1074 1
1083 1075 1
1084 1076 0.2
1084 6870 0.2
1084 15148 0.6
1085 1077 1
1086 1078 1
1087 1079 1
1088 1080 1
1089 1082 1
1090 1083 0.0818182
1090 9691 0.918182
1091 46 0.5
1091 1084 0.5
1092 1085 0.993007
1092 21307 0.00699301
1093 1086 0.5
1093 9328 0.5
1094 1088 1
1095 1089 1
1096 1090 1
1097 1091 1
1098 1092 0.25
1098 30691 0.75
1099 1093 1
1100 1094 1
1101 1095 0.025641
1101 1957 0.897436
1101 14688 0.025641
1101 16907 0.0512821
1102 1096 1
1103 1097 0.333333
1103 14035 0.666667
1104 1098 0.833333
1104 29075 0.116667
1104 29367 0.05
1105 1099 1
1106 1100 0.65
1106 8529 0.325
1106 8975 0.0166667
1106 17047 0.00833333
1107 1101 1
1108 1102 1
1109 1103 1
1110 1104 0.934579
1110 5859 0.046729
1110 14756 0.0186916
1111 1105 0.834254
1111 2756 0.00552486
1111 6071 0.160221
1112 1106 0.945946
1112 11392 0.0540541
1113 1107 1
1114 1108 1
1115 1109 0.984848
1115 10715 0.0151515
1116 27 0.235544
1116 1110 0.254819
1116 50297 0.509637
1117 1111 1
1118 1112 1
1119 1113 1
1120 1114 1
1121 1115 0.993056
1121 14660 0.00694444
1122 1116 1
1123 1117 0.90625
1123 11643 0.09375
1124 1118 0.792985
1124 2150 0.19745
1124 5304 0.00955404
1124 13121 1.03176e-05
1125 964 0.208556
1125 1119 0.0427807
1125 1139 0.673797
1125 1883 0.0695187
1125 14302 0.00534759
1126 1120 0.528497
1126 6089 0.466321
1126 6090 0.00518135
1127 1121 1
1128 1122 0.666667
1128 50802 0.333333
1129 1123 0.615385
1129 29976 0.384615
1130 1124 0.142857
1130 3839 0.857143
1131 1125 0.857143
1131 10564 0.142857
1132 1126 1
1133 1127 0.958333
1133 11726 0.0416667
1134 1128 1
1135 1129 0.6
1135 11961 0.0666667
1135 16770 0.133333
1135 24621 0.2
1136 1130 0.0319149
1136 2095 0.0106383
1136 3764 0.797873
1136 6509 0.12766
1136 6664 0.0106379
1136 9800 0.0106383
1136 12450 0.0106383
1137 1131 1
1138 1132 1
1139 1133 1
1140 1134 1
1141 1135 1
1142 1136 1
1143 1137 0.333333
1143 21835 0.666667
1144 1138 0.796296
1144 1703 0.00925926
1144 4593 0.166667
1144 25239 0.0185185
1144 35741 0.00925926
1145 1140 0.142857
1145 5843 0.857143
1146 1141 1
1147 1142 1
1148 1143 0.5
1148 1144 0.5
1149 1145 0.846154
1149 6097 0.0769231
1149 13038 0.076923
1150 1146 0.521739
1150 3792 0.434783
1150 13897 0.0434782
1151 1147 0.5
1151 47619 0.5
1152 1148 0.891304
1152 9752 0.108696
1153 1150 1
1154 1151 0.6
1154 10758 0.4
1155 1152 0.631579
1155 9602 0.368421
1156 1153 1
1157 1154 1
1158 1155 1
1159 1156 1
1160 1157 1
1161 1158 1
1162 1159 0.761905
1162 2275 0.222222
1162 18458 0.015873
1163 1160 1
1164 1161 0.983607
1164 9844 0.00409836
1164 23887 0.0122951
1165 896 0.0425532
1165 3501 0.617021
1165 4498 0.106383
1165 8243 0.234043
1166 90 1
1167 1162 0.5
1167 22313 0.5
1168 4 0.104998
1168 27 0.00252068
1168 1163 0.892482
1169 1164 1
1170 843 0.0440252
1170 1261 0.0566038
1170 1612 0.0188679
1170 2080 0.867925
1170 14774 0.00628929
1170 19303 0.00628931
1171 1166 1
1172 1167 0.25
1172 6466 0.25
1172 33271 0.5
1173 1168 1
1174 1169 1
1175 1170 1
1176 24 0.5
1176 1106 0.5
1177 1171 1
1178 1172 0.428571
1178 6746 0.571429
1179 1173 1
1180 1174 0.890909
1180 16250 0.0909091
1180 23282 0.0181818
1181 1175 1
1182 1176 1
1183 1177 0.222222
1183 5775 0.555556
1183 47659 0.222222
1184 1178 1
1185 1181 0.125
1185 1239 0.875
1186 1183 1
1187 1184 1
1188 1185 1
1189 1186 1
1190 1187 1
1191 1188 1
1192 1189 0.333333
1192 1275 0.666667
1193 371 0.0363721
1193 1190 0.581953
1193 1273 0.309163
1193 12599 0.0179539
1193 15205 0.018186
1193 31991 0.0363721
1194 1191 1
1195 1192 1
1196 1193 0.950001
1196 2899 0.0499994
1197 1194 1
1198 1195 0.676768
1198 1559 0.272727
1198 30375 0.050505
1199 1196 1
1200 1197 1
1201 1198 1
1202 1199 1
1203 919 1
1204 395 0.5
1204 1200 0.5
1205 1201 1
1206 1202 1
1207 1204 1
1208 1205 1
1209 1178 1
1210 42 0.964286
1210 1206 0.00892857
1210 10017 0.0267857
1211 1207 0.333333
1211 14435 0.666667
1212 1208 0.785714
1212 37073 0.0714286
1212 37083 0.142857
1213 257 1
1214 1209 1
1215 1210 1
1216 1211 1
1217 1212 1
1218 1213 1
1219 1214 1
1220 1215 1
1221 813 0.00147384
1221 1216 0.242885
1221 1813 0.0134936
1221 2348 0.0134935
1221 11200 0.445289
1221 11886 0.0134936
1221 15538 0.0134936
1221 16086 0.0809616
1221 17027 0.0269872
1221 24554 0.14843
1222 1217 0.978723
1222 13370 0.0212766
1223 304 0.0344828
1223 16684 0.965517
1224 197 0.209987
1224 1218 0.395006
1224 16685 0.395006
1225 1219 1
1226 1220 1
1227 1221 1
1228 1222 1
1229 109 1
1230 7 0.0266675
1230 1223 0.973333
1231 1224 1
1232 766 1
1233 1225 1
1234 1226 1
1235 1227 1
1236 156 0.066117
1236 550 0.0622589
1236 600 0.871624
1237 1228 1
1238 1229 1
1239 1100 0.894737
1239 8975 0.105263
1240 1230 1
1241 156 2.88554e-05
1241 1231 0.999971
1242 1232 0.0985916
1242 2069 0.838028
1242 3296 0.056338
1242 4013 0.00704225
1243 156 0.307665
1243 1233 0.692335
1244 1234 0.912311
1244 3305 0.005597
1244 4951 0.00373133
1244 4965 0.00746267
1244 5502 0.00746267
1244 14073 0.0149253
1244 15195 0.00373133
1244 17959 2.74985e-06
1244 25667 0.00373133
1244 28081 0.0373133
1244 47828 0.00373133
1245 1235 1
1246 27 1.15924e-07
1246 242 7.93189e-06
1246 1236 0.993325
1246 7354 0.0066666
1247 1237 0.985294
1247 44557 0.0147059
1248 1238 1
1249 1240 1
1250 197 0.00741938
1250 1241 0.992581
1251 1242 1
1252 1243 1
1253 1244 0.989583
1253 5528 0.0104167
1254 1245 1
1255 126 0.0140709
1255 227 0.0133232
1255 1246 0.94596
1255 5806 0.0133229
1255 12787 2.13484e-07
1255 14161 0.0133231
1256 156 0.000374555
1256 1247 0.999625
1257 1248 0.0263158
1257 5042 0.263158
1257 6511 0.0526316
1257 7134 0.657895
1258 1249 1
1259 1175 1
1260 1250 0.872342
1260 3137 0.0212766
1260 3426 0.0851065
1260 19204 0.0212752
1261 1251 1
1262 1252 1
1263 1253 1
1264 1254 1
1265 1255 1
1266 1200 0.976744
1266 40280 0.0232558
1267 1256 0.0104167
1267 1334 0.989583
1268 1257 1
1269 1258 0.961627
1269 2299 0.018849
1269 8035 0.0188554
1269 20576 0.000668616
1270 1259 1
1271 927 0.333333
1271 1260 0.333333
1271 22590 0.333333
1272 1262 1
1273 1263 1
1274 1264 1
1275 1265 1
1276 1266 1
1277 1267 1
1278 156 4.20744e-05
1278 1268 0.999958
1279 1269 1
1280 1270 0.75
1280 2856 0.25
1281 1271 1
1282 1272 1
1283 472 0.666667
1283 4564 0.333333
1284 27 6.224e-07
1284 1207 0.0283019
1284 1274 0.0377358
1284 2976 0.915094
1284 10660 0.0188679
1285 1276 1
1286 1277 1
1287 1278 1
1288 1279 1
1289 1280 0.5
1289 1281 0.5
1290 1282 1
1291 1283 1
1292 1284 1
1293 1285 0.25
1293 2115 0.75
1294 1286 1
1295 1244 0.0909091
1295 6217 0.272727
1295 9396 0.636364
1296 1287 1
1297 1288 1
1298 1289 1
1299 197 0.000752807
1299 1290 0.999247
1300 1265 0.802775
1300 1291 0.197225
1301 202 0.266354
1301 1291 0.200921
1301 1292 0.532724
1302 1293 0.857143
1302 52046 0.142857
1303 1294 1
1304 1295 0.5
1304 1296 0.5
1305 1298 1
1306 1299 1
1307 1300 0.666667
1307 24427 0.333333
1308 792 0.0068937
1308 1301 0.186207
1308 2049 0.00689657
1308 4157 0.551726
1308 10396 0.0758623
1308 11988 0.172414
1309 1302 1
1310 1303 0.9
1310 37071 0.1
1311 1304 1
1312 1294 1
1313 1305 1
1314 1293 1
1315 202 0.333438
1315 1306 0.666562
1316 1306 0.000317511
1316 1307 0.999682
1317 1308 0.714286
1317 24421 0.285714
1318 1309 0.923729
1318 15212 0.0254237
1318 17445 0.00847458
1318 23808 0.0423729
1319 1310 1
1320 1311 0.971429
1320 2485 0.0285714
1321 1312 1
1322 1313 1
1323 1314 1
1324 156 1.09862e-05
1324 1315 0.999989
1325 1316 1
1326 1317 1
1327 1318 1
1328 1319 1
1329 1320 1
1330 1321 1
1331 156 1.17945e-05
1331 1322 0.999988
1332 1323 1
1333 1324 1
1334 1325 0.952941
1334 40086 0.0470588
1335 1326 1
1336 1295 0.714286
1336 24403 0.285714
1337 1296 1
1338 197 0.194468
1338 202 0.201383
1338 398 0.201383
1338 1327 0.201383
1338 1328 0.201383
1339 1329 1
1340 699 1
1341 132 0.223396
1341 156 0.179218
1341 197 0.150593
1341 1330 0.223396
1341 1331 0.223396
1342 1332 1
1343 698 0.666667
1343 45371 0.333333
1344 156 0.00342164
1344 1333 0.996578
1345 1335 0.75
1345 6475 0.25
1346 1336 1
1347 106 0.886824
1347 1337 0.113176
1348 1337 0.465921
1348 1338 0.534079
1349 1339 0.6
1349 22052 0.2
1349 33584 0.2
1350 1340 1
1351 1341 1
1352 1342 1
1353 156 0.00145201
1353 1343 0.998548
1354 1344 1
1355 1345 1
1356 1346 1
1357 1347 1
1358 1348 0.803571
1358 34900 0.0714286
1358 36181 0.125
1359 107 0.5
1359 1349 0.5
1360 11114 0.337938
1360 12661 0.662062
1361 1350 1
1362 1351 1
1363 1352 1
1364 197 0.178316
1364 1353 0.821684
1365 1354 0.333333
1365 4883 0.666667
1366 1355 1
1367 1356 1
1368 1357 1
1369 1358 1
1370 1359 1
1371 1360 1
1372 1361 1
1373 1362 0.954545
1373 21745 0.0454545
1374 202 0.285714
1374 1258 0.142857
1374 1363 0.285714
1374 1397 0.142857
1374 1398 0.142857
1375 1364 1
1376 27 9.25042e-06
1376 1256 0.0588559
1376 5811 0.882838
1376 21731 0.0582966
1377 1365 0.5
1377 1366 0.5
1378 24 0.111111
1378 296 0.777778
1378 919 0.111111
1379 1367 0.931026
1379 8459 0.0344824
1379 10579 0.0344824
1379 13145 9.14332e-06
1380 1368 1
1381 1369 1
1382 156 0.309992
1382 1370 0.690008
1383 1372 0.795455
1383 1378 0.0454545
1383 4622 0.0681818
1383 15716 0.0681818
1383 17533 0.0227273
1384 156 0.00338127
1384 1373 0.996619
1385 24 0.5
1385 1374 0.5
1386 1375 1
1387 1376 0.333333
1387 23295 0.666667
1388 27 0.249874
1388 1377 0.750126
1389 1379 1
1390 1380 0.785714
1390 7671 0.0714286
1390 9267 0.0892857
1390 12704 0.0535714
1391 1381 0.6
1391 16997 0.0499998
1391 20231 0.35
1392 197 0.466711
1392 1382 0.533289
1393 1265 0.030303
1393 2287 0.212121
1393 5389 0.515152
1393 10352 0.030303
1393 22631 0.181818
1393 24027 0.030303
1394 1383 1
1395 1384 1
1396 1385 1
1397 156 2.88476e-05
1397 1386 0.999971
1398 1387 1
1399 1388 1
1400 1389 1
1401 1390 1
1402 1391 1
1403 156 0.0034221
1403 1392 0.996578
1404 1393 1
1405 77 1
1406 1394 1
1407 197 0.474002
1407 1395 0.525998
1408 1396 1
1409 787 0.5
1409 1399 0.5
1410 1400 0.615385
1410 7994 0.230769
1410 12908 0.0384615
1410 33081 0.0769231
1410 53553 0.0384615
1411 1401 1
1412 1402 1
1413 1403 0.777778
1413 2037 0.174603
1413 9916 0.0396825
1413 12844 1.27019e-07
1413 14001 0.00793649
1414 1404 0.999985
1414 12976 1.51681e-05
1415 1405 1
1416 1406 1
1417 187 0.5
1417 1407 0.5
1418 1408 1
1419 25 1
1420 1409 0.851852
1420 13422 0.0185185
1420 22927 0.12963
1421 1410 1
1422 1411 0.750044
1422 18808 0.249956
1423 1412 1
1424 523 0.25
1424 1413 0.25
1424 7226 0.25
1424 20438 0.25
1425 1414 1
1426 197 0.484308
1426 1415 0.515692
1427 1363 0.8
1427 1416 0.2
1428 1417 1
1429 1315 1
1430 1332 1
1431 1418 0.5
1431 2245 0.5
1432 1419 1
1433 1420 1
1434 1421 0.888889
1434 49271 0.111111
1435 156 0.00341534
1435 1422 0.996585
1436 197 0.178316
1436 1390 0.821684
1437 1423 0.5
1437 43813 0.5
1438 1424 0.111111
1438 2014 0.111111
1438 3008 0.777778
1439 1425 1
1440 1426 1
1441 1427 1
1442 156 0.00342202
1442 1428 0.996578
1443 24 0.5
1443 291 0.5
1444 1429 0.3
1444 36424 0.7
1445 197 3.48338e-05
1445 1430 0.999965
1446 1431 1
1447 1432 1
1448 1433 1
1449 1434 0.571429
1449 5890 0.428571
1450 1435 0.666667
1450 5884 0.333333
1451 156 3.75921e-05
1451 1436 0.999962
1452 1437 0.849558
1452 4201 0.150442
1453 1438 1
1454 1439 1
1455 1440 1
1456 1441 1
1457 1442 0.994595
1457 7400 0.00540541
1458 1443 1
1459 1444 0.105263
1459 7218 0.684211
1459 22637 0.210526
1460 1445 1
1461 1446 1
1462 1447 1
1463 1448 1
1464 1449 1
1465 1450 0.875
1465 41582 0.125
1466 196 1
1467 156 1.68616e-05
1467 1451 0.999983
1468 1452 1
1469 1453 1
1470 1454 1
1471 1455 1
1472 1456 0.5
1472 49984 0.5
1473 1457 1
1474 174 0.75
1474 813 0.25
1475 197 0.477599
1475 1458 0.522401
1476 1459 1
1477 1435 1
1478 1291 0.6
1478 24393 0.4
1479 1460 1
1480 4009 1
1481 1461 0.5
1481 5017 0.5
1482 1462 1
1483 1463 0.965501
1483 13068 1.72421e-05
1483 13815 0.0344819
1484 1464 1
1485 1465 1
1486 1466 1
1487 1467 1
1488 1468 1
1489 1469 1
1490 156 0.00342212
1490 1470 0.996578
1491 1472 1
1492 1473 1
1493 1474 0.333333
1493 33732 0.666667
1494 1475 1
1495 1477 1
1496 1478 1
1497 1479 0.631579
1497 19026 0.0263158
1497 22798 0.0789474
1497 26171 0.263158
1498 1480 1
1499 1481 1
1500 1482 0.5
1500 23580 0.5
1501 1483 0.0357143
1501 7478 0.0357143
1501 12571 0.928571
1502 1484 1
1503 1485 1
1504 197 0.000752807
1504 1486 0.999247
1505 1487 0.5
1505 1488 0.5
1506 1489 1
1507 1490 1
1508 1491 1
1509 156 0.0515495
1509 1492 0.948451
1510 1493 0.230769
1510 3021 0.769231
1511 1494 1
1512 1495 1
1513 1496 1
1514 1497 1
1515 1498 0.2
1515 35454 0.8
1516 1499 1
1517 1500 0.992163
1517 3135 2.80395e-06
1517 13883 0.00195843
1517 33844 0.0058753
1518 1501 1
1519 1390 0.411765
1519 6335 0.411765
1519 8944 0.176471
1520 1502 1
1521 1503 1
1522 197 0.000596449
1522 1504 0.999404
1523 1505 1
1524 1326 1
1525 1296 1
1526 156 0.051463
1526 1507 0.948537
1527 1508 1
1528 1509 1
1529 1510 1
1530 156 0.00342198
1530 1511 0.996578
1531 27 0.332589
1531 1390 0.333705
1531 1512 0.333705
1532 1513 1
1533 197 0.436541
1533 1514 0.563459
1534 564 0.5
1534 1515 0.5
1535 1516 0.875
1535 33020 0.125
1536 422 0.2
1536 15702 0.2
1536 17448 0.6
1537 25 0.25
1537 75 0.25
1537 1517 0.25
1537 1565 0.25
1538 1518 1
1539 1519 1
1540 1520 1
1541 1521 0.5
1541 9056 0.5
1542 1522 0.967742
1542 24320 0.032258
1543 1523 1
1544 1524 1
1545 1525 1
1546 564 1
1546 3966 2.78348e-07
1547 1526 0.974684
1547 29129 0.0253165
1548 202 0.5
1548 1527 0.5
1549 1528 1
1550 1529 1
1551 1530 1
1552 1531 1
1553 27 0.333206
1553 1532 0.666794
1554 1533 1
1555 1121 1
1556 1534 1
1557 187 0.5
1557 1535 0.5
1558 1537 1
1559 1538 1
1560 1539 0.1
1560 34507 0.9
1561 1540 1
1562 1541 1
1563 1542 1
1564 345 0.166667
1564 1543 0.666667
1564 1636 0.166667
1565 1544 1
1566 1545 0.833333
1566 2679 0.0833333
1566 16353 0.0833333
1567 1546 1
1568 494 0.9
1568 1686 0.1
1569 1547 1
1570 1548 1
1571 1549 1
1572 345 1
1573 1550 0.499999
1573 16758 0.500001
1574 156 0.0516328
1574 1551 0.948367
1575 1552 1
1576 1553 1
1577 1554 1
1578 1555 1
1579 1538 1
1580 1556 1
1581 1557 1
1582 1558 1
1583 197 0.344892
1583 246 0.655108
1584 1559 1
1585 1560 1
1586 27 1.5399e-07
1586 494 0.0307692
1586 1561 0.969231
1587 1515 0.43346
1587 9137 0.00380228
1587 19631 0.110266
1587 24961 0.34981
1587 26863 0.026616
1587 31114 0.0722438
1587 45461 0.00380228
1588 1562 1
1589 1563 1
1590 243 1
1591 1564 1
1592 531 1
1593 156 0.000451521
1593 1566 0.999548
1594 1567 1
1595 1568 1
1596 1569 1
1597 1570 1
1598 1571 1
1599 1572 1
1600 1573 1
1601 1574 1
1602 1575 0.0285714
1602 3184 0.0285714
1602 9199 0.942857
1603 1576 1
1604 1577 1
1605 1578 1
1606 1579 0.947368
1606 11581 0.0526316
1607 1580 0.925926
1607 13743 0.0740741
1608 1581 1
1609 1582 1
1610 883 0.333333
1610 34299 0.666667
1611 1583 1
1612 1584 0.5
1612 25671 0.5
1613 1575 1
1614 1585 1
1615 156 0.309992
1615 1586 0.690008
1616 1587 1
1617 156 0.00157755
1617 1588 0.998422
1618 156 0.00146343
1618 1589 0.998537
1619 1590 1
1620 1591 1
1621 1592 1
1622 1593 0.5
1622 7768 0.5
1623 1594 0.166667
1623 11948 0.833333
1624 1595 1
1625 1596 1
1626 1597 0.1
1626 13873 0.8
1626 52088 0.1
1627 1598 0.333333
1627 9049 0.666667
1628 1599 1
1629 1600 1
1630 1601 1
1631 1602 0.111111
1631 32351 0.777778
1631 49511 0.111111
1632 1594 1
1633 1603 1
1634 156 0.000218222
1634 1604 0.499891
1634 22231 0.499891
1635 1605 0.299916
1635 3965 0.0213227
1635 4790 0.621913
1635 10994 0.0533068
1635 26681 0.00354197
1636 1606 0.5
1636 38988 0.5
1637 1607 1
1638 1608 1
1639 1609 0.984616
1639 41709 0.0153845
1640 1610 1
1641 1611 1
1642 1613 0.974359
1642 33463 0.025641
1643 1614 1
1644 1615 1
1645 1616 1
1646 1617 1
1647 1618 0.833333
1647 5602 0.166667
1648 197 0.484308
1648 1619 0.515692
1649 1620 1
1650 1621 1
1651 1622 1
1652 1623 1
1653 1624 1
1654 555 0.868421
1654 4374 0.0263158
1654 11114 0.0263158
1654 23407 0.0789474
1655 1625 1
1656 1626 1
1657 1627 0.941176
1657 19641 0.0588235
1658 1628 0.5
1658 47640 0.5
1659 1629 1
1660 202 0.5
1660 1630 0.5
1661 1631 1
1662 1632 1
1663 1633 0.5
1663 31729 0.5
1664 1623 1
1665 1634 0.0666667
1665 2969 0.933333
1666 106 0.2
1666 107 0.2
1666 345 0.2
1666 1635 0.2
1666 1636 0.2
1667 1637 1
1668 156 0.0516209
1668 1638 0.948379
1669 1639 1
1670 1640 1
1671 156 1.07982e-05
1671 1641 0.999989
1672 1642 1
1673 1643 1
1674 1644 1
1675 1645 1
1676 197 0.00391316
1676 1646 0.996087
1677 1647 1
1678 1648 1
1679 1649 1
1680 1650 1
1681 1651 0.5
1681 6317 0.5
1682 1652 1
1683 197 0.489981
1683 1653 0.510019
1684 1654 0.5
1684 11269 0.5
1685 1655 1
1686 1656 1
1687 107 1
1688 1657 0.5
1688 54689 0.5
1689 1658 1
1690 1659 1
1691 1660 1
1692 1652 1
1693 1661 1
1694 156 0.0515595
1694 1662 0.94844
1695 1663 1
1696 1664 1
1697 1665 1
1698 156 0.000451532
1698 1543 0.999548
1699 1666 0.39738
1699 4163 0.576419
1699 11044 0.00873342
1699 13427 0.0131004
1699 20137 3.19176e-07
1699 39730 0.00436681
1700 1667 1
1701 1668 1
1702 202 0.5
1702 1669 0.5
1703 1670 1
1704 1671 1
1705 1636 1
1706 1672 1
1707 1673 1
1708 1674 1
1709 7494 0.0151177
1709 10466 0.0799905
1709 13175 0.66992
1709 19567 0.234972
1710 5264 0.25
1710 10874 0.250001
1710 12921 0.249999
1710 15066 0.250001
1711 1676 1
1712 156 0.000451537
1712 1678 0.999548
1713 1679 1
1714 197 0.39632
1714 1680 0.60368
1715 1681 1
1716 1682 1
1717 1683 1
1718 1684 1
1719 1685 0.5
1719 35170 0.5
1720 1687 1
1721 1688 1
1722 1689 1
1723 1690 0.84507
1723 9978 0.15493
1724 1691 1
1725 202 0.5
1725 1692 0.5
1726 1693 1
1727 107 0.5
1727 187 0.5
1728 66 0.0465116
1728 1695 0.953488
1729 835 0.944445
1729 21566 0.0555554
1730 1696 0.875
1730 11625 0.0416667
1730 26063 0.0833333
1731 1697 1
1732 156 1.68623e-05
1732 1698 0.999983
1733 785 0.0285717
1733 1634 0.765721
1733 2969 0.00571434
1733 12488 0.199993
1734 1699 1
1735 1700 1
1736 156 0.000494527
1736 1701 0.999505
1737 1702 1
1738 1703 0.2
1738 10867 0.8
1739 1705 1
1740 1706 1
1741 197 0.489981
1741 1707 0.510019
1742 1708 1
1743 1709 1
1744 1710 1
1745 1711 1
1746 156 0.0079018
1746 1713 0.992098
1747 1714 0.5
1747 9259 0.5
1748 156 0.309125
1748 1715 0.690875
1749 1716 1
1750 1717 0.8
1750 16785 0.2
1751 1718 1
1752 1719 0.903226
1752 11853 0.0967742
1753 1720 1
1754 1619 1
1755 197 0.484308
1755 1721 0.515692
1756 1722 1
1757 1723 1
1758 1724 0.2
1758 1725 0.8
1759 1726 0.146067
1759 1919 0.00374532
1759 3444 0.850187
1760 1727 0.5
1760 14266 0.5
1761 1728 0.6
1761 46234 0.4
1762 1179 0.140022
1762 1729 0.789217
1762 2247 0.0325722
1762 2331 0.0381879
1763 1730 1
1764 1731 1
1765 1732 0.0434783
1765 7474 0.956522
1766 1733 1
1767 1734 1
1768 1735 1
1769 1736 1
1770 1723 1
1771 1737 0.8
1771 13594 0.2
1772 1738 1
1773 835 0.114286
1773 6879 0.285714
1773 19411 0.542857
1773 24177 0.0571429
1774 1739 1
1775 1725 1
1776 1740 1
1777 1741 0.125
1777 6293 0.875
1778 1723 1
1779 27 0.499727
1779 1742 0.500273
1780 1743 0.866667
1780 14643 0.133333
1781 115 0.150738
1781 1744 0.566175
1781 21342 0.283087
1782 1745 0.916667
1782 36009 0.0833333
1783 1746 1
1784 1747 1
1785 1748 1
1786 1749 0.2
1786 38472 0.6
1786 47634 0.2
1787 1750 0.75
1787 3742 0.25
1788 96 1
1789 1751 1
1790 1752 1
1791 1724 0.00980392
1791 3531 0.941176
1791 11167 0.0490196
1792 1753 1
1793 1754 1
1794 1755 1
1795 197 0.472691
1795 1756 0.527309
1796 1723 1
1797 1757 1
1798 156 4.20743e-05
1798 1758 0.999958
1799 4809 0.32
1799 8173 0.0266667
1799 10148 0.493333
1799 12462 0.133333
1799 34574 0.0266667
1800 1759 0.0999999
1800 37096 0.9
1801 1760 1
1802 1742 1
1803 115 0.318579
1803 1743 0.681421
1804 1761 0.111111
1804 2773 0.888889
1805 1762 1
1806 698 0.970149
1806 50215 0.0298507
1807 1727 0.2
1807 1763 0.2
1807 2068 0.4
1807 10074 0.2
1808 1764 1
1809 1765 0.666667
1809 24682 0.333333
1810 1766 1
1811 1767 1
1812 197 0.414464
1812 1768 0.585536
1813 1769 0.0736842
1813 8029 0.926316
1814 1770 1
1815 748 1
1816 1771 1
1817 1772 1
1818 1773 1
1819 1753 1
1820 930 1
1821 1774 1
1822 1775 1
1823 1776 0.613139
1823 4514 0.211679
1823 10388 0.124088
1823 15637 0.0437956
1823 25134 0.00729927
1824 1777 1
1825 550 0.978426
1825 2883 0.0208176
1825 13548 0.000756931
1826 1778 1
1827 1779 1
1828 1780 1
1829 156 0.000451538
1829 1756 0.999548
1830 1781 0.333333
1830 14843 0.166667
1830 18494 0.166667
1830 40334 0.333333
1831 156 0.213426
1831 1768 0.786574
1832 1782 0.5
1832 33383 0.5
1833 1783 0.941176
1833 6183 0.0588235
1834 156 3.75923e-05
1834 1784 0.999962
1835 1785 1
1836 1786 1
1837 1787 1
1838 1788 1
1839 1789 1
1840 197 0.466711
1840 1790 0.533289
1841 396 1
1842 1791 0.607143
1842 26387 0.392857
1843 1792 1
1844 156 0.000451518
1844 1793 0.999548
1845 909 0.116071
1845 1703 0.0133929
1845 1794 0.870536
1846 156 0.310073
1846 1795 0.689928
1847 1796 1
1848 197 0.472691
1848 1797 0.527309
1849 4 0.142264
1849 7 0.00415163
1849 4318 0.853584
1850 1799 0.960784
1850 11459 0.0392157
1851 1800 1
1852 1801 1
1853 1802 1
1854 1803 1
1855 1804 0.571429
1855 5342 0.142857
1855 6861 0.285714
1856 1806 0.0125
1856 3079 4.65465e-07
1856 5276 0.9875
1857 1807 0.571429
1857 5127 0.428571
1858 27 1.57969e-05
1858 1064 0.166664
1858 35719 0.83332
1859 1809 1
1860 1810 1
1861 1811 1
1862 1812 1
1863 1814 1
1864 1815 0.666667
1864 47547 0.333333
1865 1816 0.714286
1865 15266 0.285714
1866 1481 0.909091
1866 50768 0.0909091
1867 1817 0.714286
1867 10632 0.285714
1868 1818 0.894737
1868 4586 0.105263
1869 1819 1
1870 1820 0.648286
1870 1909 0.263803
1870 4827 1.21148e-07
1870 7107 0.0188834
1870 8563 0.00628772
1870 12725 0.0123833
1870 19948 0.012589
1870 22970 0.00629448
1870 42596 0.0314724
1871 1822 0.916667
1871 4458 0.0833333
1872 1823 1
1873 1824 1
1874 1826 1
1875 1827 1
1876 156 0.309992
1876 1828 0.690008
1877 1829 0.69697
1877 4212 0.151515
1877 23887 0.0606061
1877 35591 0.0909091
1878 1831 1
1879 1832 0.2
1879 7517 0.7
1879 53239 0.1
1880 1833 1
1881 1834 0.676923
1881 5041 0.292308
1881 28886 0.0153846
1881 38195 0.0153846
1882 1835 1
1883 1836 0.2
1883 17389 0.6
1883 37926 0.2
1884 1837 1
1885 1838 0.82963
1885 7973 0.148148
1885 27185 0.00740741
1885 53617 0.0148148
1886 1839 1
1887 1841 1
1888 1842 0.75
1888 24359 0.125
1888 50546 0.125
1889 1843 1
1890 792 1
1891 1844 0.333333
1891 1845 0.333333
1891 1846 0.333333
1892 1847 0.826763
1892 15109 0.0551277
1892 18420 0.118109
1893 564 0.0285714
1893 1848 0.971429
1894 1849 1
1895 1850 1
1896 1851 0.615385
1896 26512 0.384615
1897 1852 1
1898 1853 1
1899 1855 1
1900 1256 0.990698
1900 1866 0.00465116
1900 4004 0.00465116
1901 1856 1
1902 1857 0.933333
1902 14460 0.0666667
1903 1858 1
1904 1859 1
1905 1860 1
1906 1861 1
1907 1862 0.5
1907 51878 0.5
1908 1863 1
1909 1864 1
1910 1865 0.473684
1910 4206 0.5
1910 49512 0.0263158
1911 1867 1
1912 1868 1
1913 1869 0.933333
1913 13273 0.0666667
1914 1870 1
1915 1871 0.0666667
1915 5390 0.6
1915 29089 0.0666667
1915 35728 0.0666667
1915 51326 0.0666667
1915 51413 0.133333
1916 1872 1
1917 1873 1
1918 27 1.42232e-05
1918 1874 0.999986
1919 1875 0.942857
1919 10479 0.0571429
1920 1876 0.894737
1920 10610 0.0827068
1920 39731 0.0225564
1921 1877 0.966667
1921 12003 0.0333333
1922 1878 1
1923 1879 1
1924 1880 0.0833333
1924 10829 0.0416667
1924 11925 0.0416667
1924 15410 0.458333
1924 16257 0.375
1925 1881 1
1926 1882 0.694444
1926 19192 0.305556
1927 1884 0.111111
1927 19142 0.888889
1928 1885 1
1929 1886 0.96875
1929 15346 0.0312495
1930 1887 1
1931 1888 1
1932 1889 0.95
1932 29325 0.05
1933 1890 1
1934 1891 0.965517
1934 10642 0.0344828
1935 1892 1
1936 1893 1
1937 792 0.333333
1937 1048 0.333334
1937 1049 0.333333
1938 1894 1
1939 1895 1
1940 1896 1
1941 1897 0.5
1941 14312 0.25
1941 15732 0.25
1942 1898 1
1943 1899 0.538462
1943 16059 0.230769
1943 23390 0.230769
1944 1900 0.999993
1944 7078 1.2079e-07
1944 12601 7.00578e-06
1945 1664 0.0769231
1945 13263 0.0769231
1945 16386 0.169231
1945 25384 0.676923
1946 1901 0.928571
1946 41370 0.0714286
1947 1902 1
1948 1903 1
1949 1904 1
1950 1905 1
1951 1906 0.333333
1951 25968 0.666667
1952 1907 1
1953 1908 1
1954 1909 1
1955 1910 0.5
1955 51695 0.5
1956 1911 1
1957 1912 0.333333
1957 1913 0.333333
1957 1914 0.333333
1958 1915 1
1959 792 0.249997
1959 1916 0.250001
1959 7525 0.250001
1959 7526 0.250001
1960 12 0.333333
1960 1917 0.333333
1960 4119 0.333333
1961 1918 1
1962 1919 0.792454
1962 11231 0.169811
1962 12967 0.0188679
1962 20137 0.0188666
1963 156 0.00342202
1963 1920 0.996578
1964 1922 0.8
1964 44406 0.2
1965 1923 1
1966 1372 0.125
1966 1378 0.775
1966 4582 0.025
1966 13167 0.05
1966 15716 0.025
1967 1924 0.865385
1967 10003 0.0192308
1967 11019 0.115385
1968 1925 1
1969 1926 1
1970 197 0.000596448
1970 1927 0.999404
1971 1928 1
1972 1929 1
1973 1930 1
1974 1931 1
1975 1932 1
1976 1933 1
1977 1934 1
1978 1935 0.693548
1978 3244 0.258065
1978 10838 0.0483871
1979 1936 1
1980 156 0.000445502
1980 1937 0.999555
1981 1938 0.1
1981 25773 0.9
1982 156 5.55899e-05
1982 1939 0.999944
1983 1940 1
1984 1913 1
1985 1942 0.1
1985 20210 0.5
1985 31436 0.4
1986 1943 1
1987 1944 0.9
1987 20739 0.1
1988 1945 1
1989 1946 1
1990 197 0.00391316
1990 538 0.996087
1991 1947 1
1992 156 0.31013
1992 1948 0.68987
1993 1949 1
1994 1950 1
1995 197 0.436541
1995 1951 0.563459
1996 1952 0.047619
1996 28483 0.952381
1997 1953 1
1998 1954 0.5
1998 10874 0.5
1999 1955 1
2000 1956 1
2001 197 0.414464
2001 1958 0.585536
2002 1959 1
2003 1960 1
2004 156 1.09825e-05
2004 1961 0.999989
2005 1962 1
2006 1963 1
2007 156 0.0516433
2007 1964 0.948357
2008 1965 1
2009 1966 1
2010 197 0.018157
2010 1820 0.327281
2010 1909 0.654562
2011 1967 1
2012 1968 1
2013 1969 1
2014 1970 0.6
2014 2798 0.133333
2014 3621 0.166667
2014 4487 0.0333333
2014 5815 0.0333333
2014 9321 0.0333333
2015 156 0.149723
2015 1971 0.850277
2016 1972 1
2017 156 0.309805
2017 1973 0.690195
2018 1500 0.00561798
2018 1974 0.988764
2018 4188 0.00561798
2019 1975 1
2020 1976 0.5
2020 36774 0.5
2021 1977 1
2022 1978 1
2023 1979 0.909091
2023 14976 0.0909091
2024 1980 1
2025 156 0.000374484
2025 1981 0.999626
2026 242 0.25
2026 584 0.25
2026 1982 0.5
2027 197 0.489981
2027 1983 0.510019
2028 1958 0.166667
2028 14829 0.5
2028 35584 0.333333
2029 1984 0.025
2029 9134 0.925
2029 11513 0.05
2030 1985 1
2031 156 0.195817
2031 1986 0.804183
2032 1987 0.222222
2032 3749 0.185185
2032 9808 0.592593
2033 1988 1
2034 1989 1
2035 156 0.00317408
2035 1990 0.498413
2035 16910 0.498413
2036 1991 1
2037 1992 0.166667
2037 22232 0.666667
2037 29207 0.0833333
2037 36114 0.0833333
2038 156 0.000373753
2038 1993 0.999626
2039 1994 1
2040 156 0.0014331
2040 1995 0.998567
2041 1996 1
2042 1997 1
2043 1998 1
2044 1999 1
2045 2000 1
2046 197 0.414464
2046 2001 0.585536
2047 2002 0.625
2047 2022 0.375
2048 2003 1
2049 2004 0.166667
2049 2007 0.333333
2049 14216 0.5
2050 2005 1
2051 2006 1
2052 2008 0.333333
2052 2374 0.333333
2052 2387 0.333333
2053 2009 0.8
2053 2022 0.1
2053 4000 0.1
2054 2010 1
2055 2011 0.217391
2055 4525 0.782609
2056 2012 1
2057 2013 1
2058 2015 1
2059 2016 1
2060 2017 1
2061 2018 1
2062 2020 1
2063 2021 1
2064 2023 1
2065 2026 1
2066 2028 0.979167
2066 54263 0.0208333
2067 2029 1
2068 1403 0.025
2068 2037 0.95
2068 6872 0.025
2069 2030 0.875
2069 17414 0.125
2070 2031 1
2071 2032 1
2072 2033 0.842857
2072 8352 0.157143
2073 2034 0.555556
2073 10627 0.444444
2074 2035 1
2075 2036 1
2076 2038 1
2077 2039 1
2078 2040 1
2079 570 0.012987
2079 813 0.805195
2079 3686 0.00649351
2079 6288 0.142857
2079 11236 0.00649349
2079 31043 0.025974
2080 672 1
2081 2041 1
2082 2042 0.5
2082 13354 0.5
2083 2043 1
2084 2044 1
2085 2045 1
2086 2046 1
2087 2047 1
2088 1783 1
2089 304 0.5
2089 10424 0.416667
2089 54466 0.0833333
2090 2045 0.0766541
2090 4368 0.816896
2090 52301 0.10645
2091 2037 0.428571
2091 2050 0.428571
2091 8551 0.142857
2092 24 1
2093 2051 1
2094 465 1
2095 12601 0.480129
2095 12677 0.519871
2096 2052 1
2097 2053 1
2098 2054 1
2099 2055 1
2100 2056 1
2101 2057 1
2102 2058 0.5
2102 5389 0.5
2103 181 0.992
2103 10611 0.008
2104 2059 0.949153
2104 3907 0.0169491
2104 5276 0.0169491
2104 18263 0.0169491
2105 886 0.0833333
2105 2060 0.0833333
2105 13238 0.0833333
2105 17960 0.416667
2105 24845 0.0833333
2105 35689 0.25
2106 2061 1
2107 2021 0.5
2107 4000 0.5
2108 2063 0.142857
2108 33143 0.714286
2108 39134 0.142857
2109 288 0.421434
2109 4182 0.565925
2109 8053 0.0126101
2109 12977 3.071e-05
2110 2064 1
2111 2065 0.2
2111 40449 0.8
2112 2066 0.5
2112 49546 0.5
2113 2067 1
2114 2070 0.0434783
2114 6676 0.956522
2115 2071 1
2116 2072 1
2117 2073 1
2118 2074 0.923077
2118 3264 0.0769231
2119 2075 1
2120 2076 0.111111
2120 4128 0.666667
2120 35478 0.222222
2121 2077 1
2122 2078 0.920635
2122 11031 0.0793651
2123 2079 1
2124 2082 0.833333
2124 26788 0.166667
2125 2083 1
2126 2070 0.833333
2126 10489 0.166667
2127 2084 0.0238095
2127 3041 0.238095
2127 5877 0.690476
2127 13849 0.047619
2128 2085 1
2129 2086 1
2130 2087 1
2131 2088 1
2132 2089 0.25
2132 2090 0.25
2132 2091 0.25
2132 2092 0.25
2133 346 0.25006
2133 792 0.249977
2133 2090 0.499962
2134 346 1
2135 175 0.333333
2135 2093 0.333333
2135 2094 0.333333
2136 115 0.04
2136 2085 0.96
2137 2086 1
2138 107 0.499979
2138 424 0.500021
2139 106 0.499993
2139 107 1.34289e-05
2139 2096 0.249997
2139 2097 0.249997
2140 2098 0.1
2140 5720 0.9
2141 107 1
2142 2099 1
2143 1487 1
2144 2100 1
2145 2090 1
2146 156 0.000451535
2146 2101 0.999548
2147 2085 0.43473
2147 2086 0.391378
2147 6868 0.173892
2148 156 0.310094
2148 2088 0.689906
2149 2102 1
2150 2091 1
2151 197 0.472691
2151 2103 0.527309
2152 2104 1
2153 2105 1
2154 2106 1
2155 2107 1
2156 2108 1
2157 2109 1
2158 197 0.472691
2158 2110 0.527309
2159 2111 1
2160 2112 0.769231
2160 8807 0.230769
2161 2113 1
2162 1271 0.197697
2162 2114 0.601727
2162 4454 0.200576
2163 2115 1
2164 106 0.985851
2164 1271 0.0141486
2165 896 1
2166 156 0.00342195
2166 2103 0.996578
2167 2116 1
2168 107 0.336318
2168 197 0.327363
2168 2117 0.336318
2169 25 0.333355
2169 2118 0.333355
2169 10472 0.33329
2170 80 0.5
2170 670 0.5
2171 2119 1
2172 72 1
2173 2120 1
2174 107 0.333804
2174 197 0.332391
2174 2091 0.333805
2175 2121 1
2176 2123 1
2177 792 0.296746
2177 2090 0.395662
2177 2124 0.307593
2178 2124 0.470996
2178 2125 0.529004
2179 2126 0.5
2179 20368 0.5
2180 2107 1
2181 2127 1
2182 2128 1
2183 197 0.414464
2183 2129 0.585536
2184 2130 1
2185 2131 1
2186 2132 1
2187 2133 1
2188 2134 1
2189 2135 1
2190 2136 1
2191 2137 0.846154
2191 21841 0.153846
2192 212 1
2193 2138 1
2194 2139 1
2195 2140 1
2196 2141 1
2197 197 0.000596448
2197 2142 0.999404
2198 2143 1
2199 156 1.09841e-05
2199 2144 0.999989
2200 2145 1
2201 2146 1
2202 2147 1
2203 2148 1
2204 2129 1
2205 2149 1
2206 2151 0.75
2206 5474 0.25
2207 2096 0.5
2207 3637 0.5
2208 2097 0.875
2208 21505 0.125
2209 2098 1
2210 197 0.478543
2210 2101 0.521457
2211 2152 0.466667
2211 4442 0.233333
2211 7443 0.3
2212 2153 0.2
2212 22343 0.8
2213 2147 1
2214 2148 0.5
2214 2154 0.5
2215 2155 0.5
2215 45867 0.5
2216 2156 1
2217 2157 1
2218 156 1.68616e-05
2218 2158 0.999983
2219 2159 0.888889
2219 11851 0.111111
2220 2160 1
2221 2161 0.333333
2221 8328 0.333333
2221 27592 0.333333
2222 2162 1
2223 2163 1
2224 2164 1
2225 2165 1
2226 2166 1
2227 2167 1
2228 2168 1
2229 360 0.105263
2229 494 0.105263
2229 2169 0.789474
2230 2170 1
2231 2171 1
2232 197 0.253127
2232 2085 0.373437
2232 2086 0.373437
2233 2172 1
2234 1769 0.0952381
2234 2173 0.285714
2234 2226 0.142857
2234 20568 0.047619
2234 29757 0.428571
2235 2174 1
2236 2175 1
2237 2176 1
2238 2177 1
2239 2178 1
2240 2179 1
2241 1377 1
2242 2180 0.8
2242 19455 0.2
2243 2181 1
2244 2182 1
2245 2183 1
2246 2184 1
2247 2185 1
2248 2186 1
2249 2187 1
2250 2188 0.939024
2250 9799 0.0609756
2251 2189 1
2252 2190 1
2253 2191 0.931035
2253 14776 0.0689655
2254 2192 1
2255 2193 1
2256 156 0.000451532
2256 2194 0.999548
2257 2195 0.21875
2257 12505 0.78125
2258 2196 1
2259 2197 1
2260 197 0.466711
2260 2198 0.533289
2261 2199 1
2262 2200 1
2263 2201 1
2264 2202 1
2265 2203 0.933333
2265 3382 0.0666667
2266 2204 1
2267 2205 1
2268 2206 1
2269 117 1
2270 2207 1
2271 2208 0.75
2271 47833 0.25
2272 2209 1
2273 2210 1
2274 2211 1
2275 337 0.5
2275 2090 0.5
2276 2212 1
2277 2213 1
2278 2214 1
2279 2215 0.153846
2279 2957 0.692308
2279 7406 0.0769231
2279 11336 0.0769231
2280 2216 1
2281 2217 1
2282 512 0.5
2282 2218 0.5
2283 813 1
2284 2219 1
2285 2220 1
2286 2221 1
2287 2222 0.75
2287 12221 0.0208333
2287 13552 0.208333
2287 13818 0.0208333
2288 197 0.227198
2288 2223 0.772802
2289 2224 0.75
2289 3989 0.25
2290 2086 0.000644442
2290 2225 0.999356
2291 2093 1
2292 2227 1
2293 2228 1
2294 2204 1
2295 2229 1
2296 2230 0.5
2296 29119 0.5
2297 2231 1
2298 2232 1
2299 2233 0.909091
2299 9310 0.0909091
2300 156 0.0034221
2300 2234 0.996578
2301 2235 1
2302 2236 1
2303 2237 0.5
2303 2314 0.5
2304 2238 1
2305 156 0.003422
2305 2239 0.996578
2306 2240 0.0357143
2306 5823 0.125
2306 13389 0.107143
2306 28886 0.732143
2307 197 0.454406
2307 2241 0.545594
2308 2242 0.5
2308 2243 0.5
2309 2244 1
2310 2245 0.5
2310 2246 0.5
2311 2248 0.9375
2311 18341 0.0625
2312 2249 0.959459
2312 2282 0.0405405
2313 2250 1
2314 2251 1
2315 2252 1
2316 2253 0.333333
2316 23224 0.666667
2317 2254 1
2318 512 0.333333
2318 1187 0.333333
2318 2255 0.333333
2319 2256 1
2320 2257 0.333333
2320 2273 0.333333
2320 2274 0.333333
2321 1805 0.0666667
2321 2258 0.866667
2321 10631 0.0666667
2322 2242 1
2323 2243 1
2324 2259 1
2325 2260 0.970732
2325 10301 0.0292683
2326 2261 1
2327 2262 1
2328 555 0.333333
2328 2263 0.666667
2329 2264 1
2330 2246 1
2331 197 0.000596439
2331 2265 0.999404
2332 2266 0.7
2332 8342 0.3
2333 2267 1
2334 2268 0.976744
2334 2851 0.0232558
2335 1608 0.565574
2335 2269 0.278689
2335 4514 0.0163934
2335 9011 0.0327869
2335 10825 0.0163934
2335 12685 0.0737705
2335 27478 0.00819672
2335 44134 0.00819669
2336 2270 1
2337 2271 0.951807
2337 7981 0.0361446
2337 45535 0.0120482
2338 2272 1
2339 2276 0.5
2339 5450 0.5
2340 2253 0.964286
2340 23224 0.0238095
2340 25950 0.0119048
2341 156 0.0561127
2341 2277 0.943887
2342 2278 0.837209
2342 2377 0.162791
2343 2279 1
2344 197 0.484308
2344 2280 0.515692
2345 2281 1
2346 2282 0.972603
2346 54009 0.0273973
2347 2283 0.846154
2347 9760 0.153846
2348 2284 1
2349 2285 1
2350 2286 1
2351 2287 0.666667
2351 8288 0.166667
2351 19298 0.166667
2352 2288 0.333333
2352 36723 0.666667
2353 2289 1
2354 156 3.76892e-05
2354 2290 0.999962
2355 156 0.194883
2355 2291 0.805117
2356 2292 1
2357 2293 1
2358 2294 1
2359 2295 1
2360 2296 1
2361 2297 0.5
2361 8236 0.5
2362 1293 1
2363 2298 0.860465
2363 10229 0.116279
2363 10240 0.0232558
2364 2299 1
2365 156 0.000182901
2365 2300 0.999817
2366 2301 1
2367 2302 1
2368 2303 1
2369 2304 1
2370 2305 0.25
2370 27809 0.75
2371 2306 0.470588
2371 4442 0.117647
2371 27150 0.411765
2372 792 0.0624875
2372 2262 0.875012
2372 6288 0.0625008
2373 2307 1
2374 2308 1
2375 2309 1
2376 2310 1
2377 2311 1
2378 2312 1
2379 2313 1
2380 2315 1
2381 2316 1
2382 2317 1
2383 2318 1
2384 364 1
2385 2274 1
2386 2243 1
2387 2319 1
2388 2320 1
2389 2321 1
2390 2322 0.818182
2390 13602 0.181818
2391 2323 1
2392 197 0.00133607
2392 2325 0.998664
2393 2326 1
2394 2327 0.964286
2394 4136 0.0357143
2395 2328 0.2
2395 4137 0.3
2395 26813 0.3
2395 36902 0.2
2396 2002 0.333333
2396 2329 0.333333
2396 2330 0.333333
2397 2332 1
2398 2333 0.666667
2398 11723 0.333333
2399 2334 0.833333
2399 11724 0.166667
2400 2330 1
2401 2335 0.894737
2401 9702 0.105263
2402 2336 1
2403 2337 0.851852
2403 8844 0.037037
2403 10640 0.111111
2404 1309 0.895349
2404 4920 0.0116279
2404 10775 0.0232558
2404 17445 0.0348837
2404 17481 0.0116279
2404 24612 0.0232558
2405 2338 0.970588
2405 25186 0.0294118
2406 2339 1
2407 2341 0.966667
2407 11144 0.0333333
2408 2342 1
2409 2343 0.916667
2409 10996 0.0833333
2410 2344 1
2411 2345 0.866667
2411 47819 0.0333333
2411 51293 0.1
2412 2346 1
2413 2347 1
2414 555 0.285714
2414 2349 0.285714
2414 11114 0.428571
2415 2350 1
2416 2351 1
2417 2352 1
2418 2353 1
2419 2354 1
2420 2355 1
2421 2356 1
2422 2357 0.5
2422 9881 0.0625
2422 50896 0.0625
2422 51533 0.3125
2422 55200 0.0625
2423 2358 0.715028
2423 12737 0.141967
2423 13011 0.143005
2424 1679 2.14335e-05
2424 2180 0.959329
2424 4286 0.00812991
2424 19455 0.0243897
2424 25181 0.00812968
2425 2360 1
2426 2361 1
2427 2362 1
2428 2363 1
2429 2364 1
2430 2365 0.928571
2430 21415 0.0714286
2431 2366 1
2432 2367 1
2433 2368 1
2434 2369 0.2
2434 40075 0.8
2435 2370 1
2436 538 0.333333
2436 2371 0.333333
2436 2372 0.333333
2437 2373 1
2438 2375 1
2439 2376 1
2440 2378 0.833333
2440 10728 0.166667
2441 2379 1
2442 2380 0.333333
2442 36613 0.666667
2443 2381 1
2444 564 0.0769231
2444 2382 0.923077
2445 2383 0.333333
2445 31231 0.666667
2446 2384 1
2447 2385 0.666667
2447 35442 0.333333
2448 2386 1
2449 2388 0.5
2449 18474 0.5
2450 1374 0.980769
2450 51023 0.0192308
2451 2389 1
2452 2390 1
2453 2391 0.837838
2453 9751 0.0810811
2453 29521 0.0810811
2454 2392 1
2455 1037 0.985075
2455 19000 0.0149253
2456 197 0.00114943
2456 2054 0.998851
2457 288 0.28246
2457 1891 0.35877
2457 2393 0.35877
2458 288 0.175392
2458 2394 0.824608
2459 2395 1
2460 2396 1
2461 2397 1
2462 2398 1
2463 2399 0.5
2463 2400 0.5
2464 2247 0.0294117
2464 2401 0.647059
2464 3725 0.0588235
2464 3726 0.0294117
2464 5067 0.235294
2465 2402 0.5
2465 36809 0.5
2466 2403 1
2467 2404 1
2468 2405 1
2469 2393 0.542857
2469 8848 0.428571
2469 12754 0.0285714
2470 2406 1
2471 2407 1
2472 2408 0.714286
2472 51499 0.285714
2473 2409 1
2474 2410 0.5
2474 39811 0.5
2475 2411 1
2476 2412 1
2477 2413 1
2478 2414 1
2479 2415 1
2480 27 0.199968
2480 792 0.200007
2480 2416 0.600025
2481 2417 0.75
2481 28214 0.25
2482 2418 1
2483 2419 1
2484 2420 1
2485 2421 1
2486 2422 1
2487 442 1
2488 2423 1
2489 2424 0.891892
2489 52986 0.108108
2490 2425 1
2491 2426 1
2492 2427 1
2493 2428 0.5
2493 2429 0.5
2494 2430 0.047619
2494 4385 0.857143
2494 15360 0.047619
2494 15411 0.047619
2495 332 1
2496 27 0.499731
2496 2403 0.500269
2497 2431 1
2498 2432 1
2499 2433 1
2500 2434 1
2501 2435 1
2502 2436 1
2503 2437 0.985294
2503 11326 0.0147059
2504 2438 1
2505 2439 0.666667
2505 21306 0.166667
2505 25681 0.166667
2506 2440 0.5
2506 27423 0.5
2507 2441 1
2508 2442 1
2509 107 1
2510 2443 1
2511 2444 1
2512 2445 0.2
2512 42358 0.8
2513 2447 1
2514 2448 1
2515 2449 1
2516 2450 1
2517 2451 1
2518 2452 1
2519 2453 1
2520 2454 0.0925926
2520 3647 0.888889
2520 8072 0.0185185
2521 2455 0.6875
2521 14457 0.3125
2522 2456 1
2523 2400 1
2524 2457 1
2525 2458 1
2526 2459 1
2527 2460 0.428571
2527 7919 0.142857
2527 35927 0.142857
2527 41627 0.285714
2528 2461 1
2529 2462 1
2530 2463 1
2531 2464 1
2532 2465 1
2533 827 1
2534 2466 1
2535 2467 1
2536 638 0.911765
2536 2468 0.0294118
2536 14838 0.0294118
2536 15603 0.0294117
2537 2469 1
2538 2470 1
2539 2471 0.942308
2539 9872 0.0480769
2539 31454 0.00961538
2540 2472 1
2541 2429 1
2542 2473 1
2543 770 0.250048
2543 2474 0.749952
2544 2475 0.5
2544 2476 0.5
2545 2477 1
2546 2478 1
2547 2479 1
2548 2480 1
2549 2475 1
2550 2481 1
2551 2482 1
2552 2476 1
2553 2483 0.785931
2553 3857 0.0261977
2553 12665 0.00448706
2553 13444 0.104791
2553 20009 0.0523954
2553 26064 0.0261977
2554 2484 1
2555 2486 1
2556 2487 1
2557 751 1
2558 2488 1
2559 2489 1
2560 2491 1
2561 2492 1
2562 2493 1
2563 2494 1
2564 2495 1
2565 2496 1
2566 2497 0.916667
2566 18233 0.0833333
2567 2498 0.666667
2567 35577 0.333333
2568 2499 0.983871
2568 3201 0.016129
2569 2500 1
2570 2501 1
2571 2502 0.888889
2571 12630 0.111111
2572 2503 0.333333
2572 30970 0.666667
2573 2504 1
2574 2505 1
2575 2506 1
2576 770 1
2577 2507 0.857143
2577 11130 0.142857
2578 2508 1
2579 2509 0.956522
2579 43969 0.0434783
2580 2510 1
2581 2511 0.913793
2581 28865 0.0862069
2582 2512 1
2583 2513 1
2584 2514 1
2585 2515 1
2586 2516 1
2587 2517 1
2588 2518 1
2589 2519 0.794118
2589 5828 0.0294117
2589 9692 0.176471
2590 2520 1
2591 2521 1
2592 2522 1
2593 2523 1
2594 2524 1
2595 2525 1
2596 2526 1
2597 2527 1
2598 2528 1
2599 2529 1
2600 2530 1
2601 2531 1
2602 813 0.00222665
2602 2532 0.997773
2603 2533 1
2604 2534 1
2605 2535 1
2606 2536 1
2607 2537 1
2608 2538 1
2609 2539 1
2610 2540 0.333333
2610 46401 0.666667
2611 2541 0.9
2611 3314 0.1
2612 2133 1
2613 2543 1
2614 2544 1
2615 2545 1
2616 2546 1
2617 2547 1
2618 2549 0.272727
2618 5696 0.727273
2619 1094 1
2620 2550 0.5
2620 39742 0.5
2621 1351 0.2
2621 2551 0.8
2622 2552 1
2623 2553 1
2624 2554 1
2625 2555 0.952381
2625 36014 0.047619
2626 2556 1
2627 2557 0.125
2627 13101 0.5
2627 33139 0.375
2628 2558 1
2629 2559 0.999902
2629 2592 9.80476e-05
2630 2560 0.999608
2630 2592 0.00039225
2631 2561 0.941176
2631 12626 0.0588235
2632 2562 0.5
2632 2563 0.5
2633 2559 1
2634 2563 1
2635 2564 1
2636 2565 0.529412
2636 3294 0.458824
2636 47781 0.0117647
2637 2566 1
2638 2567 0.894737
2638 10458 0.105263
2639 2568 1
2640 2569 0.692308
2640 10877 0.0769231
2640 12706 0.0769229
2640 12707 0.153846
2641 2570 1
2642 2571 1
2643 2572 0.285714
2643 12798 0.428571
2643 32156 0.285714
2644 2573 1
2645 2574 1
2646 2575 1
2647 2576 1
2648 2577 1
2649 2578 1
2650 2579 1
2651 2580 1
2652 2581 1
2653 143 1
2654 2122 0.165425
2654 2582 0.834575
2655 1072 0.250043
2655 3135 0.249864
2655 12939 8.10096e-06
2655 14187 0.125021
2655 30905 0.375064
2656 2583 1
2657 2571 0.923077
2657 10982 0.0769231
2658 2584 1
2659 2585 1
2660 2586 1
2661 2587 1
2662 2588 1
2663 156 0.396207
2663 197 0.200988
2663 2589 0.402806
2664 2590 1
2665 2591 0.76087
2665 20418 0.0217391
2665 20427 0.0217391
2665 20540 0.152174
2665 23810 0.0217391
2665 51838 0.0217391
2666 2592 1
2667 2593 1
2668 2594 1
2669 2595 0.923077
2669 27986 0.0769231
2670 2596 1
2671 2597 1
2672 2598 1
2673 2599 0.833333
2673 51886 0.166667
2674 2600 1
2675 2601 1
2676 2602 1
2677 2603 1
2678 2604 1
2679 2605 1
2680 2295 1
2681 2592 0.0202849
2681 2606 0.95887
2681 8827 0.020845
2682 2607 0.428571
2682 2687 0.142857
2682 29345 0.428571
2683 2608 1
2684 2609 0.857143
2684 40746 0.142857
2685 2610 1
2686 2611 1
2687 2612 1
2688 2613 1
2689 2614 1
2690 2615 1
2691 2616 1
2692 2617 0.5
2692 4515 0.25
2692 6763 0.25
2693 2618 0.911111
2693 9559 0.0666667
2693 12287 0.0222222
2694 2619 1
2695 242 0.0133333
2695 2620 0.973333
2695 3614 0.0133333
2696 2621 1
2697 2622 0.030303
2697 3831 0.939394
2697 14982 0.030303
2698 2624 0.971429
2698 19282 0.0285714
2699 2625 0.6
2699 4802 0.2
2699 32684 0.2
2700 2626 1
2701 2627 0.75
2701 28271 0.25
2702 2628 1
2703 2629 1
2704 2630 1
2705 2631 1
2706 2632 1
2707 2633 1
2708 2634 1
2709 2635 1
2710 2636 1
2711 2637 1
2712 2378 0.0714286
2712 4544 0.0714286
2712 10728 0.0714286
2712 30349 0.785714
2713 2638 1
2714 2639 1
2715 27 0.499742
2715 75 0.500258
2716 2640 1
2717 2641 1
2718 2642 1
2719 2643 1
2720 2562 0.166667
2720 15138 0.166667
2720 24710 0.666667
2721 27 0.332944
2721 2563 0.333528
2721 14565 0.333528
2722 2644 0.0625
2722 11178 0.8125
2722 30220 0.125
2723 2645 0.0384615
2723 11600 0.961539
2724 7387 0.941176
2724 8868 0.0147059
2724 13532 0.0294118
2724 25056 0.0147059
2725 2646 1
2726 2617 0.111111
2726 4515 0.444444
2726 4829 0.444444
2727 2647 1
2728 2648 1
2729 2649 0.666667
2729 12991 0.333333
2730 2650 1
2731 2651 1
2732 2652 1
2733 2653 1
2734 2654 1
2735 2655 1
2736 2657 1
2737 2658 1
2738 2659 1
2739 2660 0.0181818
2739 6551 0.818182
2739 14323 0.0181818
2739 16745 0.0727273
2739 25936 0.0181818
2739 33803 0.0545455
2740 2661 1
2741 2662 1
2742 2663 1
2743 2664 1
2744 792 0.333318
2744 2559 0.333341
2744 2665 0.333341
2745 2666 1
2746 2667 0.794019
2746 6175 0.198505
2746 13193 3.1011e-05
2746 13840 0.00744551
2747 2668 1
2748 2669 1
2749 2670 1
2750 2671 1
2751 2673 1
2752 2674 1
2753 2675 1
2754 2676 1
2755 2677 1
2756 2678 0.166667
2756 5882 0.666667
2756 30658 0.166667
2757 2680 1
2758 2681 1
2759 896 0.111111
2759 2682 0.777778
2759 32879 0.111111
2760 2683 1
2761 2684 1
2762 2685 1
2763 2686 1
2764 2687 0.875
2764 15480 0.125
2765 1120 0.189189
2765 2688 0.0810811
2765 5192 0.662162
2765 10457 0.0675676
2766 2689 1
2767 2690 1
2768 2691 1
2769 2692 1
2770 2693 0.909091
2770 22768 0.0909091
2771 2694 1
2772 2695 1
2773 2696 1
2774 1185 1
2775 2697 1
2776 2698 1
2777 2699 1
2778 603 1
2779 27 0.124925
2779 2700 0.875075
2780 2701 1
2781 2702 1
2782 2703 1
2783 2704 0.875
2783 35685 0.125
2784 2705 1
2785 2706 1
2786 2707 1
2787 242 0.7
2787 2708 0.3
2788 2709 0.25
2788 8241 0.5
2788 34382 0.25
2789 2710 1
2790 2711 1
2791 2712 0.992501
2791 13344 0.00749905
2792 2713 1
2793 2714 0.947368
2793 9673 0.0526316
2794 2715 1
2795 2716 1
2796 2717 1
2797 2718 1
2798 2719 1
2799 2720 1
2800 2721 1
2801 2722 1
2802 2723 0.925926
2802 9891 0.0740741
2803 607 0.356347
2803 619 0.0919606
2803 2724 0.540197
2803 16339 0.0114951
2804 2725 0.25
2804 4135 0.75
2805 2057 0.0833333
2805 2726 0.916667
2806 2271 0.04
2806 2727 0.8
2806 5440 0.04
2806 18346 0.106667
2806 31280 0.0133333
2807 2728 1
2808 2729 0.9
2808 29841 0.1
2809 2730 0.75
2809 7180 0.25
2810 2731 1
2811 2732 1
2812 2733 1
2813 2734 1
2814 368 1
2815 2735 1
2816 2737 1
2817 2738 1
2818 2739 1
2819 27 0.000238187
2819 2740 0.315714
2819 15381 0.57881
2819 16628 0.105238
2820 2195 0.0625
2820 2741 0.9375
2821 1575 0.0072464
2821 2542 0.471016
2821 2742 0.427537
2821 2987 0.0652176
2821 3184 0.0072464
2821 7193 0.00724398
2821 10032 0.00724624
2821 12890 0.00724625
2822 2743 0.873418
2822 5409 0.101266
2822 17774 0.0126581
2822 29520 0.0126582
2823 2744 0.853659
2823 8296 0.0121951
2823 21296 0.0731707
2823 51266 0.0609756
2824 2745 0.976724
2824 13892 0.0232552
2824 14335 2.10291e-05
2825 1026 0.0217391
2825 2746 0.478261
2825 5897 0.0217391
2825 11245 0.0217391
2825 17278 0.0652174
2825 28851 0.152174
2825 32339 0.23913
2826 2747 1
2827 2748 1
2828 2749 1
2829 2750 0.25
2829 33358 0.25
2829 50722 0.25
2829 53912 0.25
2830 2751 1
2831 2752 1
2832 1478 1
2833 2753 1
2834 2755 1
2835 2756 1
2836 1236 0.111111
2836 5798 0.111111
2836 9572 0.777778
2837 2757 0.5
2837 30826 0.5
2838 2758 1
2839 2759 1
2840 2760 1
2841 2761 1
2842 2762 1
2843 2763 1
2844 2764 1
2845 2765 0.958333
2845 12962 0.0416666
2846 2766 1
2847 2767 1
2848 2768 1
2849 2769 1
2850 2770 1
2851 35 0.0833334
2851 792 0.0833329
2851 32806 0.0833334
2851 50643 0.583334
2851 52265 0.0833334
2851 52266 0.0833334
2852 2771 1
2853 2774 0.0370369
2853 4218 0.962963
2854 960 1
2855 2775 1
2856 1066 0.0454545
2856 2776 0.712123
2856 3142 0.0454547
2856 3316 0.0151511
2856 3644 1.57776e-05
2856 3647 0.0151515
2856 5042 0.0151516
2856 7078 0.0303025
2856 8945 0.0151514
2856 12566 0.0151516
2856 12915 0.0303025
2856 12961 0.0151516
2856 13145 0.0151435
2856 13622 0.0151504
2856 14673 0.0151442
2857 2777 1
2858 2778 0.948718
2858 4819 0.025641
2858 13729 0.025641
2859 2779 1
2860 2780 1
2861 2781 1
2862 2782 1
2863 2783 0.820513
2863 37712 0.179487
2864 2784 1
2865 2785 0.824271
2865 28111 0.175729
2866 2786 0.772727
2866 3009 0.0454545
2866 6655 0.0909091
2866 33401 0.0454545
2866 34743 0.0454545
2867 2787 1
2868 2788 1
2869 2789 0.956522
2869 8291 0.0434783
2870 2790 1
2871 2791 1
2872 2792 0.666667
2872 11005 0.166667
2872 42502 0.166667
2873 2793 1
2874 2794 1
2875 2795 1
2876 2796 1
2877 2797 0.5
2877 19763 0.5
2878 2798 0.0833333
2878 5232 0.0166667
2878 6845 0.833333
2878 17138 0.0333333
2878 36574 0.0333333
2879 2799 1
2880 2800 0.976471
2880 6217 0.0235294
2881 2801 1
2882 2803 1
2883 2804 1
2884 24 0.142857
2884 2805 0.714286
2884 6353 0.142857
2885 27 0.0588234
2885 9364 0.647059
2885 17794 0.0588235
2885 22186 0.0588235
2885 41578 0.176471
2886 2806 0.125
2886 3854 0.875
2887 9697 1
2888 2807 1
2889 2808 1
2890 2809 0.5
2890 14995 0.5
2891 2810 0.5
2891 10939 0.5
2892 2811 0.333333
2892 2814 0.666667
2893 2812 0.5
2893 2813 0.5
2894 2814 1
2895 2815 1
2896 2816 1
2897 2817 1
2898 645 0.2
2898 2818 0.1
2898 7870 0.7
2899 2819 1
2900 2820 1
2901 2821 1
2902 2822 0.875
2902 2912 0.125
2903 2823 1
2904 2824 1
2905 2825 1
2906 2826 1
2907 2827 1
2908 2215 1
2909 2828 1
2910 424 0.0909091
2910 2829 0.0909091
2910 7699 0.818182
2911 2830 1
2912 2831 1
2913 2832 1
2914 2833 1
2915 2834 1
2916 2835 1
2917 2836 1
2918 2837 1
2919 2838 1
2920 2839 1
2921 1270 0.736842
2921 2856 0.105263
2921 38918 0.157895
2922 2840 1
2923 2178 1
2924 2841 1
2925 2842 1
2926 2843 1
2927 1834 0.263158
2927 2844 0.684211
2927 28886 0.0526316
2928 1094 0.0166667
2928 2845 0.983333
2929 2846 1
2930 2847 1
2931 2848 1
2932 2849 0.9375
2932 27482 0.0625
2933 2850 0.875
2933 3737 0.05
2933 10516 0.075
2934 2852 1
2935 2853 1
2936 2854 1
2937 2855 1
2938 2857 1
2939 2858 1
2940 2859 1
2941 2860 1
2942 2861 1
2943 2862 1
2944 2863 1
2945 2864 1
2946 2865 1
2947 27 0.199551
2947 2866 0.800449
2948 2867 1
2949 2868 1
2950 2869 1
2951 2870 1
2952 2871 0.875
2952 35372 0.125
2953 2872 0.5
2953 4178 0.5
2954 2756 0.037037
2954 2873 0.851852
2954 14908 0.111111
2955 2874 0.789474
2955 10532 0.157895
2955 19957 0.0526316
2956 2875 1
2957 2876 0.238095
2957 17102 0.142857
2957 26298 0.619048
2958 2877 0.111111
2958 7942 0.333333
2958 15061 0.222222
2958 26543 0.111111
2958 47680 0.111111
2958 49063 0.111111
2959 2124 0.98913
2959 20358 0.0108696
2960 2878 0.333333
2960 3030 0.625
2960 36053 0.0416667
2961 2879 0.588235
2961 5190 0.411765
2962 25 0.0869575
2962 2880 0.913042
2963 2881 1
2964 2882 1
2965 2884 1
2966 2885 0.666667
2966 17475 0.333333
2967 2214 0.444444
2967 2886 0.555556
2968 2888 1
2969 2889 1
2970 2890 1
2971 2891 1
2972 2892 1
2973 2893 1
2974 2894 1
2975 24 0.0914105
2975 2895 0.908589
2976 2896 1
2977 2897 1
2978 2898 1
2979 2900 1
2980 2901 0.857143
2980 10812 0.142857
2981 2902 1
2982 2903 0.733333
2982 10733 0.266667
2983 2904 0.333333
2983 36166 0.666667
2984 2905 0.333333
2984 49394 0.666667
2985 2906 1
2986 2907 0.125
2986 4760 0.25
2986 13069 0.25
2986 35650 0.125
2986 46584 0.125
2986 54335 0.125
2987 2908 0.153846
2987 17881 0.846154
2988 1304 0.0232558
2988 2909 0.976744
2989 2911 0.75
2989 10320 0.25
2990 2913 0.333333
2990 8106 0.666667
2991 2914 1
2992 1919 0.037037
2992 2915 0.0370368
2992 3281 0.925926
2993 2916 1
2994 813 0.5
2994 6288 0.5
2995 2917 1
2996 1307 1
2997 2918 1
2998 2919 1
2999 2920 1
3000 2921 1
3001 2922 0.897297
3001 3241 0.0918919
3001 5263 0.00540541
3001 46732 0.00540541
3002 24 2.21262e-06
3002 1506 0.999998
3003 2923 0.0555556
3003 3158 0.944444
3004 2924 1
3005 2925 0.5
3005 2973 0.5
3006 813 0.0625
3006 12756 0.0625
3006 18098 0.875
3007 1847 0.333333
3007 2926 0.333333
3007 2927 0.333333
3008 8 1
3009 2929 0.5
3009 11206 0.5
3010 2930 0.973684
3010 7787 0.0263158
3011 2931 0.666667
3011 54096 0.333333
3012 2932 1
3013 2933 1
3014 2934 1
3015 2935 1
3016 2936 1
3017 2937 1
3018 2938 1
3019 2940 1
3020 2941 1
3021 2942 0.783333
3021 7214 0.216667
3022 126 0.954545
3022 19835 0.0454545
3023 2943 1
3024 2944 1
3025 2945 1
3026 2946 0.666667
3026 14476 0.333333
3027 792 0.181813
3027 2947 0.545458
3027 3163 0.0909096
3027 49396 0.0909096
3027 49397 0.0909096
3028 2948 1
3029 2949 1
3030 2950 1
3031 2951 0.8
3031 29702 0.2
3032 2952 1
3033 2953 1
3034 2954 0.55
3034 32470 0.45
3035 2955 0.821918
3035 8022 0.178082
3036 2956 1
3037 2958 1
3038 2959 1
3039 2960 0.333333
3039 12405 0.666667
3040 2961 1
3041 2962 1
3042 2963 1
3043 2964 1
3044 2965 1
3045 2966 1
3046 2967 1
3047 2968 1
3048 2970 1
3049 2971 1
3050 2972 1
3051 2974 0.0769231
3051 6870 0.923077
3052 4 0.5
3052 2745 0.5
3053 2975 1
3054 2977 1
3055 2978 0.898551
3055 4036 0.0869565
3055 47098 0.0144928
3056 2979 1
3057 2980 1
3058 2981 1
3059 2982 1
3060 2984 1
3061 27 0.499733
3061 2985 0.500267
3062 2986 1
3063 2978 0.5
3063 2987 0.5
3064 2988 0.122391
3064 3281 0.000471168
3064 5245 0.775145
3064 23006 0.0611956
3064 52201 0.0203985
3064 54904 0.0203985
3065 2989 1
3066 2990 1
3067 2991 1
3068 2992 1
3069 2993 0.666667
3069 40594 0.333333
3070 2994 1
3071 2995 0.142857
3071 25312 0.571429
3071 38850 0.285714
3072 2996 0.333333
3072 8693 0.333333
3072 46227 0.333333
3073 2997 1
3074 2998 1
3075 2999 1
3076 3000 1
3077 302 0.0117647
3077 3001 0.988235
3078 3002 1
3079 3003 1
3080 3004 1
3081 3005 1
3082 3006 1
3083 3007 1
3084 3009 1
3085 1425 1
3086 663 0.0138889
3086 1207 0.972222
3086 9267 0.0138889
3087 717 0.0436681
3087 3010 0.956332
3088 3011 1
3089 3012 1
3090 3013 1
3091 1593 0.025641
3091 3014 0.538462
3091 4207 0.384615
3091 11554 0.025641
3091 18988 0.025641
3092 3015 1
3093 3016 1
3094 3017 1
3095 3018 1
3096 3019 1
3097 3020 1
3098 3022 1
3099 3023 1
3100 108 0.807692
3100 3024 0.0384615
3100 8093 0.0192308
3100 9392 0.134615
3101 3025 1
3102 1489 0.953424
3102 12318 0.035312
3102 13212 0.0112638
3103 3026 1
3104 1266 1
3105 3027 1
3106 3028 1
3107 3029 1
3108 3031 1
3109 3032 1
3110 3033 1
3111 3034 1
3112 3035 1
3113 3036 1
3114 3037 1
3115 3038 0.5
3115 16814 0.125
3115 26559 0.25
3115 49377 0.125
3116 3039 1
3117 3040 1
3118 345 0.499997
3118 3042 5.31311e-06
3118 3046 0.499997
3119 3042 0.204182
3119 3043 0.202527
3119 3044 0.184923
3119 3051 0.408368
3120 3043 0.00261624
3120 3044 0.0304048
3120 3045 0.966979
3121 313 0.7
3121 3102 0.2
3121 47736 0.1
3122 738 0.666667
3122 6109 0.333333
3123 3047 1
3124 3048 1
3125 3049 1
3126 3050 0.666667
3126 52233 0.333333
3127 3052 1
3128 3053 1
3129 3054 1
3130 3042 1
3131 3055 0.285714
3131 4428 0.714286
3132 3056 1
3133 3057 1
3134 3058 1
3135 3059 1
3136 3060 1
3137 3061 1
3138 3062 1
3139 3063 1
3140 3064 1
3141 3065 0.0434783
3141 7529 0.956522
3142 3066 1
3143 3067 1
3144 3068 1
3145 3069 0.705882
3145 51992 0.294118
3146 27 0.499702
3146 3070 0.500298
3147 3071 1
3148 3072 1
3149 3073 1
3150 3074 1
3151 1059 0.166667
3151 2062 0.666667
3151 3075 0.166667
3152 3076 1
3153 3077 1
3154 3078 0.888889
3154 55345 0.111111
3155 3080 0.857143
3155 11392 0.142857
3156 3081 1
3157 3082 1
3158 3083 0.0227273
3158 3467 0.863636
3158 9059 0.0227272
3158 10934 0.0227273
3158 34035 0.0227273
3158 35771 0.0454545
3159 3084 0.787879
3159 13324 0.121212
3159 33864 0.0606061
3159 52241 0.030303
3160 3085 0.333333
3160 13641 0.666667
3161 3086 1
3162 3087 1
3163 3088 1
3164 3062 1
3165 3089 1
3166 3090 1
3167 3091 0.5
3167 33411 0.5
3168 3092 1
3169 3093 1
3170 3094 1
3171 3095 1
3172 3096 1
3173 3097 1
3174 3098 1
3175 3099 1
3176 219 0.333333
3176 3100 0.666667
3177 27 0.499724
3177 3101 0.500276
3178 3103 1
3179 3104 1
3180 3105 1
3181 3106 1
3182 3107 1
3183 3108 1
3184 3109 1
3185 3110 1
3186 3111 1
3187 3112 1
3188 3113 1
3189 3114 1
3190 3115 1
3191 3116 0.2
3191 53116 0.8
3192 3117 1
3193 3118 0.5
3193 11102 0.5
3194 3119 1
3195 3120 0.973684
3195 13063 0.0263158
3196 3122 1
3197 12 0.141147
3197 3123 0.715711
3197 9810 0.143142
3198 3124 1
3199 3125 1
3200 3126 1
3201 3127 1
3202 3128 1
3203 3129 1
3204 3130 1
3205 3131 1
3206 3132 1
3207 3133 1
3208 3134 0.904762
3208 10353 0.047619
3208 12641 0.047619
3209 3135 1
3210 3136 1
3211 3138 0.4
3211 3157 0.6
3212 3139 1
3213 3140 1
3214 3141 1
3215 3143 1
3216 3144 1
3217 3145 0.307692
3217 17605 0.692308
3218 3146 1
3219 3147 0.935484
3219 3787 0.0645161
3220 3148 1
3221 3149 1
3222 3150 1
3223 3151 0.9375
3223 18378 0.0625
3224 3152 1
3225 3153 1
3226 3154 1
3227 3155 1
3228 3156 0.333333
3228 23798 0.666667
3229 2245 1
3230 3160 0.8
3230 12736 0.2
3231 3161 1
3232 3162 1
3233 3164 1
3234 3165 1
3235 3166 0.363636
3235 16218 0.272727
3235 25670 0.0909091
3235 30489 0.272727
3236 3065 0.889568
3236 10346 0.0988409
3236 12894 0.0115909
3237 3167 0.210526
3237 4255 0.0526316
3237 14419 0.736842
3238 3168 1
3239 3169 0.99961
3239 12736 0.0003898
3240 3170 1
3241 3171 1
3242 3172 1
3243 2184 1
3244 3173 1
3245 3174 1
3246 3117 1
3247 3175 1
3248 3176 1
3249 3177 1
3250 3178 1
3251 3179 1
3252 3180 1
3253 3181 1
3254 3182 1
3255 3183 1
3256 3184 0.87234
3256 28203 0.12766
3257 3185 1
3258 3186 1
3259 3187 1
3260 3188 0.888889
3260 6441 0.111111
3261 1805 0.037037
3261 7815 0.888889
3261 12430 0.037037
3261 34308 0.037037
3262 3189 1
3263 3190 1
3264 3191 1
3265 3192 1
3266 3193 0.648573
3266 3194 0.351427
3267 3194 0.102767
3267 3195 0.897233
3268 3196 0.96
3268 22658 0.04
3269 3197 1
3270 3198 1
3271 3199 1
3272 3200 1
3273 3202 1
3274 3203 1
3275 3204 0.642857
3275 35768 0.357143
3276 3205 1
3277 3206 1
3278 3207 1
3279 3208 1
3280 3209 1
3281 3210 1
3282 3211 1
3283 3212 1
3284 3213 1
3285 3215 1
3286 3216 1
3287 3217 1
3288 3218 0.975
3288 28119 0.025
3289 3219 1
3290 3220 0.9
3290 11170 0.1
3291 3221 0.5
3291 3222 0.5
3292 202 0.333334
3292 3223 0.333334
3292 3224 0.333333
3293 3226 1
3294 3227 1
3295 1559 0.02
3295 13203 0.5
3295 19974 0.38
3295 36742 0.02
3295 38682 0.06
3295 53879 0.02
3296 3228 1
3297 3229 0.666667
3297 22444 0.333333
3298 3230 1
3299 3231 1
3300 3232 1
3301 3233 1
3302 3234 1
3303 3235 1
3304 3236 0.5
3304 35183 0.5
3305 378 0.993277
3305 3238 0.00672293
3306 3239 1
3307 3240 1
3308 2922 0.0526316
3308 3241 0.921053
3308 28040 0.0263158
3309 554 0.2
3309 3221 0.2
3309 50657 0.2
3309 51112 0.2
3309 52126 0.2
3310 3222 0.954545
3310 12767 0.0454545
3311 229 0.500322
3311 2647 0.499678
3312 3242 1
3313 3243 1
3314 1935 0.0212766
3314 3244 0.404255
3314 5179 0.0212766
3314 7142 0.0212766
3314 8406 0.0212766
3314 11576 0.0425532
3314 12075 0.0212766
3314 12813 0.0212766
3314 19299 0.106383
3314 22556 0.191489
3314 30779 0.12766
3315 3245 0.0833333
3315 9708 0.916667
3316 1646 0.918256
3316 4591 0.0816227
3316 13212 0.000121644
3317 3246 0.888889
3317 18691 0.111111
3318 3247 0.854839
3318 8432 0.145161
3319 1912 0.785714
3319 2542 0.0714286
3319 10871 0.142857
3320 3249 0.0434783
3320 19146 0.956522
3321 3250 0.8
3321 10005 0.2
3322 3251 1
3323 3252 1
3324 1548 0.0344755
3324 3253 0.241381
3324 12981 0.034483
3324 28998 0.0344829
3324 32418 0.655177
3325 3254 0.423077
3325 6064 0.5
3325 7137 0.0384615
3325 52008 0.0384615
3326 3255 0.928571
3326 51914 0.0714286
3327 3256 0.25
3327 39725 0.75
3328 3257 1
3329 3258 1
3330 2399 0.75
3330 12302 0.25
3331 1084 0.992908
3331 34203 0.0070922
3332 3259 1
3333 1954 0.6
3333 10874 0.2
3333 36491 0.2
3334 3260 0.0243902
3334 12915 0.756098
3334 21699 0.0731707
3334 26430 0.121951
3334 42189 0.0243902
3335 3261 1
3336 3262 1
3337 3263 1
3338 3265 0.893617
3338 11559 0.0212766
3338 19324 0.0212766
3338 39506 0.0638298
3339 3266 0.96875
3339 23067 0.03125
3340 3267 0.0555556
3340 11331 0.0555556
3340 28849 0.722222
3340 47455 0.0555556
3340 47494 0.111111
3341 3268 1
3342 3026 0.125
3342 3269 0.875
3343 3270 0.255319
3343 8045 0.744681
3344 3271 0.166667
3344 8156 0.833333
3345 3272 1
3346 3273 0.666667
3346 21588 0.333333
3347 3274 0.933333
3347 26053 0.0666667
3348 3275 1
3349 3276 1
3350 3277 1
3351 3278 1
3352 3279 0.125
3352 34838 0.875
3353 3280 0.957447
3353 10656 0.0425532
3354 3282 1
3355 3283 1
3356 3284 1
3357 3285 1
3358 3286 1
3359 3287 1
3360 3288 0.333333
3360 22241 0.666667
3361 3289 1
3362 3290 1
3363 3291 1
3364 3288 1
3365 3292 1
3366 3293 1
3367 3295 0.0425532
3367 3316 0.957447
3368 3297 1
3369 3298 1
3370 3299 1
3371 792 0.333333
3371 3300 0.333333
3371 3301 0.333333
3372 3302 1
3373 27 0.142309
3373 2112 0.142948
3373 3303 0.571794
3373 53186 0.142948
3374 3304 1
3375 3305 0.970091
3375 6021 0.0271989
3375 21305 0.00270975
3376 3306 1
3377 847 1
3378 3307 0.947368
3378 23184 0.0526316
3379 3308 1
3380 3309 1
3381 3310 1
3382 3311 1
3383 3312 1
3384 3313 1
3385 3315 1
3386 3317 1
3387 3208 0.0338983
3387 3318 0.966102
3388 3319 1
3389 3320 1
3390 3321 1
3391 3322 0.8
3391 13578 0.2
3392 3323 1
3393 3324 1
3394 3325 0.941176
3394 8179 0.0588235
3395 3326 1
3396 3327 1
3397 3328 1
3398 3329 1
3399 3330 1
3400 3331 1
3401 3332 1
3402 3333 1
3403 3334 0.988235
3403 5478 0.0117647
3404 3335 1
3405 3336 1
3406 27 0.0212764
3406 213 0.978724
3407 3337 1
3408 3111 0.4
3408 10957 0.6
3409 3338 1
3410 3339 1
3411 3340 1
3412 3341 1
3413 3342 1
3414 3343 0.8
3414 19443 0.2
3415 3344 0.0833333
3415 5375 0.916667
3416 3345 1
3417 3346 0.888889
3417 3637 0.111111
3418 2094 1
3419 3347 1
3420 3348 1
3421 3349 1
3422 3350 1
3423 3351 0.5
3423 11979 0.5
3424 3352 1
3425 3353 0.774194
3425 11709 0.0322581
3425 22208 0.193548
3426 3355 1
3427 3356 1
3428 3357 1
3429 3358 1
3430 3359 0.888889
3430 49071 0.111111
3431 3360 1
3432 3361 1
3433 3362 1
3434 3363 0.454545
3434 9155 0.0909091
3434 28308 0.363636
3434 52222 0.0909091
3435 3364 1
3436 3365 1
3437 3366 1
3438 3367 1
3439 3368 1
3440 3369 0.8
3440 41319 0.2
3441 3370 1
3442 3371 0.2
3442 4015 0.2
3442 12683 0.2
3442 39920 0.4
3443 3372 1
3444 3373 1
3445 3374 1
3446 3375 0.0714286
3446 3403 0.642857
3446 36512 0.285714
3447 3376 0.866667
3447 3966 0.0666667
3447 45941 0.0666667
3448 3377 1
3449 3378 1
3450 1732 0.875
3450 7474 0.125
3451 3379 1
3452 3380 1
3453 3381 1
3454 3382 0.998366
3454 15202 0.00163443
3455 3383 1
3456 3384 1
3457 3385 1
3458 3214 1
3459 3386 0.222222
3459 12402 0.777778
3460 3387 1
3461 3388 1
3462 3389 0.0232558
3462 8685 0.930233
3462 19292 0.0465116
3463 3390 1
3464 3391 0.95
3464 10608 0.05
3465 3375 0.5
3465 3403 0.5
3466 3392 0.32
3466 21067 0.04
3466 32170 0.64
3467 3393 1
3468 3394 0.5
3468 16017 0.5
3469 3395 1
3470 3396 0.5
3470 34435 0.5
3471 3397 1
3472 3399 0.842105
3472 20571 0.105263
3472 34440 0.0526316
3473 3400 0.5
3473 28448 0.5
3474 3401 1
3475 3402 0.96
3475 13440 0.04
3476 3404 0.875
3476 9170 0.0625
3476 53052 0.0625
3477 3405 1
3478 785 0.0117647
3478 3406 0.988235
3479 3407 1
3480 3408 0.2
3480 43841 0.8
3481 3409 1
3482 3410 1
3483 3412 1
3484 3413 1
3485 3414 0.84375
3485 13346 0.03125
3485 32266 0.125
3486 3415 0.75
3486 4243 0.25
3487 3416 1
3488 3384 0.0625
3488 3417 0.9375
3489 3418 1
3490 3419 1
3491 3420 1
3492 3421 1
3493 3422 1
3494 3423 1
3495 3424 1
3496 3425 1
3497 3426 1
3498 3427 1
3499 3428 1
3500 3429 1
3501 3430 0.962963
3501 30258 0.037037
3502 3431 1
3503 3432 1
3504 3433 1
3505 3434 1
3506 3435 1
3507 156 0.00151087
3507 3436 0.998489
3508 3437 0.5
3508 10867 0.5
3509 3438 1
3510 773 1
3511 3439 1
3512 3440 1
3513 1786 0.862069
3513 35674 0.137931
3514 3441 1
3515 3442 1
3516 3443 1
3517 3445 1
3518 3446 0.954545
3518 21437 0.0454545
3519 3447 1
3520 3448 1
3521 3449 0.833333
3521 3515 0.166667
3522 3450 1
3523 3451 1
3524 3452 1
3525 3453 1
3526 3454 1
3527 3455 1
3528 3456 1
3529 3457 1
3530 3458 1
3531 3459 1
3532 3460 1
3533 3461 1
3534 3462 1
3535 3463 1
3536 3464 1
3537 3465 1
3538 3466 1
3539 3468 1
3540 3469 1
3541 3470 1
3542 3471 1
3543 3472 1
3544 3473 0.166667
3544 24925 0.833333
3545 3474 1
3546 3476 1
3547 3478 1
3548 792 0.166666
3548 3479 0.5
3548 3661 0.166667
3548 23109 0.166667
3549 3480 1
3550 3481 1
3551 3482 0.8
3551 9928 0.0666667
3551 23194 0.133333
3552 3483 1
3553 3484 0.555556
3553 9319 0.222222
3553 37597 0.222222
3554 3485 1
3555 3486 0.25
3555 26793 0.5
3555 34053 0.25
3556 3487 1
3557 3488 1
3558 3489 1
3559 3490 1
3560 3491 0.869565
3560 34115 0.0434783
3560 36317 0.0869565
3561 3492 1
3562 3493 1
3563 3494 1
3564 3496 1
3565 1738 1
3566 3497 1
3567 3498 1
3568 3499 1
3569 3500 1
3570 1533 0.833333
3570 13299 0.166667
3571 3502 1
3572 3503 1
3573 3504 1
3574 3505 1
3575 3506 1
3576 3507 1
3577 792 0.04149
3577 3508 0.95851
3578 2972 1
3579 3509 1
3580 3510 1
3581 4 1
3582 381 0.333333
3582 3511 0.333333
3582 3513 0.333333
3583 3512 0.25
3583 3517 0.75
3584 3515 1
3585 1640 0.333336
3585 3514 0.333328
3585 3516 0.333336
3586 3511 1
3587 3512 1
3588 3516 1
3589 3518 1
3590 3519 1
3591 3520 1
3592 3522 1
3593 3523 1
3594 3524 0.977273
3594 10730 0.0227273
3595 3525 1
3596 3526 0.571429
3596 51190 0.428571
3597 3513 1
3598 3514 1
3599 3527 0.5
3599 11470 0.5
3600 3528 1
3601 3529 1
3602 3530 0.735294
3602 12222 0.264706
3603 3532 0.75
3603 10811 0.25
3604 3533 1
3605 3534 1
3606 3535 1
3607 3536 1
3608 3537 1
3609 3538 1
3610 3539 0.6
3610 10607 0.4
3611 3540 1
3612 3541 1
3613 3542 0.142857
3613 6759 0.571429
3613 13307 0.285714
3614 3543 1
3615 3544 1
3616 3545 1
3617 3546 1
3618 3547 1
3619 3548 0.625
3619 12270 0.125
3619 13225 0.125
3619 27186 0.125
3620 3549 1
3621 3550 1
3622 3551 1
3623 3552 1
3624 3553 1
3625 3554 1
3626 3555 1
3627 3556 1
3628 3557 1
3629 3558 1
3630 3559 1
3631 3560 0.8
3631 20310 0.2
3632 3561 1
3633 3562 0.75
3633 10869 0.25
3634 3563 1
3635 3564 0.75
3635 25484 0.25
3636 3565 1
3637 3566 1
3638 3567 0.666667
3638 17524 0.333333
3639 3568 1
3640 3569 1
3641 3570 1
3642 3571 1
3643 3572 0.2
3643 19857 0.733333
3643 38136 0.0666667
3644 3573 1
3645 3574 0.5
3645 51879 0.5
3646 3575 1
3647 3576 1
3648 3577 1
3649 3578 1
3650 3579 1
3651 3580 0.952381
3651 8623 0.0238095
3651 13724 0.0238095
3652 3581 1
3653 3582 1
3654 3583 1
3655 3584 1
3656 3585 1
3657 3586 1
3658 3587 1
3659 3588 1
3660 3589 1
3661 3590 1
3662 24 0.333333
3662 3591 0.666667
3663 3592 1
3664 3593 1
3665 3594 1
3666 3595 1
3667 3596 1
3668 3597 1
3669 3598 1
3670 3599 1
3671 3600 1
3672 3601 1
3673 3602 0.2
3673 4951 0.8
3674 3603 0.833333
3674 7106 0.166667
3675 3604 1
3676 3605 1
3677 3606 1
3678 3607 1
3679 3608 1
3680 3100 0.368421
3680 3609 0.210526
3680 3701 0.210526
3680 4325 0.105263
3680 41230 0.105263
3681 3610 1
3682 3611 1
3683 3612 1
3684 3613 1
3685 3614 0.933333
3685 10971 0.0666667
3686 3615 1
3687 3616 1
3688 3617 1
3689 3618 1
3690 3619 0.833333
3690 36406 0.166667
3691 3620 1
3692 3621 1
3693 1375 1
3694 3622 1
3695 39 1
3696 3623 1
3697 3624 1
3698 3625 1
3699 3626 1
3700 3627 1
3701 3628 1
3702 3629 1
3703 3630 1
3704 3631 1
3705 3632 0.991898
3705 6994 0.00810159
3706 3633 1
3707 3634 1
3708 3635 0.964286
3708 23160 0.0357143
3709 3636 1
3710 3637 0.6
3710 15178 0.4
3711 3638 1
3712 3639 1
3713 3640 1
3714 3641 0.846154
3714 25054 0.153846
3715 3642 1
3716 3643 1
3717 1559 0.0476214
3717 3644 0.0475718
3717 8851 0.190486
3717 8905 0.714321
3718 90 0.00492611
3718 3645 0.689655
3718 4548 0.246305
3718 28505 0.0541872
3718 52777 0.00492611
3719 3646 1
3720 3648 1
3721 3649 1
3722 3650 1
3723 3651 1
3724 3652 1
3725 3653 0.944444
3725 12119 0.0185185
3725 51982 0.037037
3726 3654 1
3727 3655 1
3728 3656 0.142857
3728 18670 0.857143
3729 3657 1
3730 3658 1
3731 3659 1
3732 3660 1
3733 3661 1
3734 3662 1
3735 3663 0.0357143
3735 5902 0.892857
3735 43122 0.0714286
3736 3664 1
3737 3665 1
3738 3667 1
3739 3668 1
3740 3669 0.75
3740 12068 0.25
3741 3670 1
3742 3671 0.2
3742 14366 0.6
3742 54802 0.2
3743 3672 1
3744 3673 1
3745 3674 0.9
3745 28223 0.1
3746 1732 0.96
3746 7474 0.04
3747 3675 0.928572
3747 13046 0.0714285
3748 3676 1
3749 3677 1
3750 3678 0.793103
3750 7297 0.0344828
3750 13195 0.0344828
3750 52771 0.137931
3751 3679 1
3752 3680 1
3753 3681 1
3754 3682 0.5
3754 7976 0.5
3755 3683 1
3756 3684 1
3757 3685 1
3758 3686 1
3759 3687 0.8
3759 9258 0.1
3759 14261 0.1
3760 3688 1
3761 3689 1
3762 3690 1
3763 3691 1
3764 3692 1
3765 3693 0.972727
3765 10809 0.0272727
3766 3694 0.1
3766 17732 0.5
3766 28397 0.2
3766 42586 0.2
3767 27 0.124025
3767 316 0.125139
3767 24773 0.750836
3768 3695 0.5
3768 4905 0.0416667
3768 16286 0.0416667
3768 23296 0.0416667
3768 37980 0.0416667
3768 39564 0.333333
3769 3696 1
3770 3697 1
3771 3698 0.631579
3771 8992 0.263158
3771 51047 0.105263
3772 3699 1
3773 3700 0.666667
3773 7286 0.333333
3774 3702 1
3775 3703 1
3776 3704 0.333333
3776 42339 0.666667
3777 3705 0.5
3777 53753 0.5
3778 3706 1
3779 3707 0.5
3779 3708 0.5
3780 3709 1
3781 3710 1
3782 3711 1
3783 3712 1
3784 3713 0.5
3784 8967 0.5
3785 3714 1
3786 3715 1
3787 3716 1
3788 3717 1
3789 3718 1
3790 3719 1
3791 3720 1
3792 2591 0.857143
3792 10732 0.142857
3793 3721 0.5
3793 3722 0.5
3794 3723 1
3795 3721 1
3796 3724 1
3797 3725 0.888889
3797 23964 0.111111
3798 3727 1
3799 3721 0.95
3799 45085 0.05
3800 3728 1
3801 4 0.333333
3801 25 0.333333
3801 25926 0.333333
3802 3729 1
3803 3730 0.333333
3803 27720 0.666667
3804 3722 1
3805 3732 1
3806 3733 1
3807 3734 0.979592
3807 13103 0.0102041
3807 15619 0.0102041
3808 3735 1
3809 3736 1
3810 3738 1
3811 3739 0.5
3811 8836 0.5
3812 3740 1
3813 3741 1
3814 3743 0.95
3814 4094 0.05
3815 3744 1
3816 3745 1
3817 3746 1
3818 3748 1
3819 3750 0.0666667
